#############################################################################
## Copyright (c) 1996, Carnegie Mellon University, Cambridge University,
## Ronald Rosenfeld and Philip Clarkson
#############################################################################
=============================================================================
===============  This file was produced by the CMU-Cambridge  ===============
===============     Statistical Language Modeling Toolkit     ===============
=============================================================================
This is a 3-gram language model, based on a vocabulary of 45 words,
  which begins "CC", "CD", "DEB_PAR"...
This is an OPEN-vocabulary model (type 1)
  (OOVs were mapped to UNK, which is treated as any other vocabulary word)
Good-Turing discounting was applied.
1-gram frequency of frequency : 0 
2-gram frequency of frequency : 133 71 58 36 45 30 26 
3-gram frequency of frequency : 5114 2395 1488 1047 779 643 532 
1-gram discounting ratios : 
2-gram discounting ratios : 
3-gram discounting ratios : 0.00 0.78 0.80 0.78 0.97 0.89 0.82 
This file is in the ARPA-standard format introduced by Doug Paul.

p(wd3|wd1,wd2)= if(trigram exists)           p_3(wd1,wd2,wd3)
                else if(bigram w1,w2 exists) bo_wt_2(w1,w2)*p(wd3|wd2)
                else                         p(wd3|w2)

p(wd2|wd1)= if(bigram exists) p_2(wd1,wd2)
            else              bo_wt_1(wd1)*p_1(wd2)

All probs and back-off weights (bo_wt) are given in log10 form.

Data formats:

Beginning of data mark: \data\
ngram 1=nr            # number of 1-grams
ngram 2=nr            # number of 2-grams
ngram 3=nr            # number of 3-grams

\1-grams:
p_1     wd_1 bo_wt_1
\2-grams:
p_2     wd_1 wd_2 bo_wt_2
\3-grams:
p_3     wd_1 wd_2 wd_3 

end of data mark: \end\

\data\
ngram 1=46
ngram 2=1406
ngram 3=14566

\1-grams:
-4.8868 <UNK>	-1.1414
-1.5265 CC	-3.5571
-1.9246 CD	-2.8427
-2.7145 DEB_PAR	-1.8938
-2.1620 DEB_QUO	-2.8238
-3.3531 DOLLAR	-2.7327
-2.0655 DOUB_PT	-3.0148
-1.0408 DT	-4.0154
-2.7609 EX	-2.2061
-2.7056 FIN_PAR	-1.7945
-2.1413 FIN_QUO	-2.1401
-3.2099 FW	-1.3935
-0.9716 IN	-4.0845
-1.2239 JJ	-3.5352
-2.6438 JJR	-2.0411
-2.8639 JJS	-1.8616
-3.4709 LS	-1.8485
-1.9558 MD	-2.7081
-0.9009 NN	-4.1536
-1.3151 NNP	-3.7447
-2.8102 NNPS	-1.6263
-1.3605 NNS	-3.6940
-3.2347 PDT	-2.1433
-2.3936 POS	-2.4087
-1.4320 PRP	-3.6342
-1.8779 PRP$	-2.8710
-1.3913 RB	-3.6658
-2.8315 RBR	-1.5978
-3.2109 RBS	-1.5169
-2.9048 RP	-1.6787
-3.0104 SYM	-2.0121
-1.6908 TO	-3.2352
-3.1616 UH	-1.4636
-1.5398 VB	-3.5174
-1.4412 VBD	-3.3347
-1.8726 VBG	-2.6084
-1.6397 VBN	-3.4371
-1.9464 VBP	-3.1338
-1.7713 VBZ	-3.3389
-2.4024 WDT	-2.3108
-2.4302 WP	-2.0759
-3.7090 WP$	-1.6527
-2.4436 WRB	-2.0849
-1.3425 YPFAI	-3.3044
-1.3639 YPFOR	-4.7141
-1.0629 ZTRM	-2.8270

\2-grams:
-0.9294 <UNK> <UNK> 0.0000
-0.6284 <UNK> JJ -0.1450
-0.2304 <UNK> NN -0.0013
-3.4768 CC CC -0.1992
-1.7262 CC CD -0.1003
-2.8054 CC DEB_PAR -0.5280
-2.2483 CC DEB_QUO -0.0944
-3.2290 CC DOLLAR 0.7042
-3.2290 CC DOUB_PT -0.2162
-0.9017 CC DT 0.2595
-2.2234 CC EX -0.2459
-3.1758 CC FIN_QUO -0.3127
-3.6876 CC FW -0.3209
-1.1450 CC IN -0.4130
-0.9743 CC JJ 0.0592
-2.2644 CC JJR 0.1449
-2.9473 CC JJS -0.3988
-3.9887 CC LS -0.0982
-2.0815 CC MD -0.0185
-0.9223 CC NN -0.1829
-1.1394 CC NNP 0.0593
-2.8054 CC NNPS -0.2273
-1.2642 CC NNS -0.3309
-3.0994 CC PDT -0.2239
-1.1509 CC PRP -0.9501
-1.6265 CC PRP$ 0.0760
-1.0928 CC RB 0.3348
-2.3921 CC RBR -0.1166
-2.9095 CC RBS -0.4204
-3.8126 CC RP -0.0218
-2.6176 CC SYM -0.2057
-1.9443 CC TO -0.1455
-3.6876 CC UH 0.1561
-1.4348 CC VB 0.1392
-1.1613 CC VBD -0.5442
-1.6502 CC VBG -0.2082
-1.6532 CC VBN -0.1904
-2.0075 CC VBP -0.1615
-1.8104 CC VBZ 0.1210
-2.6931 CC WDT 0.2687
-2.2685 CC WP 0.2779
-3.3355 CC WP$ 0.4521
-2.1050 CC WRB 0.0235
-1.8952 CC YPFAI -1.1008
-4.1136 CC YPFOR 4.0508
-1.4167 CD CC -0.6165
-1.5215 CD CD -0.2197
-2.0923 CD DEB_PAR -0.3944
-2.8916 CD DEB_QUO -0.1647
-1.5961 CD DOUB_PT -0.6627
-1.8071 CD DT -0.2958
-3.4145 CD EX -0.3745
-1.4492 CD FIN_PAR -0.3896
-2.2059 CD FIN_QUO -0.4477
-3.0466 CD FW -0.2895
-0.9496 CD IN -0.6018
-1.2710 CD JJ -0.6097
-2.4145 CD JJR 0.0447
-3.4145 CD JJS -0.2374
-2.3538 CD MD -0.2530
-0.8824 CD NN 0.1481
-1.5831 CD NNP 0.1218
-2.4851 CD NNPS -0.2964
-0.6436 CD NNS -0.2024
-2.5694 CD POS -0.2458
-2.3353 CD PRP -0.7487
-3.2384 CD PRP$ -0.1205
-1.9232 CD RB -0.5461
-3.1927 CD RBR -0.0645
-3.5906 CD RBS 0.2517
-2.0923 CD SYM -0.4007
-1.6821 CD TO -1.0798
-3.8916 CD UH 0.0000
-3.4937 CD VB -0.0963
-1.8291 CD VBD 0.0800
-2.3731 CD VBG -0.4009
-2.3933 CD VBN -0.3296
-2.4445 CD VBP -0.4004
-2.1674 CD VBZ -0.0763
-2.9139 CD WDT -0.4442
-2.9622 CD WP -0.6872
-2.7947 CD WRB -0.7620
-0.9559 CD YPFAI -0.3614
-1.1095 CD YPFOR 1.6702
-1.3736 DEB_PAR CC -0.3377
-0.9406 DEB_PAR CD -0.8858
-2.2269 DEB_PAR DEB_PAR -0.1958
-1.8347 DEB_PAR DEB_QUO -0.2128
-1.2327 DEB_PAR DT -0.1252
-2.7040 DEB_PAR EX -1.4381
-2.9258 DEB_PAR FIN_QUO 0.0000
-2.1725 DEB_PAR FW -0.1727
-0.9668 DEB_PAR IN 0.0606
-1.3986 DEB_PAR JJ -0.1157
-1.0746 DEB_PAR LS -2.3832
-0.8407 DEB_PAR NN -0.7298
-0.7488 DEB_PAR NNP -1.0086
-1.6787 DEB_PAR NNS -0.4010
-1.6706 DEB_PAR PRP -0.3961
-2.3616 DEB_PAR PRP$ 0.2749
-1.3423 DEB_PAR RB -0.5317
-3.1019 DEB_PAR RBR -0.6007
-3.1019 DEB_PAR RBS 0.0000
-2.1019 DEB_PAR SYM -1.2918
-2.3238 DEB_PAR TO 0.1798
-1.4787 DEB_PAR VB -0.4404
-1.8232 DEB_PAR VBG -0.3744
-1.8347 DEB_PAR VBN -0.2890
-2.9258 DEB_PAR VBP 0.0000
-1.8347 DEB_PAR WDT 0.0276
-2.4029 DEB_PAR WP -0.1801
-2.8009 DEB_PAR WP$ -0.1230
-2.3238 DEB_PAR WRB -0.0124
-2.9258 DEB_PAR YPFAI -0.3197
-1.5471 DEB_QUO CC -0.1673
-2.2833 DEB_QUO CD -0.2965
-3.1772 DEB_QUO DEB_PAR -0.1285
-3.0523 DEB_QUO DOUB_PT -0.0772
-1.0357 DEB_QUO DT -0.3987
-2.0920 DEB_QUO EX -0.3854
-3.4782 DEB_QUO FIN_QUO 0.0000
-2.1630 DEB_QUO FW -0.6779
-1.3041 DEB_QUO IN -0.3316
-1.0689 DEB_QUO JJ -0.6806
-2.8762 DEB_QUO JJR -0.1883
-2.9554 DEB_QUO JJS -0.1313
-3.3533 DEB_QUO LS -0.3953
-2.1630 DEB_QUO MD -0.7928
-0.9944 DEB_QUO NN -0.8294
-0.9562 DEB_QUO NNP -0.6457
-2.5574 DEB_QUO NNPS -0.4049
-1.5880 DEB_QUO NNS -0.7413
-3.0011 DEB_QUO PDT 0.0198
-0.7313 DEB_QUO PRP -1.2887
-1.8984 DEB_QUO PRP$ -0.3353
-1.2669 DEB_QUO RB 0.0576
-3.1103 DEB_QUO RBR 0.1388
-2.9140 DEB_QUO RBS 0.4349
-2.1995 DEB_QUO TO -0.3442
-1.2973 DEB_QUO UH 0.0515
-1.2634 DEB_QUO VB -0.0021
-2.0259 DEB_QUO VBD -0.0751
-1.9510 DEB_QUO VBG -0.3074
-1.9342 DEB_QUO VBN -0.4611
-1.8448 DEB_QUO VBP -0.7932
-1.9425 DEB_QUO VBZ -0.1647
-2.6543 DEB_QUO WDT -0.7085
-1.6835 DEB_QUO WP -0.3830
-1.6249 DEB_QUO WRB -0.4538
-3.1103 DEB_QUO YPFOR 3.9983
-0.0037 DOLLAR CD -0.1570
-2.1629 DOLLAR JJ -0.1450
-1.0237 DOUB_PT CC -0.3126
-1.6539 DOUB_PT CD -0.2995
-1.9727 DOUB_PT DEB_PAR -1.2103
-1.2323 DOUB_PT DEB_QUO 0.1214
-3.0976 DOUB_PT DOLLAR 1.1117
-0.5847 DOUB_PT DOUB_PT -0.3865
-0.9419 DOUB_PT DT -0.1652
-2.2067 DOUB_PT EX -0.0885
-3.7508 DOUB_PT FIN_PAR 0.0000
-2.7966 DOUB_PT FIN_QUO -0.1805
-2.9727 DOUB_PT FW -0.1058
-1.1128 DOUB_PT IN 0.0739
-1.6031 DOUB_PT JJ 0.1331
-2.7508 DOUB_PT JJR 0.0480
-3.3529 DOUB_PT JJS -0.1604
-2.4836 DOUB_PT LS -0.6512
-2.4184 DOUB_PT MD 0.3322
-1.4801 DOUB_PT NN -0.2293
-1.2884 DOUB_PT NNP -0.4936
-3.4498 DOUB_PT NNPS -0.1892
-1.7966 DOUB_PT NNS -0.3617
-2.9379 DOUB_PT PDT 0.1611
-1.1504 DOUB_PT PRP -1.2311
-1.9379 DOUB_PT PRP$ -0.3486
-1.3083 DOUB_PT RB 0.0654
-3.1488 DOUB_PT RBR 0.0584
-3.7508 DOUB_PT RBS 0.0000
-2.3529 DOUB_PT SYM -0.4286
-2.0475 DOUB_PT TO -0.3981
-2.4286 DOUB_PT UH -0.6397
-1.9727 DOUB_PT VB -0.3352
-1.9183 DOUB_PT VBD -0.3793
-2.0065 DOUB_PT VBG -0.2305
-2.2006 DOUB_PT VBN -0.0608
-2.4498 DOUB_PT VBP -0.1058
-2.1885 DOUB_PT VBZ -0.1979
-2.3195 DOUB_PT WDT -0.1995
-2.2323 DOUB_PT WP -0.0276
-3.4498 DOUB_PT WP$ -0.0948
-2.2389 DOUB_PT WRB 0.0656
-3.2737 DOUB_PT YPFAI -0.1099
-3.4498 DOUB_PT YPFOR 4.1045
-2.9973 DT CC -0.1962
-1.9077 DT CD -0.9117
-3.7148 DT DEB_PAR -0.2981
-2.2402 DT DEB_QUO -1.4483
-3.1844 DT DOLLAR 0.6474
-3.1034 DT DOUB_PT 0.0639
-2.5768 DT DT 0.1450
-4.1734 DT EX 0.1438
-3.9626 DT FIN_PAR -0.3367
-2.8834 DT FIN_QUO -0.4573
-3.1789 DT FW -0.0430
-1.8998 DT IN -0.3098
-0.6387 DT JJ -0.4684
-2.2283 DT JJR -0.6116
-2.1872 DT JJS -0.1817
-2.6201 DT MD -0.5301
-0.3146 DT NN 0.1709
-1.1153 DT NNP -0.1700
-2.3086 DT NNPS -0.1690
-1.0824 DT NNS 0.2494
-4.5994 DT PDT -0.3152
-4.3775 DT POS -1.4553
-2.8385 DT PRP -0.2383
-2.9659 DT PRP$ -0.5190
-1.9062 DT RB -0.3346
-2.6186 DT RBR -0.3700
-2.4648 DT RBS -1.0535
-4.3775 DT RP -0.1623
-3.1034 DT SYM -0.2273
-3.2504 DT TO -0.2121
-4.5994 DT UH -0.3130
-3.2841 DT VB -0.0989
-2.2491 DT VBD 0.1250
-1.9912 DT VBG -0.9072
-2.0570 DT VBN -0.8253
-2.7186 DT VBP -0.1193
-2.0399 DT VBZ -0.3882
-3.3605 DT WDT -0.4059
-2.6649 DT WP -0.6195
-4.3775 DT WP$ -0.0553
-4.5994 DT WRB -0.2879
-2.3863 DT YPFAI -0.1199
-2.4967 DT YPFOR 2.1736
-2.5113 EX DT 0.0672
-2.6574 EX FIN_QUO -0.3123
-2.8793 EX IN 0.0000
-1.0260 EX MD -0.5613
-2.5783 EX NN -0.1278
-2.6574 EX POS -0.3860
-2.4533 EX PRP -0.4615
-1.9585 EX RB -0.6402
-2.2103 EX VB -0.4453
-0.4214 EX VBD -1.5142
-2.6574 EX VBG -0.1946
-0.7847 EX VBP -0.9141
-0.4925 EX VBZ -0.9861
-2.4022 EX YPFAI -0.1649
-1.1664 FIN_PAR CC 0.1791
-1.8679 FIN_PAR CD -0.6057
-2.4120 FIN_PAR DEB_PAR -0.9471
-2.2658 FIN_PAR DEB_QUO -0.1583
-1.4435 FIN_PAR DOUB_PT -0.5972
-1.2476 FIN_PAR DT -0.2085
-2.4577 FIN_PAR EX 0.7136
-2.2359 FIN_PAR FIN_PAR -0.2679
-2.2658 FIN_PAR FIN_QUO -0.0584
-0.9451 FIN_PAR IN 0.0665
-1.7685 FIN_PAR JJ -0.3630
-2.5089 FIN_PAR JJR -0.3111
-2.9348 FIN_PAR JJS -0.2397
-2.0897 FIN_PAR LS -1.0728
-1.8805 FIN_PAR MD -0.2004
-1.2597 FIN_PAR NN -0.1716
-1.5607 FIN_PAR NNP -0.2875
-1.5486 FIN_PAR NNS -0.0832
-1.7685 FIN_PAR PRP -0.6814
-2.5089 FIN_PAR PRP$ -0.0799
-1.8209 FIN_PAR RB -0.0864
-3.1109 FIN_PAR RBR -0.4123
-2.6338 FIN_PAR SYM -0.1808
-1.8557 FIN_PAR TO -0.2401
-1.5794 FIN_PAR VB -0.4604
-1.4388 FIN_PAR VBD -0.1476
-2.1567 FIN_PAR VBG -0.1121
-1.9496 FIN_PAR VBN -0.1413
-1.7785 FIN_PAR VBP -0.3504
-1.2784 FIN_PAR VBZ -0.1864
-2.0897 FIN_PAR WDT -0.1521
-2.2658 FIN_PAR WP -0.4066
-2.1815 FIN_PAR WRB -0.1121
-0.8002 FIN_PAR YPFAI -0.0721
-0.8176 FIN_PAR YPFOR 2.1590
-1.5747 FIN_QUO CC -0.2394
-3.1979 FIN_QUO CD -0.1196
-2.1310 FIN_QUO DEB_PAR -0.4015
-2.4990 FIN_QUO DEB_QUO -0.2616
-1.5747 FIN_QUO DOUB_PT -0.5261
-1.9079 FIN_QUO DT 0.0831
-3.4990 FIN_QUO EX -0.1129
-2.3426 FIN_QUO FIN_PAR -0.2064
-2.2052 FIN_QUO FIN_QUO -0.2198
-3.2771 FIN_QUO FW -0.1736
-1.3012 FIN_QUO IN -0.2825
-2.2357 FIN_QUO JJ -0.1917
-2.3326 FIN_QUO MD -0.5347
-1.4778 FIN_QUO NN -0.3138
-1.9675 FIN_QUO NNP -0.1614
-1.8757 FIN_QUO NNS 0.0720
-2.0076 FIN_QUO PRP -0.0899
-2.8299 FIN_QUO PRP$ 0.1007
-2.0784 FIN_QUO RB -0.1418
-2.0623 FIN_QUO TO 0.0824
-2.7720 FIN_QUO VB -0.2660
-1.8792 FIN_QUO VBD -0.1824
-2.7208 FIN_QUO VBG -0.0147
-2.3426 FIN_QUO VBN -0.4881
-2.3326 FIN_QUO VBP -0.2693
-1.8029 FIN_QUO VBZ -0.1980
-2.4576 FIN_QUO WDT -0.4678
-2.6750 FIN_QUO WP -0.2600
-3.6750 FIN_QUO WP$ 0.0000
-2.7720 FIN_QUO WRB -0.1137
-0.6559 FIN_QUO YPFAI -0.4588
-0.3057 FIN_QUO YPFOR 1.0830
-1.9537 FW CC -0.0906
-2.3059 FW CD -0.3881
-2.0049 FW DEB_PAR -0.1026
-2.0629 FW DOUB_PT 0.0000
-2.2090 FW DT 0.1178
-2.0049 FW FIN_PAR -0.1860
-1.1298 FW FIN_QUO -0.1698
-0.3626 FW FW 0.0308
-1.2178 FW IN -0.1040
-2.2090 FW JJ -0.1665
-2.3059 FW MD 0.1643
-1.6292 FW NN -0.1206
-1.5655 FW NNP -0.0436
-2.6069 FW NNPS 0.0000
-2.1298 FW NNS -0.2539
-2.6069 FW PRP -0.4856
-2.6069 FW RB 0.0000
-2.1298 FW TO 0.0894
-1.8288 FW VBD -0.3260
-2.3059 FW VBN 0.0000
-2.1298 FW VBZ -0.4861
-2.0629 FW WDT -0.3282
-0.7974 FW YPFAI 0.0130
-1.0271 FW YPFOR 2.8726
-4.4467 IN <UNK> 0.0679
-2.5930 IN CC -0.0631
-1.5165 IN CD -0.1902
-3.5224 IN DEB_PAR 0.0038
-2.3375 IN DEB_QUO -0.6683
-2.7443 IN DOLLAR -0.3354
-3.0965 IN DOUB_PT 0.1574
-0.4162 IN DT -0.5536
-2.6433 IN EX -0.2338
-3.9996 IN FIN_PAR -0.1921
-2.9127 IN FIN_QUO -0.1266
-3.6543 IN FW -0.1345
-1.5687 IN IN -0.2871
-1.1379 IN JJ -0.1089
-2.6091 IN JJR -0.8336
-2.4925 IN JJS -0.1048
-3.3975 IN MD 0.1253
-0.8783 IN NN -0.6725
-1.0806 IN NNP -0.3790
-2.9102 IN NNPS -0.1962
-1.3838 IN NNS -0.2151
-2.6529 IN PDT -0.1533
-4.1915 IN POS -0.1345
-1.1603 IN PRP -0.8323
-1.2524 IN PRP$ -0.1141
-1.8410 IN RB -0.0174
-3.1634 IN RBR -0.3960
-3.3196 IN RBS 0.4188
-4.6686 IN RP 0.0000
-2.5740 IN SYM -0.1935
-2.2345 IN TO 0.1037
-4.5436 IN UH 0.0000
-3.2765 IN VB -0.1451
-3.0558 IN VBD 0.1245
-1.5428 IN VBG -0.0252
-2.2938 IN VBN -0.1461
-3.5329 IN VBP 0.0810
-3.0251 IN VBZ -0.0826
-2.1183 IN WDT -0.1352
-2.4973 IN WP 0.2545
-3.9696 IN WP$ 0.2043
-2.8235 IN WRB -0.3150
-2.3125 IN YPFAI -0.0152
-2.5013 IN YPFOR 2.1089
-1.4135 JJ CC -0.7393
-2.2058 JJ CD -0.5124
-2.9488 JJ DEB_PAR -0.3796
-2.6169 JJ DEB_QUO -0.9158
-3.6629 JJ DOLLAR 0.8355
-2.1765 JJ DOUB_PT -0.0688
-2.1723 JJ DT -0.4878
-4.0482 JJ EX -0.1472
-2.8364 JJ FIN_PAR -0.1724
-2.0114 JJ FIN_QUO -0.1909
-3.6146 JJ FW -0.3218
-1.1697 JJ IN 0.1017
-1.2550 JJ JJ -0.7479
-3.0482 JJ JJR -0.7631
-3.7172 JJ JJS -0.3687
-3.0804 JJ MD 0.2104
-0.3535 JJ NN -0.1695
-1.6743 JJ NNP 0.5968
-2.9343 JJ NNPS -0.2781
-0.7032 JJ NNS -0.1015
-4.1944 JJ PDT 0.5533
-3.7472 JJ POS -0.1256
-2.4784 JJ PRP -0.7470
-3.1691 JJ PRP$ -0.0316
-2.1367 JJ RB -0.1274
-3.8933 JJ RBR 0.0910
-4.1944 JJ RP -0.0536
-3.4162 JJ SYM -0.2787
-1.5292 JJ TO -0.3520
-4.4162 JJ UH 0.0000
-3.5316 JJ VB -0.1780
-2.7794 JJ VBD -0.0376
-2.4717 JJ VBG -0.3674
-2.7761 JJ VBN -0.4621
-3.1451 JJ VBP 0.1442
-2.7827 JJ VBZ -0.1839
-3.6892 JJ WDT -0.1424
-3.4162 JJ WP 0.2631
-2.9156 JJ WRB -0.2461
-1.2963 JJ YPFAI -0.4227
-1.4642 JJ YPFOR 1.3243
-1.3465 JJR CC -0.7447
-2.4736 JJR CD -0.1945
-2.6955 JJR DEB_PAR -0.2665
-2.5705 JJR DEB_QUO -0.6122
-2.3945 JJR DOUB_PT -0.0844
-1.9422 JJR DT -0.4228
-2.9965 JJR FIN_PAR -0.2480
-2.2184 JJR FIN_QUO -0.0402
-0.6418 JJR IN -0.3274
-1.2614 JJR JJ -0.7726
-2.8716 JJR MD 0.1643
-0.4987 JJR NN -0.1610
-1.8938 JJR NNP -0.1241
-2.9965 JJR NNPS 0.0000
-0.8204 JJR NNS -0.3303
-2.3945 JJR PRP -0.1901
-2.7747 JJR PRP$ 0.0397
-2.0423 JJR RB -0.5414
-1.4524 JJR TO -0.3111
-3.1726 JJR VB 0.0000
-2.7747 JJR VBD 0.0000
-2.3945 JJR VBG -0.2036
-2.6285 JJR VBN -0.4391
-2.8716 JJR VBP 0.0000
-2.8716 JJR VBZ -0.3029
-2.7747 JJR WRB -0.1552
-1.3401 JJR YPFAI -0.3610
-1.3183 JJR YPFOR 2.5980
-1.6101 JJS CC -0.6506
-1.2851 JJS CD -0.5828
-2.5546 JJS DEB_PAR -0.3366
-2.3505 JJS DEB_QUO -0.2903
-2.7765 JJS DOLLAR 1.3634
-2.7765 JJS DOUB_PT 0.0000
-1.6408 JJS DT -0.0799
-2.9526 JJS FIN_PAR 0.0000
-2.0775 JJS FIN_QUO 0.2458
-0.7736 JJS IN -0.3411
-1.0387 JJS JJ -0.3382
-2.9526 JJS MD -0.5665
-0.5384 JJS NN -0.4121
-1.8222 JJS NNP -0.1448
-2.4754 JJS NNPS -0.1729
-0.7808 JJS NNS -0.3352
-1.8064 JJS PRP -0.4678
-2.7765 JJS PRP$ -0.2241
-1.7622 JJS RB -0.0436
-1.8064 JJS TO -0.2117
-2.4754 JJS VB -0.3478
-2.4085 JJS VBD -0.1147
-2.3505 JJS VBG -0.2610
-1.9748 JJS VBN -0.1254
-2.2122 JJS VBZ -0.0981
-2.5546 JJS WRB -0.0914
-1.3962 JJS YPFAI -0.1810
-1.6408 JJS YPFOR 3.1406
-2.3464 LS CC -0.6608
-1.9484 LS DOUB_PT -0.1600
-2.1703 LS DT 0.0000
-0.3010 LS FIN_PAR -0.6943
-2.1703 LS JJ -0.0655
-2.3464 LS NNP 0.0000
-1.9484 LS VBD -0.1364
-2.0453 LS YPFAI -0.1947
-0.3596 LS YPFOR 2.4656
-2.4894 MD CC -0.6570
-3.2584 MD CD -0.2598
-3.3164 MD DEB_PAR -0.0602
-2.9310 MD DEB_QUO -1.1919
-2.9573 MD DOUB_PT -0.1080
-2.0311 MD DT -0.2317
-3.0475 MD FIN_QUO -0.1910
-2.3691 MD IN -0.4443
-2.8827 MD JJ -0.0026
-2.7465 MD NN -0.5486
-2.8604 MD NNP -0.4855
-3.3833 MD NNS -0.3133
-1.6052 MD PRP -1.5069
-2.8392 MD PRP$ -0.0053
-0.7092 MD RB -1.7170
-3.1201 MD RBR -0.6486
-2.2806 MD TO -0.8151
-0.1386 MD VB -0.4301
-2.5180 MD VBD -0.4749
-3.6843 MD VBG 0.0000
-2.3980 MD VBN 0.1809
-3.8604 MD VBP 0.0000
-3.8604 MD WRB 0.0000
-2.0970 MD YPFAI -0.7129
-2.4133 MD YPFOR 3.0052
-1.2371 NN CC -0.4076
-2.2129 NN CD -0.9835
-2.4150 NN DEB_PAR 0.1057
-2.8326 NN DEB_QUO -0.2899
-4.2621 NN DOLLAR 1.1117
-1.7547 NN DOUB_PT 0.1248
-1.9895 NN DT -0.0734
-3.2121 NN EX -0.6164
-2.4375 NN FIN_PAR 0.3085
-1.7155 NN FIN_QUO -0.3512
-3.8184 NN FW -0.2125
-0.5611 NN IN -0.3263
-2.1254 NN JJ 0.2045
-3.1830 NN JJR -0.5134
-4.1024 NN JJS -0.1226
-3.9611 NN LS -0.3500
-1.7119 NN MD -0.7840
-1.1184 NN NN 0.3733
-2.2626 NN NNP 0.0368
-4.1024 NN NNPS -0.1572
-1.4165 NN NNS 0.2713
-3.9859 NN PDT 0.1714
-1.9831 NN POS -0.4670
-1.9106 NN PRP -0.9301
-3.1300 NN PRP$ 0.0495
-1.6723 NN RB -0.6989
-3.1595 NN RBR 0.0600
-3.8942 NN RBS 0.4919
-3.2573 NN RP -0.5688
-2.9684 NN SYM -0.4034
-1.4615 NN TO -0.2645
-4.7393 NN UH -0.0292
-2.4929 NN VB 0.0285
-1.3325 NN VBD 0.0665
-2.1240 NN VBG -0.1779
-1.9642 NN VBN 0.0462
-2.2588 NN VBP -0.3437
-1.3612 NN VBZ 0.2707
-2.0037 NN WDT -0.5015
-2.2498 NN WP -0.5776
-3.3651 NN WP$ -0.4844
-2.3578 NN WRB -0.6647
-0.9319 NN YPFAI 0.3106
-0.9198 NN YPFOR 0.4568
-1.3334 NNP CC -0.5650
-1.8218 NNP CD -0.6529
-2.1357 NNP DEB_PAR -0.2116
-2.9046 NNP DEB_QUO -0.5983
-1.9653 NNP DOUB_PT -0.1751
-2.2123 NNP DT -0.1513
-3.6261 NNP EX 0.3378
-2.1821 NNP FIN_PAR -0.3656
-1.7077 NNP FIN_QUO -0.1055
-3.4405 NNP FW -0.1958
-1.1700 NNP IN -0.3905
-2.3067 NNP JJ 0.1311
-3.8991 NNP JJR -0.1729
-4.2002 NNP JJS -0.1352
-4.3251 NNP LS 0.0000
-1.8627 NNP MD -0.3467
-1.3012 NNP NN -0.0473
-0.5281 NNP NNP 0.0513
-1.9057 NNP NNPS -0.3146
-1.6991 NNP NNS -0.1495
-4.2002 NNP PDT 0.3252
-1.3156 NNP POS -0.2127
-2.3773 NNP PRP -0.2649
-3.1490 NNP PRP$ -0.5727
-1.9180 NNP RB -0.2572
-4.1032 NNP RBR -0.3239
-3.6261 NNP RP -0.3391
-3.5012 NNP SYM -0.3372
-2.0141 NNP TO -0.3121
-4.3251 NNP UH 0.0000
-2.4926 NNP VB -0.1713
-0.9778 NNP VBD -0.0034
-2.4969 NNP VBG 0.3481
-2.8528 NNP VBN 0.0084
-2.3295 NNP VBP -0.1951
-1.5091 NNP VBZ -0.1715
-2.8831 NNP WDT -0.2244
-2.7053 NNP WP -0.4109
-3.9571 NNP WP$ 0.0502
-2.8291 NNP WRB -0.4351
-0.8906 NNP YPFAI -0.2338
-1.2015 NNP YPFOR 1.1526
-1.1226 NNPS CC -0.4326
-1.8759 NNPS CD -1.2092
-2.0285 NNPS DEB_PAR -0.0114
-1.7632 NNPS DOUB_PT -0.1337
-1.9456 NNPS DT -0.2221
-2.8302 NNPS EX 0.0000
-2.8302 NNPS FIN_PAR 0.0000
-1.3628 NNPS FIN_QUO -0.1071
-0.9146 NNPS IN -0.2745
-2.2659 NNPS JJ 0.1910
-1.5514 NNPS MD -0.4248
-1.7758 NNPS NN -0.0410
-1.1489 NNPS NNP -0.2290
-1.6738 NNPS NNPS -0.2896
-2.1032 NNPS NNS -0.0470
-1.6840 NNPS POS 0.2694
-2.2659 NNPS PRP -0.0417
-2.8302 NNPS PRP$ 0.0047
-1.7758 NNPS RB -0.3266
-1.6945 NNPS TO -0.4855
-2.2281 NNPS VB -0.0814
-1.0569 NNPS VBD 0.1701
-2.0063 NNPS VBG -0.1593
-2.3530 NNPS VBN -0.1348
-1.2354 NNPS VBP -0.0730
-1.7052 NNPS VBZ -0.1642
-2.8302 NNPS WDT 0.0000
-1.9093 NNPS WP -0.6850
-2.8302 NNPS WRB -0.5228
-0.7462 NNPS YPFAI 0.4004
-0.9688 NNPS YPFOR 2.4149
-1.1214 NNS CC -0.6591
-2.5039 NNS CD -0.6567
-2.3111 NNS DEB_PAR -0.5562
-3.0325 NNS DEB_QUO -0.1681
-4.2796 NNS DOLLAR 1.3634
-1.6616 NNS DOUB_PT -0.0435
-1.9837 NNS DT -0.3222
-3.2382 NNS EX 0.6347
-2.5314 NNS FIN_PAR -0.6441
-1.8440 NNS FIN_QUO -0.3183
-4.0578 NNS FW 0.0843
-0.5699 NNS IN -0.4130
-1.9852 NNS JJ -0.0770
-3.0578 NNS JJR -0.9248
-4.1547 NNS JJS -0.0668
-4.2796 NNS LS -0.0703
-1.6362 NNS MD -0.5246
-2.1035 NNS NN -0.1375
-2.6296 NNS NNP -0.3020
-4.4557 NNS NNPS 0.0000
-2.5692 NNS NNS -0.0805
-3.9786 NNS PDT 0.0211
-2.2654 NNS POS -0.2434
-1.9574 NNS PRP -0.9320
-3.1657 NNS PRP$ -0.4199
-1.4919 NNS RB -0.4107
-3.0578 NNS RBR 0.0793
-3.8025 NNS RBS 0.1124
-3.2253 NNS RP -0.5150
-3.3588 NNS SYM -0.1957
-1.5289 NNS TO -0.1834
-4.4557 NNS UH 0.0000
-2.1956 NNS VB -0.2632
-1.2380 NNS VBD -0.2499
-1.8202 NNS VBG -0.2214
-1.6787 NNS VBN -0.7508
-1.2217 NNS VBP -0.1953
-1.9651 NNS VBZ -0.1982
-1.7958 NNS WDT -0.7484
-1.9405 NNS WP -0.6648
-3.0578 NNS WP$ -0.2421
-2.3676 NNS WRB -0.7801
-0.8746 NNS YPFAI -0.5601
-0.8854 NNS YPFOR 0.8820
-0.0487 PDT DT -0.2330
-1.9794 PDT IN -0.0650
-2.1044 PDT JJ -0.6207
-1.0832 PDT PRP$ -0.4266
-2.1555 POS CC -0.3377
-1.9913 POS CD -0.2662
-2.8786 POS DEB_PAR -0.0245
-1.8099 POS DEB_QUO -0.8934
-3.4227 POS DOLLAR 1.4051
-2.7695 POS DOUB_PT -0.0041
-2.4227 POS DT -0.5674
-2.8786 POS FIN_PAR -0.2192
-2.4684 POS FIN_QUO 0.0463
-3.4227 POS FW -0.4138
-2.2323 POS IN -0.0681
-0.8184 POS JJ -1.0054
-2.6098 POS JJR -0.4254
-1.9456 POS JJS -0.7673
-3.1216 POS MD 0.3483
-0.2967 POS NN -0.8206
-1.0647 POS NNP -0.1531
-2.6823 POS NNPS -0.1866
-0.8842 POS NNS -0.2205
-3.2466 POS PRP -0.1445
-2.9456 POS PRP$ -0.3921
-2.4933 POS RB -0.2682
-2.7695 POS RBS -0.4872
-3.4227 POS SYM 0.0000
-3.2466 POS TO -0.6812
-2.7695 POS VB -0.0685
-2.3813 POS VBD -0.1538
-1.9042 POS VBG -0.4755
-2.2186 POS VBN -0.8039
-3.2466 POS VBP -0.2323
-2.8206 POS VBZ -0.0981
-3.2466 POS WDT -0.2311
-3.4227 POS WP 0.0000
-3.2466 POS WRB -0.1400
-1.9313 POS YPFAI -0.1620
-1.9456 POS YPFOR 2.9752
-1.9340 PRP CC -0.5528
-3.0518 PRP CD -0.4555
-3.1668 PRP DEB_PAR -0.2814
-2.8592 PRP DEB_QUO -0.3967
-2.2154 PRP DOUB_PT -0.1186
-1.7625 PRP DT 0.3227
-3.6853 PRP EX 0.0160
-3.3235 PRP FIN_PAR -0.1449
-1.8852 PRP FIN_QUO -1.1067
-1.2549 PRP IN -0.2434
-2.0468 PRP JJ -0.4210
-3.2539 PRP JJR 0.0286
-4.2081 PRP JJS 0.0000
-0.9295 PRP MD -0.6136
-2.3032 PRP NN -0.3020
-2.9371 PRP NNP -0.4397
-3.9071 PRP NNPS -0.1187
-2.8859 PRP NNS -0.0287
-3.5092 PRP PDT -0.2021
-3.0942 PRP POS -0.1905
-2.2821 PRP PRP -0.1470
-2.9371 PRP PRP$ 0.1708
-1.2899 PRP RB -0.9888
-3.1538 PRP RBR 0.1028
-3.6853 PRP RBS -0.2321
-2.3997 PRP RP -0.9697
-1.7448 PRP TO -0.4459
-4.0832 PRP UH -0.2099
-1.5275 PRP VB 0.0527
-0.4788 PRP VBD -0.0608
-2.3179 PRP VBG -0.5796
-2.3292 PRP VBN -0.0268
-0.9085 PRP VBP 0.2896
-1.0312 PRP VBZ -0.3761
-3.1668 PRP WDT -0.3246
-2.6724 PRP WP -0.1538
-4.3842 PRP WP$ -0.5291
-2.7075 PRP WRB -0.3463
-1.4430 PRP YPFAI -0.5465
-1.3226 PRP YPFOR 1.3907
-3.2394 PRP$ CC -0.6886
-2.3049 PRP$ CD -0.7423
-3.5404 PRP$ DEB_PAR -0.0775
-2.3309 PRP$ DEB_QUO -1.2437
-3.9383 PRP$ DOLLAR 1.4051
-3.9383 PRP$ DOUB_PT 0.0000
-3.4612 PRP$ DT -0.4287
-3.9383 PRP$ FIN_PAR 0.0000
-3.7623 PRP$ FIN_QUO -0.6878
-3.2851 PRP$ FW -0.1993
-3.0633 PRP$ IN -0.1117
-0.6808 PRP$ JJ -0.5699
-2.5959 PRP$ JJR -0.6317
-2.1155 PRP$ JJS -0.4228
-3.7623 PRP$ MD -0.1390
-0.2788 PRP$ NN -0.4492
-1.7452 PRP$ NNP -0.0662
-3.2394 PRP$ NNPS -0.0661
-0.7040 PRP$ NNS -0.0543
-3.9383 PRP$ POS 0.0000
-3.9383 PRP$ PRP$ 0.0000
-2.2571 PRP$ RB -0.6024
-3.9383 PRP$ RBR -0.4123
-3.0353 PRP$ RBS -0.7371
-3.9383 PRP$ SYM 0.0000
-3.5404 PRP$ VB -0.4088
-3.4612 PRP$ VBD -0.0601
-1.9817 PRP$ VBG -0.4575
-2.2437 PRP$ VBN -1.0944
-3.9383 PRP$ VBZ 0.0000
-3.0089 PRP$ YPFAI -0.1814
-3.1254 PRP$ YPFOR 3.6394
-1.7060 RB CC -0.4363
-2.0244 RB CD -0.3214
-3.1696 RB DEB_PAR -0.1052
-2.9130 RB DEB_QUO -0.4363
-3.4249 RB DOLLAR 0.7649
-2.1132 RB DOUB_PT -0.1742
-1.2434 RB DT 0.3264
-2.7303 RB EX -0.1814
-2.9266 RB FIN_PAR -0.0517
-1.9329 RB FIN_QUO -0.6364
-4.1239 RB FW -0.1522
-0.8247 RB IN 0.0997
-0.9658 RB JJ -0.2563
-2.0747 RB JJR -0.1737
-3.4249 RB JJS 0.1090
-2.1996 RB MD 0.0843
-1.9399 RB NN 0.0619
-2.0915 RB NNP -0.3263
-4.1239 RB NNPS 0.0000
-2.5164 RB NNS 0.0361
-3.2636 RB PDT -0.1950
-3.3457 RB POS -0.1221
-1.5682 RB PRP -0.7748
-2.3623 RB PRP$ -0.0573
-1.0504 RB RB -0.4660
-2.1382 RB RBR 0.0550
-3.6468 RB RBS 0.2433
-3.6120 RB RP -0.1286
-3.1945 RB SYM -0.0804
-1.4877 RB TO -0.0850
-3.8809 RB UH -0.2216
-1.0323 RB VB -0.1916
-1.3648 RB VBD 0.1485
-1.6232 RB VBG -0.0925
-1.0949 RB VBN 0.1300
-1.9130 RB VBP -0.1394
-1.7186 RB VBZ 0.0457
-3.3457 RB WDT -0.1496
-2.6290 RB WP -0.4609
-2.2803 RB WRB -0.3707
-1.0203 RB YPFAI -0.4229
-1.2535 RB YPFOR 1.2809
-1.4665 RBR CC -0.8626
-2.9850 RBR DEB_PAR 0.0000
-2.6839 RBR DEB_QUO -0.6101
-2.5079 RBR DOUB_PT -0.0002
-2.0307 RBR DT -0.4374
-2.9850 RBR FIN_PAR 0.0000
-2.2068 RBR FIN_QUO 0.0493
-0.6994 RBR IN 0.0018
-0.3607 RBR JJ -0.4266
-2.3318 RBR MD -0.3907
-2.2860 RBR NN -0.1073
-2.5870 RBR NNP -0.1324
-2.5079 RBR NNS -0.2892
-2.1399 RBR PRP -0.4686
-2.8089 RBR PRP$ 0.0047
-0.8881 RBR RB -0.5364
-2.9850 RBR RP -0.6590
-1.7545 RBR TO -0.1403
-2.0307 RBR VB -0.0192
-2.4409 RBR VBD -0.4895
-2.3318 RBR VBG -0.0896
-1.3270 RBR VBN -0.2312
-2.6839 RBR VBP 0.0000
-2.5870 RBR VBZ -0.0925
-2.8089 RBR WRB 0.0000
-1.5456 RBR YPFAI -0.3585
-1.4867 RBR YPFOR 2.9540
-2.6053 RBS DOUB_PT -0.5300
-2.3043 RBS DT 0.0726
-0.9425 RBS IN -0.8555
-0.1812 RBS JJ -0.2872
-2.6053 RBS NN -0.5214
-2.6053 RBS NNS -0.6466
-2.2074 RBS PRP -0.2305
-0.9241 RBS RB -0.3465
-2.2074 RBS TO -1.1492
-2.6053 RBS VB 0.0000
-2.0612 RBS VBD -0.1733
-2.3043 RBS VBG -0.1609
-1.4592 RBS VBN -0.2209
-2.6053 RBS VBP 0.0000
-2.6053 RBS VBZ 0.0000
-2.4292 RBS WRB -0.1400
-2.0032 RBS YPFAI -0.1167
-2.2074 RBS YPFOR 3.2374
-1.3739 RP CC -0.4433
-1.9117 RP CD -0.3841
-2.7356 RP DEB_QUO -0.2810
-2.0366 RP DOUB_PT 0.0077
-0.6588 RP DT -0.3573
-2.9117 RP FIN_PAR 0.0000
-1.6942 RP FIN_QUO -0.3463
-0.6528 RP IN -0.2875
-1.6329 RP JJ -0.2602
-2.9117 RP MD -0.0973
-1.5406 RP NN -0.1857
-2.0086 RP NNP -0.2047
-1.6107 RP NNS -0.2381
-2.7356 RP PDT 0.2715
-2.3676 RP PRP -0.0673
-1.1520 RP PRP$ -0.5885
-1.2350 RP RB -0.8908
-1.3262 RP TO -0.2091
-2.4346 RP VBD 0.0000
-2.3096 RP VBG -0.1102
-2.7356 RP VBN 0.0000
-2.9117 RP VBZ 0.0000
-2.9117 RP WDT 0.0000
-2.1335 RP WP 0.0824
-2.5138 RP WRB -0.0667
-1.1596 RP YPFAI -0.0574
-0.9747 RP YPFOR 2.5153
-1.0394 SYM CC -0.5536
-2.5055 SYM CD 0.0000
-2.1075 SYM DEB_PAR -0.1543
-1.9614 SYM DOUB_PT -1.0152
-2.3294 SYM DT -0.0282
-2.8065 SYM EX 0.0000
-1.6762 SYM FIN_PAR -0.6549
-2.4086 SYM FIN_QUO -0.4060
-0.9229 SYM IN -0.0463
-1.8523 SYM JJ 0.0752
-2.6304 SYM JJR 0.0000
-1.7853 SYM MD -0.0107
-0.9144 SYM NN -0.3989
-2.1075 SYM NNP -0.1525
-1.4543 SYM NNS -0.0711
-2.0662 SYM RB -0.1491
-2.8065 SYM SYM 0.0000
-1.9936 SYM TO 0.2112
-2.2625 SYM VB -0.0860
-1.7651 SYM VBD -0.6239
-2.8065 SYM VBG 0.0000
-2.2045 SYM VBN -0.4536
-1.7458 SYM VBP -0.2774
-1.0394 SYM VBZ -0.6480
-1.9614 SYM WDT -0.2864
-1.8065 SYM WRB -1.1612
-1.0003 SYM YPFAI -0.6081
-0.6010 SYM YPFOR 2.2469
-3.1478 TO CC -0.3739
-1.7911 TO CD -0.2661
-3.6484 TO DEB_PAR -0.4115
-2.3812 TO DEB_QUO -0.8634
-2.6557 TO DOLLAR 0.2951
-3.5235 TO DOUB_PT -0.1762
-0.7251 TO DT -0.6400
-3.2224 TO FIN_QUO -0.0313
-2.5075 TO IN -0.3174
-1.6096 TO JJ -0.7354
-2.8583 TO JJR -0.2251
-3.3126 TO JJS -0.1472
-1.3988 TO NN 0.2831
-1.3200 TO NNP -0.1004
-3.9494 TO NNPS 0.0000
-1.8514 TO NNS -0.5988
-3.1478 TO PDT -0.0113
-1.4987 TO PRP 0.3093
-1.5262 TO PRP$ -0.0705
-2.4353 TO RB -0.3863
-3.6484 TO RBR -0.0318
-3.1043 TO SYM -0.0465
-4.1255 TO UH 0.0000
-0.2439 TO VB 0.1211
-3.9494 TO VBD 0.0000
-2.2279 TO VBG -0.0181
-3.1961 TO VBN -0.6834
-3.8245 TO VBP 0.0000
-3.5814 TO VBZ -0.1639
-2.3366 TO WDT -0.9369
-2.6136 TO WP -0.2897
-3.0286 TO WRB -0.1323
-2.8033 TO YPFAI -0.2749
-2.7276 TO YPFOR 3.0544
-2.6551 UH CC 0.0000
-1.6137 UH DOUB_PT 0.0141
-2.6551 UH DT -0.3730
-2.6551 UH EX 0.0000
-0.7107 UH FIN_QUO -0.8693
-2.2572 UH IN 0.0473
-2.1111 UH JJ -0.1664
-1.8100 UH NN -0.2374
-2.0019 UH NNP -0.4086
-1.6137 UH PRP -0.0668
-1.9148 UH RB -0.4831
-1.5412 UH UH -0.3013
-2.1780 UH VB -0.1806
-2.3541 UH WRB -0.2195
-0.3117 UH YPFAI -0.8098
-0.7948 UH YPFOR 2.5920
-1.8708 VB CC -0.9374
-2.0989 VB CD -0.4197
-3.4014 VB DEB_PAR -0.2952
-2.5732 VB DEB_QUO -0.6300
-3.1796 VB DOLLAR 0.6680
-2.3103 VB DOUB_PT -0.1659
-0.6993 VB DT -0.9847
-3.3471 VB EX 0.0620
-3.3734 VB FIN_PAR -0.0642
-2.0081 VB FIN_QUO -0.4445
-3.7994 VB FW -0.0690
-0.8475 VB IN 0.0213
-1.2035 VB JJ -0.3798
-2.2942 VB JJR -0.2467
-3.4014 VB JJS -0.2701
-3.3734 VB MD -0.0338
-1.3325 VB NN -0.2628
-1.7693 VB NNP -0.0332
-3.6744 VB NNPS -0.1594
-1.6755 VB NNS -0.6923
-2.7263 VB PDT -1.0411
-3.5775 VB POS -0.5058
-1.0368 VB PRP 0.6539
-1.3726 VB PRP$ -0.1147
-1.1914 VB RB -0.6730
-2.4806 VB RBR 0.0290
-3.2553 VB RBS 0.5387
-1.9943 VB RP 0.2072
-3.2765 VB SYM -0.1999
-1.3390 VB TO -0.4055
-3.9755 VB UH -0.1393
-2.3548 VB VB 0.0378
-2.2875 VB VBD -0.1528
-1.9563 VB VBG -0.0350
-0.9665 VB VBN 0.1049
-3.3471 VB VBP -0.0848
-2.8372 VB VBZ -0.3349
-2.9440 VB WDT -0.3970
-2.2574 VB WP -0.5727
-2.1659 VB WRB -0.4946
-1.5672 VB YPFAI -0.0764
-1.5020 VB YPFOR 1.6778
-2.0839 VBD CC -0.1301
-1.8922 VBD CD -0.7059
-3.5000 VBD DEB_PAR -0.1405
-2.4747 VBD DEB_QUO -0.3093
-3.1848 VBD DOLLAR 0.5746
-2.1990 VBD DOUB_PT -0.1659
-0.8217 VBD DT -0.9441
-3.1321 VBD EX 0.8167
-3.7219 VBD FIN_PAR -0.1795
-2.8128 VBD FIN_QUO -0.2948
-4.1990 VBD FW -0.0727
-0.8692 VBD IN -0.0647
-1.2742 VBD JJ -0.3714
-2.4331 VBD JJR -0.3914
-3.2612 VBD JJS -0.1993
-3.2959 VBD MD 0.0296
-1.6117 VBD NN -0.4312
-1.5948 VBD NNP 0.4889
-3.6761 VBD NNPS -0.2386
-2.0003 VBD NNS -0.4819
-3.0741 VBD PDT 0.3239
-1.1711 VBD PRP 0.2931
-1.5172 VBD PRP$ -0.0217
-0.8382 VBD RB -1.1515
-2.6154 VBD RBR -0.2153
-3.1198 VBD RBS -0.0267
-2.0828 VBD RP -0.3377
-3.5622 VBD SYM -0.0755
-1.2283 VBD TO -0.5904
-4.3751 VBD UH 0.0000
-2.5622 VBD VB -0.4272
-2.3751 VBD VBD -0.1745
-1.5065 VBD VBG -0.2232
-0.8722 VBD VBN -0.0690
-4.3751 VBD VBP 0.0000
-3.7219 VBD VBZ -0.5908
-3.5000 VBD WDT -0.2256
-2.6308 VBD WP -0.8531
-2.4482 VBD WRB -0.3640
-1.4477 VBD YPFAI -0.8475
-1.4858 VBD YPFOR 1.5631
-1.7355 VBG CC -0.7776
-2.1274 VBG CD -0.3758
-3.1308 VBG DEB_PAR -0.0668
-2.3814 VBG DEB_QUO -0.5396
-3.3996 VBG DOLLAR 1.3108
-2.2624 VBG DOUB_PT -0.0067
-0.7445 VBG DT -0.4449
-3.4665 VBG EX 0.0205
-3.3416 VBG FIN_PAR -0.1968
-1.9870 VBG FIN_QUO -0.1008
-0.7268 VBG IN -0.1458
-1.3246 VBG JJ 0.1403
-2.6884 VBG JJR -0.3025
-3.2905 VBG JJS -0.4459
-3.1308 VBG MD -0.5504
-0.9291 VBG NN 0.1774
-1.6969 VBG NNP -0.2849
-3.0686 VBG NNPS -0.1398
-1.1666 VBG NNS 0.2776
-2.9023 VBG PDT -0.3684
-1.3097 VBG PRP 0.4838
-1.4065 VBG PRP$ -0.3450
-1.2256 VBG RB -1.1856
-2.5457 VBG RBR -0.0344
-3.9437 VBG RBS 0.0000
-2.0629 VBG RP 0.1213
-3.1308 VBG SYM -0.1377
-1.1776 VBG TO -0.2433
-3.2905 VBG VB -0.1464
-2.3153 VBG VBD 0.1157
-3.0406 VBG VBG -0.0435
-1.5934 VBG VBN -0.1741
-3.2447 VBG VBP -0.1223
-2.6649 VBG VBZ 0.1414
-3.0406 VBG WDT -0.1132
-2.6112 VBG WP -0.2698
-2.5545 VBG WRB -0.1077
-1.5067 VBG YPFAI -0.1489
-1.5626 VBG YPFOR 2.0712
-1.5548 VBN CC -0.4007
-2.3015 VBN CD -0.3970
-2.9335 VBN DEB_PAR -0.1135
-2.3738 VBN DEB_QUO -0.6517
-3.3314 VBN DOLLAR 0.9198
-2.1084 VBN DOUB_PT -0.1936
-1.2223 VBN DT -0.3394
-3.5233 VBN EX -0.0190
-3.0004 VBN FIN_PAR -0.1147
-2.1492 VBN FIN_QUO -0.3398
-3.7786 VBN FW -1.2690
-0.4310 VBN IN -0.1324
-1.4711 VBN JJ -0.3068
-2.8148 VBN JJR -0.0081
-3.4362 VBN JJS -0.2428
-2.7963 VBN MD -0.5725
-1.2659 VBN NN 0.0424
-1.8755 VBN NNP 0.0193
-3.6325 VBN NNPS -0.1055
-1.5346 VBN NNS -0.3415
-3.0626 VBN PDT 0.1655
-1.6607 VBN PRP 0.4145
-1.9059 VBN PRP$ -0.0786
-1.1887 VBN RB -1.2098
-2.5968 VBN RBR -0.2363
-3.4776 VBN RBS 0.5263
-2.0814 VBN RP -0.0753
-3.5745 VBN SYM -0.1000
-1.0321 VBN TO -0.2180
-4.1765 VBN UH -0.3703
-3.2471 VBN VB -0.1587
-2.5968 VBN VBD -0.0581
-1.9298 VBN VBG -0.1987
-1.4035 VBN VBN -0.4041
-2.8441 VBN VBP -0.2776
-2.6515 VBN VBZ -0.4131
-3.1158 VBN WDT -0.1574
-3.2471 VBN WP -0.0870
-2.4401 VBN WRB -0.2555
-1.2895 VBN YPFAI -0.3724
-1.2118 VBN YPFOR 1.4876
-2.1932 VBP CC -0.5274
-1.9949 VBP CD -0.5547
-3.3259 VBP DEB_PAR -0.1967
-2.7396 VBP DEB_QUO -0.4067
-3.5689 VBP DOLLAR 1.4171
-2.3856 VBP DOUB_PT -0.0838
-0.9138 VBP DT 0.2166
-3.3259 VBP EX -0.2157
-3.4720 VBP FIN_PAR -0.4025
-2.1028 VBP FIN_QUO -0.5768
-3.6938 VBP FW -0.0727
-0.9857 VBP IN -0.2468
-1.0627 VBP JJ -0.2272
-2.3648 VBP JJR -0.0905
-2.9668 VBP JJS -0.1355
-3.1710 VBP MD 0.3701
-1.5385 VBP NN -0.4325
-1.9668 VBP NNP -0.1370
-3.0918 VBP NNPS -0.3989
-1.6577 VBP NNS -0.5176
-3.2167 VBP PDT 0.0198
-1.1436 VBP PRP 0.1625
-1.7836 VBP PRP$ -0.5154
-0.7388 VBP RB -1.0845
-2.2572 VBP RBR -0.1946
-2.8092 VBP RBS 0.2768
-2.6658 VBP RP -0.2814
-3.0248 VBP SYM -0.1675
-1.3118 VBP TO -0.3506
-2.3449 VBP VB -0.3278
-2.0504 VBP VBD -0.6232
-1.4046 VBP VBG 0.0487
-0.8163 VBP VBN -0.3092
-3.0918 VBP VBP -0.4941
-2.6147 VBP VBZ 0.1123
-3.4720 VBP WDT -0.1119
-2.5375 VBP WP -0.4821
-2.4386 VBP WRB -0.2581
-1.5878 VBP YPFAI -0.1549
-1.8074 VBP YPFOR 2.3898
-2.2815 VBZ CC -0.5548
-1.9344 VBZ CD -0.3179
-3.5009 VBZ DEB_PAR -0.0602
-2.3917 VBZ DEB_QUO -0.5155
-3.0672 VBZ DOLLAR 0.7872
-2.2124 VBZ DOUB_PT -0.1056
-0.7011 VBZ DT -0.8002
-3.1419 VBZ EX -0.5676
-3.4429 VBZ FIN_PAR -0.1030
-2.5901 VBZ FIN_QUO -0.4443
-4.0450 VBZ FW 0.0000
-0.9632 VBZ IN -0.0203
-1.0509 VBZ JJ -0.3687
-2.1876 VBZ JJR -0.0979
-3.1699 VBZ JJS -0.5625
-3.3460 VBZ MD -0.4365
-1.4833 VBZ NN -0.7155
-1.8747 VBZ NNP -0.1491
-3.5009 VBZ NNPS -0.3791
-2.1529 VBZ NNS -0.4740
-3.0238 VBZ PDT -0.0471
-3.6470 VBZ POS 0.0000
-1.4953 VBZ PRP 0.3060
-1.7248 VBZ PRP$ 0.0388
-0.7714 VBZ RB -0.9670
-2.2254 VBZ RBR -0.7004
-2.7778 VBZ RBS 0.1410
-2.6739 VBZ RP 0.2155
-2.7125 VBZ SYM -0.3891
-1.3294 VBZ TO -0.5224
-4.0450 VBZ UH 0.0000
-2.5751 VBZ VB -0.1035
-2.4375 VBZ VBD -0.0521
-1.6040 VBZ VBG 0.0034
-0.8252 VBZ VBN -0.0903
-2.6928 VBZ VBZ 0.0521
-3.0907 VBZ WDT -0.0420
-2.3248 VBZ WP -0.5102
-2.2741 VBZ WRB -0.2219
-1.5955 VBZ YPFAI -0.3213
-1.9550 VBZ YPFOR 2.3624
-2.7149 WDT CD -0.3802
-3.2378 WDT DEB_PAR 0.0000
-2.7149 WDT DEB_QUO -0.1186
-3.2378 WDT DOUB_PT -0.2849
-1.1194 WDT DT -0.4478
-2.4362 WDT EX -0.2562
-1.9368 WDT IN -0.2155
-1.7418 WDT JJ -0.3737
-3.2378 WDT JJR 0.0000
-3.1129 WDT JJS -0.3192
-1.0447 WDT MD -0.8013
-1.2999 WDT NN -0.1036
-1.5943 WDT NNP -0.8788
-3.1129 WDT NNPS -0.6228
-1.7372 WDT NNS -0.5645
-2.8698 WDT PDT 0.2189
-0.9560 WDT PRP -1.5243
-2.0917 WDT PRP$ 0.0572
-1.4454 WDT RB -0.9892
-3.2378 WDT RBR -0.2596
-3.4139 WDT RBS 0.0000
-3.0159 WDT SYM -0.2284
-2.1834 WDT TO -1.4912
-2.4139 WDT VB -0.0381
-0.6696 WDT VBD 0.0291
-3.2378 WDT VBN -0.2955
-0.9629 WDT VBP -0.2833
-0.7336 WDT VBZ -0.0142
-1.6618 WDT YPFAI -0.9126
-3.4139 WDT YPFOR 4.0925
-2.9882 WP CC -0.1301
-2.9882 WP CD -0.3597
-2.6872 WP DEB_QUO -0.2400
-1.3840 WP DT -0.3218
-3.2101 WP EX -0.2419
-2.4831 WP FIN_QUO -0.9077
-1.7140 WP IN -0.0671
-2.2722 WP JJ -0.1234
-3.2101 WP JJR -0.5368
-1.0983 WP MD -0.2955
-1.9237 WP NN -0.3463
-1.6660 WP NNP -0.7674
-2.2400 WP NNS -0.6490
-3.3861 WP PDT 0.3132
-0.8858 WP PRP -1.6815
-2.1687 WP PRP$ 0.0790
-1.4491 WP RB -1.0111
-3.3861 WP RBR 0.0000
-2.1431 WP TO -1.1773
-2.2892 WP VB -0.2365
-0.5327 WP VBD 0.3281
-3.3861 WP VBG 0.0000
-3.3861 WP VBN 0.0000
-0.9004 WP VBP -0.3973
-0.7477 WP VBZ 0.1136
-1.7895 WP YPFAI -0.6921
-2.3070 WP YPFOR 3.3732
-2.1072 WP$ DEB_QUO -0.6145
-0.7180 WP$ JJ -0.7694
-0.2977 WP$ NN -0.5002
-1.9311 WP$ NNP -0.2975
-0.5822 WP$ NNS -0.6209
-2.1072 WP$ VBG 0.0000
-2.3515 WRB CC -0.7876
-2.2266 WRB CD -0.3449
-2.5946 WRB DEB_QUO -0.5830
-2.6324 WRB DOUB_PT -0.1304
-0.7020 WRB DT -0.4734
-1.9578 WRB EX -0.1707
-2.3950 WRB FIN_QUO 0.1565
-1.8814 WRB IN -0.1257
-1.1500 WRB JJ -0.1745
-2.9748 WRB JJR -0.0504
-2.7195 WRB JJS -0.2558
-1.5946 WRB MD -1.1513
-1.4484 WRB NN -0.7140
-1.2069 WRB NNP -0.9280
-2.9748 WRB NNPS -0.1230
-1.5946 WRB NNS -1.0732
-2.6738 WRB PDT -0.3524
-0.4699 WRB PRP -1.5578
-1.6444 WRB PRP$ -0.0721
-1.4161 WRB RB 0.1981
-3.3727 WRB RBS 0.0000
-2.3313 WRB SYM -0.3254
-1.7293 WRB TO -1.1006
-2.3727 WRB VB -0.1728
-1.6825 WRB VBD -0.7918
-2.0017 WRB VBG -0.1803
-1.7599 WRB VBN -0.2706
-1.8104 WRB VBP -1.1597
-1.9925 WRB VBZ -1.0444
-3.3727 WRB WDT 0.0000
-3.3727 WRB WP 0.0000
-1.6567 WRB YPFAI -0.5991
-2.1552 WRB YPFOR 3.2349
-4.4738 YPFAI <UNK> 0.0000
-0.8083 YPFAI CC -0.0156
-1.7198 YPFAI CD -0.3213
-3.0266 YPFAI DEB_PAR -0.5113
-1.7279 YPFAI DEB_QUO -0.5565
-3.7748 YPFAI DOLLAR 1.0660
-3.2977 YPFAI DOUB_PT -0.2150
-0.9658 YPFAI DT -0.5141
-2.2523 YPFAI EX -0.4999
-4.0758 YPFAI FIN_PAR -0.0879
-3.1027 YPFAI FIN_QUO -0.4533
-2.7536 YPFAI FW -0.4237
-0.9022 YPFAI IN -0.1604
-1.3224 YPFAI JJ -0.1589
-2.9552 YPFAI JJR -0.3370
-3.1027 YPFAI JJS -0.4455
-2.0456 YPFAI MD -0.2409
-1.3358 YPFAI NN -0.3058
-1.1004 YPFAI NNP -0.7075
-3.2433 YPFAI NNPS -0.3229
-1.7022 YPFAI NNS -0.6207
-3.3598 YPFAI PDT 0.6610
-1.0847 YPFAI PRP -1.5752
-1.9328 YPFAI PRP$ -0.1700
-1.1560 YPFAI RB 0.1853
-2.7880 YPFAI RBR -0.2570
-3.3946 YPFAI RBS -0.3518
-3.0672 YPFAI SYM -0.3285
-1.9366 YPFAI TO -0.1918
-2.6134 YPFAI UH -0.1270
-1.8849 YPFAI VB -0.3352
-1.3978 YPFAI VBD -0.3537
-1.3753 YPFAI VBG -0.3030
-1.7778 YPFAI VBN -0.3780
-2.0596 YPFAI VBP -0.3789
-1.7066 YPFAI VBZ -0.1964
-1.8940 YPFAI WDT -0.2049
-1.9353 YPFAI WP -0.6216
-2.8997 YPFAI WP$ 0.4429
-1.9720 YPFAI WRB -0.1218
-2.8997 YPFAI YPFAI 0.0166
-0.0000 YPFOR ZTRM -4.4523
-4.3554 ZTRM <UNK> 0.1005
-1.6863 ZTRM CC -0.3217
-2.1788 ZTRM CD -0.5605
-2.5875 ZTRM DEB_PAR -0.4114
-1.4551 ZTRM DEB_QUO -0.4743
-3.0906 ZTRM DOUB_PT -0.1738
-1.0402 ZTRM DT -0.5862
-2.1646 ZTRM EX -0.7102
-2.7711 ZTRM FIN_PAR -0.1572
-3.0013 ZTRM FIN_QUO 0.1502
-3.9083 ZTRM FW -0.0727
-1.2385 ZTRM IN -0.7129
-1.8726 ZTRM JJ 0.0217
-3.2349 ZTRM JJR -0.2345
-3.1623 ZTRM JJS -0.7179
-2.9114 ZTRM LS -0.2284
-2.8871 ZTRM MD -0.1878
-1.7529 ZTRM NN -0.2571
-1.3928 ZTRM NNP -0.8898
-3.4416 ZTRM NNPS -0.4178
-2.0522 ZTRM NNS -0.7347
-3.2482 ZTRM PDT -0.5311
-1.0879 ZTRM PRP -2.3499
-2.0614 ZTRM PRP$ 0.1519
-1.4411 ZTRM RB -0.4613
-3.3062 ZTRM RBR -0.3493
-3.6742 ZTRM RBS -0.0901
-3.9405 ZTRM SYM -0.4994
-2.4921 ZTRM TO -0.3733
-2.8064 ZTRM UH 0.1385
-2.1459 ZTRM VB -0.5013
-2.8291 ZTRM VBD -0.6467
-2.2691 ZTRM VBG -0.4192
-2.6927 ZTRM VBN -0.4422
-2.8961 ZTRM VBP -1.4538
-2.8697 ZTRM VBZ -0.5938
-3.2349 ZTRM WDT -0.2066
-2.5204 ZTRM WP -0.0154
-2.1260 ZTRM WRB -0.1996
-4.4524 ZTRM YPFAI -0.1571
-1.5432 ZTRM YPFOR 1.2422
-0.3010 ZTRM ZTRM 0.6967

\3-grams:
-0.2210 <UNK> JJ NN 
-0.6189 <UNK> NN IN 
-0.8060 <UNK> NN YPFOR 
-0.7328 CC CC PRP 
-0.9199 CC CC WRB 
-0.9199 CC CC YPFAI 
-1.6092 CC CD CC 
-1.6341 CC CD CD 
-1.8645 CC CD DEB_PAR 
-1.9614 CC CD DOUB_PT 
-1.9103 CC CD DT 
-2.1034 CC CD FIN_PAR 
-2.1034 CC CD FIN_QUO 
-0.8311 CC CD IN 
-1.1321 CC CD JJ 
-2.1034 CC CD JJR 
-2.1790 CC CD MD 
-0.9402 CC CD NN 
-1.5858 CC CD NNP 
-2.6705 CC CD NNPS 
-0.5506 CC CD NNS 
-2.4834 CC CD PRP 
-1.9614 CC CD RB 
-1.9103 CC CD SYM 
-1.7853 CC CD TO 
-1.5858 CC CD VBD 
-2.6705 CC CD VBN 
-1.9614 CC CD VBP 
-2.3728 CC CD VBZ 
-1.1569 CC CD YPFAI 
-1.1485 CC CD YPFOR 
-1.0585 CC DEB_PAR CD 
-1.4042 CC DEB_PAR IN 
-0.2539 CC DEB_PAR LS 
-0.7439 CC DEB_PAR NN 
-1.5913 CC DEB_PAR NNP 
-2.1484 CC DEB_QUO CC 
-2.1484 CC DEB_QUO CD 
-1.2285 CC DEB_QUO DT 
-2.1484 CC DEB_QUO FW 
-1.5813 CC DEB_QUO IN 
-0.8800 CC DEB_QUO JJ 
-0.5942 CC DEB_QUO NN 
-0.7861 CC DEB_QUO NNP 
-1.1963 CC DEB_QUO NNS 
-1.5813 CC DEB_QUO PRP 
-1.3882 CC DEB_QUO RB 
-1.9613 CC DEB_QUO TO 
-1.6569 CC DEB_QUO UH 
-1.6156 CC DEB_QUO VB 
-1.4393 CC DEB_QUO VBG 
-1.4393 CC DEB_QUO VBN 
-2.1484 CC DEB_QUO VBP 
-1.9613 CC DEB_QUO VBZ 
-2.1484 CC DEB_QUO WRB 
-0.0193 CC DOLLAR CD 
-1.1677 CC DOUB_PT CC 
-0.8701 CC DOUB_PT DEB_QUO 
-0.9806 CC DOUB_PT IN 
-0.9806 CC DOUB_PT NN 
-1.1677 CC DOUB_PT RB 
-0.9806 CC DOUB_PT UH 
-3.1974 CC DT CC 
-1.9037 CC DT CD 
-3.4950 CC DT DEB_PAR 
-2.2577 CC DT DEB_QUO 
-3.3079 CC DT DOLLAR 
-3.4950 CC DT DOUB_PT 
-2.2419 CC DT DT 
-3.3079 CC DT FIN_QUO 
-3.4950 CC DT FW 
-1.7495 CC DT IN 
-0.6223 CC DT JJ 
-2.1705 CC DT JJR 
-2.3466 CC DT JJS 
-2.2911 CC DT MD 
-0.3701 CC DT NN 
-1.0991 CC DT NNP 
-2.0263 CC DT NNPS 
-1.0720 CC DT NNS 
-2.6890 CC DT PRP 
-2.6890 CC DT PRP$ 
-1.7860 CC DT RB 
-2.6099 CC DT RBR 
-2.5130 CC DT RBS 
-3.1974 CC DT SYM 
-3.3079 CC DT TO 
-1.8026 CC DT VBD 
-1.9332 CC DT VBG 
-2.0763 CC DT VBN 
-2.6099 CC DT VBP 
-1.6934 CC DT VBZ 
-3.0035 CC DT WDT 
-2.4586 CC DT WP 
-2.1977 CC DT YPFAI 
-2.5751 CC DT YPFOR 
-1.4131 CC EX MD 
-1.8757 CC EX PRP 
-1.9863 CC EX RB 
-0.3896 CC EX VBD 
-0.8488 CC EX VBP 
-0.4278 CC EX VBZ 
-1.2209 CC FIN_QUO DEB_QUO 
-0.4150 CC FIN_QUO DOUB_PT 
-1.2209 CC FIN_QUO DT 
-1.0339 CC FIN_QUO NN 
-1.2209 CC FIN_QUO YPFAI 
-0.4114 CC FW FW 
-0.7090 CC FW WDT 
-0.7090 CC FW YPFOR 
-2.6846 CC IN CC 
-1.6328 CC IN CD 
-2.5427 CC IN DEB_QUO 
-0.4052 CC IN DT 
-2.2697 CC IN EX 
-3.2517 CC IN FIN_PAR 
-3.2517 CC IN FIN_QUO 
-3.2517 CC IN FW 
-1.5373 CC IN IN 
-1.1905 CC IN JJ 
-2.3318 CC IN JJR 
-1.8437 CC IN JJS 
-0.9804 CC IN NN 
-1.3059 CC IN NNP 
-1.4635 CC IN NNS 
-2.4458 CC IN PDT 
-0.9339 CC IN PRP 
-1.3523 CC IN PRP$ 
-1.5593 CC IN RB 
-2.7602 CC IN RBR 
-2.5427 CC IN RBS 
-2.7602 CC IN SYM 
-2.2153 CC IN TO 
-3.2517 CC IN VBD 
-1.4164 CC IN VBG 
-2.4044 CC IN VBN 
-1.9986 CC IN WDT 
-2.4915 CC IN WP 
-2.9541 CC IN WRB 
-2.2996 CC IN YPFAI 
-2.9541 CC IN YPFOR 
-1.5994 CC JJ CC 
-2.6622 CC JJ CD 
-3.2354 CC JJ DEB_PAR 
-2.7134 CC JJ DEB_QUO 
-1.8530 CC JJ DOUB_PT 
-2.4404 CC JJ DT 
-2.5751 CC JJ FIN_PAR 
-2.2741 CC JJ FIN_QUO 
-1.2491 CC JJ IN 
-1.1803 CC JJ JJ 
-2.8896 CC JJ JJR 
-2.8553 CC JJ MD 
-0.4836 CC JJ NN 
-1.8171 CC JJ NNP 
-3.1248 CC JJ NNPS 
-0.5269 CC JJ NNS 
-3.1248 CC JJ PRP 
-3.1248 CC JJ PRP$ 
-2.3612 CC JJ RB 
-2.9309 CC JJ SYM 
-1.9005 CC JJ TO 
-2.5025 CC JJ VBD 
-2.4124 CC JJ VBG 
-2.6165 CC JJ VBN 
-2.3860 CC JJ VBP 
-2.6622 CC JJ VBZ 
-3.2354 CC JJ WDT 
-2.9309 CC JJ WRB 
-1.1662 CC JJ YPFAI 
-1.1526 CC JJ YPFOR 
-1.9452 CC JJR CC 
-2.1323 CC JJR DEB_PAR 
-1.8347 CC JJR DOUB_PT 
-2.1323 CC JJR DT 
-0.7949 CC JJR IN 
-1.0959 CC JJR JJ 
-0.7243 CC JJR NN 
-1.9452 CC JJR NNP 
-2.1323 CC JJR NNPS 
-0.6274 CC JJR NNS 
-1.6408 CC JJR TO 
-2.1323 CC JJR VBD 
-1.6408 CC JJR VBG 
-1.1502 CC JJR YPFAI 
-1.0041 CC JJR YPFOR 
-0.2817 CC JJS IN 
-0.9166 CC JJS JJ 
-0.9166 CC JJS NN 
-0.9166 CC JJS NNS 
-0.2210 CC LS FIN_PAR 
-2.0175 CC MD CC 
-1.4678 CC MD DT 
-2.0175 CC MD IN 
-2.3152 CC MD NN 
-1.0321 CC MD PRP 
-2.0175 CC MD PRP$ 
-0.5361 CC MD RB 
-0.2865 CC MD VB 
-2.1281 CC MD YPFAI 
-1.4894 CC NN CC 
-2.4131 CC NN CD 
-2.2882 CC NN DEB_PAR 
-3.2873 CC NN DEB_QUO 
-1.6514 CC NN DOUB_PT 
-2.2212 CC NN DT 
-3.4743 CC NN EX 
-2.2534 CC NN FIN_PAR 
-1.7653 CC NN FIN_QUO 
-0.6671 CC NN IN 
-2.1121 CC NN JJ 
-1.7339 CC NN MD 
-1.0037 CC NN NN 
-2.3067 CC NN NNP 
-0.9264 CC NN NNS 
-2.5544 CC NN POS 
-2.1369 CC NN PRP 
-3.2873 CC NN PRP$ 
-1.6816 CC NN RB 
-3.4743 CC NN RBR 
-3.2873 CC NN RP 
-3.1767 CC NN SYM 
-1.5612 CC NN TO 
-2.7141 CC NN VB 
-1.4894 CC NN VBD 
-2.3067 CC NN VBG 
-1.9963 CC NN VBN 
-1.5892 CC NN VBP 
-1.5254 CC NN VBZ 
-2.0056 CC NN WDT 
-2.3260 CC NN WP 
-2.7653 CC NN WRB 
-0.9583 CC NN YPFAI 
-0.8245 CC NN YPFOR 
-1.5763 CC NNP CC 
-2.4099 CC NNP CD 
-1.9600 CC NNP DEB_PAR 
-3.2573 CC NNP DEB_QUO 
-1.8950 CC NNP DOUB_PT 
-2.3052 CC NNP DT 
-2.0711 CC NNP FIN_PAR 
-2.0364 CC NNP FIN_QUO 
-1.3579 CC NNP IN 
-2.1503 CC NNP JJ 
-1.7611 CC NNP MD 
-1.6805 CC NNP NN 
-0.4646 CC NNP NNP 
-1.9073 CC NNP NNPS 
-1.4427 CC NNP NNS 
-1.3794 CC NNP POS 
-2.5482 CC NNP PRP 
-3.2573 CC NNP PRP$ 
-1.8603 CC NNP RB 
-2.1291 CC NNP TO 
-2.6902 CC NNP VB 
-0.8079 CC NNP VBD 
-2.2472 CC NNP VBG 
-2.6902 CC NNP VBN 
-1.7524 CC NNP VBP 
-1.7110 CC NNP VBZ 
-3.0702 CC NNP WDT 
-2.7658 CC NNP WP 
-3.2573 CC NNP WRB 
-0.9859 CC NNP YPFAI 
-1.1889 CC NNP YPFOR 
-1.5913 CC NNPS CC 
-0.7853 CC NNPS IN 
-1.0998 CC NNPS MD 
-1.0998 CC NNPS NNP 
-1.4042 CC NNPS VBD 
-1.5913 CC NNPS VBG 
-1.0585 CC NNPS VBP 
-0.6714 CC NNPS YPFAI 
-0.8822 CC NNPS YPFOR 
-1.3443 CC NNS CC 
-2.9454 CC NNS CD 
-2.5654 CC NNS DEB_PAR 
-1.4877 CC NNS DOUB_PT 
-2.1224 CC NNS DT 
-2.4235 CC NNS FIN_PAR 
-1.8494 CC NNS FIN_QUO 
-0.5484 CC NNS IN 
-2.0713 CC NNS JJ 
-1.6638 CC NNS MD 
-2.5654 CC NNS NN 
-2.1804 CC NNS NNS 
-2.2851 CC NNS POS 
-2.1504 CC NNS PRP 
-1.5341 CC NNS RB 
-2.9454 CC NNS RBR 
-1.5484 CC NNS TO 
-2.3265 CC NNS VB 
-1.3443 CC NNS VBD 
-1.7583 CC NNS VBG 
-1.4877 CC NNS VBN 
-1.1930 CC NNS VBP 
-2.1504 CC NNS VBZ 
-1.5941 CC NNS WDT 
-1.8494 CC NNS WP 
-3.1325 CC NNS WP$ 
-2.8349 CC NNS WRB 
-0.8748 CC NNS YPFAI 
-0.8241 CC NNS YPFOR 
-0.0290 CC PDT DT 
-1.2973 CC PDT PRP$ 
-2.3606 CC PRP CC 
-3.2458 CC PRP DEB_QUO 
-3.2458 CC PRP DOUB_PT 
-2.2094 CC PRP DT 
-2.6786 CC PRP FIN_QUO 
-2.2637 CC PRP IN 
-0.7686 CC PRP MD 
-2.6786 CC PRP NN 
-3.2458 CC PRP NNP 
-3.2458 CC PRP PRP 
-1.2467 CC PRP RB 
-3.2458 CC PRP TO 
-2.2637 CC PRP VB 
-0.3592 CC PRP VBD 
-2.7130 CC PRP VBN 
-0.8063 CC PRP VBP 
-0.8847 CC PRP VBZ 
-2.0084 CC PRP YPFAI 
-2.2637 CC PRP YPFOR 
-1.9643 CC PRP$ CD 
-2.5832 CC PRP$ DEB_QUO 
-0.6971 CC PRP$ JJ 
-2.2374 CC PRP$ JJR 
-2.0100 CC PRP$ JJS 
-0.3159 CC PRP$ NN 
-1.8503 CC PRP$ NNP 
-0.6258 CC PRP$ NNS 
-2.2031 CC PRP$ RB 
-2.2031 CC PRP$ VBG 
-1.8503 CC PRP$ VBN 
-2.0829 CC RB CC 
-2.0507 CC RB CD 
-3.1168 CC RB DEB_PAR 
-2.8124 CC RB DEB_QUO 
-2.1177 CC RB DOUB_PT 
-1.0355 CC RB DT 
-2.1555 CC RB EX 
-3.1168 CC RB FIN_PAR 
-2.3840 CC RB FIN_QUO 
-0.8457 CC RB IN 
-0.9742 CC RB JJ 
-2.1969 CC RB JJR 
-3.1168 CC RB JJS 
-2.0829 CC RB MD 
-1.7345 CC RB NN 
-1.7497 CC RB NNP 
-2.1177 CC RB NNS 
-3.3039 CC RB PDT 
-3.1168 CC RB POS 
-1.1990 CC RB PRP 
-2.0208 CC RB PRP$ 
-1.0461 CC RB RB 
-2.1362 CC RB RBR 
-3.1168 CC RB RBS 
-3.1168 CC RB SYM 
-1.4893 CC RB TO 
-1.2992 CC RB VB 
-1.1716 CC RB VBD 
-1.5202 CC RB VBG 
-1.2475 CC RB VBN 
-1.8851 CC RB VBP 
-1.6114 CC RB VBZ 
-3.3039 CC RB WDT 
-2.7711 CC RB WP 
-2.1177 CC RB WRB 
-1.1250 CC RB YPFAI 
-1.5685 CC RB YPFOR 
-1.8176 CC RBR FIN_QUO 
-0.7673 CC RBR IN 
-0.3661 CC RBR JJ 
-2.0046 CC RBR MD 
-0.8184 CC RBR RB 
-2.0046 CC RBR TO 
-1.8176 CC RBR VBG 
-1.4718 CC RBR VBN 
-2.0046 CC RBR VBP 
-1.1987 CC RBR YPFAI 
-1.7070 CC RBR YPFOR 
-1.1896 CC RBS IN 
-0.1627 CC RBS JJ 
-0.7270 CC RBS RB 
-1.4872 CC RBS VBN 
-0.5841 CC RP IN 
-0.8939 CC SYM CC 
-1.7791 CC SYM DEB_PAR 
-1.7791 CC SYM DT 
-0.8939 CC SYM IN 
-1.0700 CC SYM MD 
-1.4815 CC SYM NN 
-1.7791 CC SYM RB 
-1.5920 CC SYM VBD 
-1.0700 CC SYM VBP 
-1.2876 CC SYM VBZ 
-0.9731 CC SYM YPFAI 
-0.6721 CC SYM YPFOR 
-2.2653 CC TO DEB_QUO 
-0.8203 CC TO DT 
-1.9196 CC TO JJ 
-1.8852 CC TO NN 
-1.3454 CC TO NNP 
-1.5003 CC TO NNS 
-2.4524 CC TO PDT 
-1.8852 CC TO PRP 
-1.9196 CC TO PRP$ 
-2.2653 CC TO RB 
-0.1736 CC TO VB 
-2.2653 CC TO VBG 
-2.1547 CC TO WDT 
-0.5220 CC UH YPFAI 
-0.7090 CC UH YPFOR 
-1.8135 CC VB CC 
-2.1146 CC VB CD 
-2.9619 CC VB DEB_QUO 
-2.3948 CC VB DOUB_PT 
-0.6646 CC VB DT 
-2.9619 CC VB FIN_PAR 
-2.2529 CC VB FIN_QUO 
-0.8076 CC VB IN 
-1.1969 CC VB JJ 
-2.6643 CC VB JJR 
-2.9619 CC VB MD 
-1.2867 CC VB NN 
-1.9255 CC VB NNP 
-1.4932 CC VB NNS 
-2.4291 CC VB PDT 
-0.8317 CC VB PRP 
-1.2066 CC VB PRP$ 
-1.2214 CC VB RB 
-2.7748 CC VB RBR 
-1.7410 CC VB RP 
-1.4001 CC VB TO 
-2.1559 CC VB VB 
-2.9619 CC VB VBD 
-2.0098 CC VB VBG 
-1.8337 CC VB VBN 
-2.9619 CC VB WDT 
-2.0768 CC VB WP 
-2.7748 CC VB WRB 
-1.6508 CC VB YPFAI 
-1.6245 CC VB YPFOR 
-2.2253 CC VBD CC 
-1.8496 CC VBD CD 
-2.5263 CC VBD DEB_QUO 
-3.0483 CC VBD DOLLAR 
-2.1072 CC VBD DOUB_PT 
-0.7880 CC VBD DT 
-3.2354 CC VBD FIN_QUO 
-0.7339 CC VBD IN 
-1.5104 CC VBD JJ 
-3.0483 CC VBD JJR 
-3.2354 CC VBD JJS 
-1.6970 CC VBD NN 
-1.6736 CC VBD NNP 
-2.0492 CC VBD NNS 
-0.8542 CC VBD PRP 
-1.4124 CC VBD PRP$ 
-0.8755 CC VBD RB 
-2.7439 CC VBD RBR 
-1.7305 CC VBD RP 
-1.1177 CC VBD TO 
-2.7439 CC VBD VB 
-1.6812 CC VBD VBG 
-1.3612 CC VBD VBN 
-3.2354 CC VBD WDT 
-2.5263 CC VBD WP 
-2.7026 CC VBD WRB 
-1.4427 CC VBD YPFAI 
-1.7219 CC VBD YPFOR 
-2.0374 CC VBG CC 
-1.8991 CC VBG CD 
-2.0374 CC VBG DEB_QUO 
-2.0374 CC VBG DOUB_PT 
-0.7391 CC VBG DT 
-2.2550 CC VBG FIN_QUO 
-0.7126 CC VBG IN 
-1.4090 CC VBG JJ 
-2.5594 CC VBG JJR 
-1.0655 CC VBG NN 
-2.0374 CC VBG NNP 
-2.4489 CC VBG NNPS 
-1.0320 CC VBG NNS 
-1.1144 CC VBG PRP 
-1.3495 CC VBG PRP$ 
-1.1923 CC VBG RB 
-2.2550 CC VBG RP 
-1.3277 CC VBG TO 
-2.2137 CC VBG VBN 
-2.4489 CC VBG VBP 
-2.7465 CC VBG VBZ 
-2.7465 CC VBG WP 
-2.2550 CC VBG WRB 
-1.3385 CC VBG YPFAI 
-1.4934 CC VBG YPFOR 
-1.5396 CC VBN CC 
-2.2520 CC VBN CD 
-2.7435 CC VBN DEB_QUO 
-2.2107 CC VBN DOUB_PT 
-1.4324 CC VBN DT 
-1.9833 CC VBN FIN_QUO 
-0.4490 CC VBN IN 
-1.3465 CC VBN JJ 
-2.7435 CC VBN MD 
-1.0454 CC VBN NN 
-2.4459 CC VBN NNP 
-1.1667 CC VBN NNS 
-1.9833 CC VBN PRP 
-1.6365 CC VBN PRP$ 
-1.2748 CC VBN RB 
-2.2107 CC VBN RP 
-1.0987 CC VBN TO 
-2.7435 CC VBN VBG 
-2.5564 CC VBN VBN 
-2.7435 CC VBN WRB 
-1.1667 CC VBN YPFAI 
-1.0567 CC VBN YPFOR 
-1.6801 CC VBP CC 
-2.2021 CC VBP CD 
-0.9397 CC VBP DT 
-2.2021 CC VBP FIN_QUO 
-0.8508 CC VBP IN 
-1.0034 CC VBP JJ 
-2.3892 CC VBP JJR 
-1.3044 CC VBP NN 
-1.4371 CC VBP NNS 
-0.9300 CC VBP PRP 
-1.5040 CC VBP PRP$ 
-0.7908 CC VBP RB 
-1.4071 CC VBP TO 
-2.0915 CC VBP VB 
-2.2021 CC VBP VBD 
-1.8977 CC VBP VBG 
-1.0269 CC VBP VBN 
-1.8220 CC VBP YPFAI 
-2.2021 CC VBP YPFOR 
-2.0535 CC VBZ CC 
-2.0948 CC VBZ CD 
-2.5863 CC VBZ DEB_QUO 
-2.5863 CC VBZ DOUB_PT 
-0.6765 CC VBZ DT 
-0.9352 CC VBZ IN 
-1.2890 CC VBZ JJ 
-2.0948 CC VBZ JJR 
-1.4186 CC VBZ NN 
-2.0192 CC VBZ NNP 
-1.8261 CC VBZ NNS 
-2.5863 CC VBZ PDT 
-1.0479 CC VBZ PRP 
-1.7011 CC VBZ PRP$ 
-0.8358 CC VBZ RB 
-1.8772 CC VBZ RBR 
-2.5863 CC VBZ RP 
-1.3824 CC VBZ TO 
-2.5863 CC VBZ VB 
-1.7011 CC VBZ VBG 
-0.8995 CC VBZ VBN 
-2.5863 CC VBZ VBZ 
-2.5863 CC VBZ WDT 
-2.5863 CC VBZ WP 
-2.5863 CC VBZ WRB 
-1.7803 CC VBZ YPFAI 
-1.7011 CC VBZ YPFOR 
-1.5165 CC WDT DT 
-1.5165 CC WDT IN 
-1.1365 CC WDT MD 
-0.9945 CC WDT NN 
-1.7036 CC WDT NNS 
-0.9945 CC WDT PRP 
-0.9945 CC WDT RB 
-0.8562 CC WDT VBD 
-1.1708 CC WDT VBP 
-0.8184 CC WDT VBZ 
-1.4060 CC WDT YPFAI 
-1.3680 CC WP DT 
-2.1282 CC WP FIN_QUO 
-1.3680 CC WP IN 
-2.1282 CC WP JJ 
-2.1282 CC WP JJR 
-1.1761 CC WP MD 
-1.5611 CC WP NN 
-1.9411 CC WP NNP 
-0.8171 CC WP PRP 
-1.8306 CC WP PRP$ 
-1.1181 CC WP RB 
-2.1282 CC WP VB 
-0.7094 CC WP VBD 
-1.2083 CC WP VBP 
-0.6595 CC WP VBZ 
-1.9411 CC WP YPFAI 
-0.8742 CC WP$ JJ 
-0.2139 CC WP$ NN 
-0.8742 CC WP$ NNS 
-0.7533 CC WRB DT 
-2.2917 CC WRB EX 
-2.2917 CC WRB FIN_QUO 
-1.7589 CC WRB IN 
-1.1055 CC WRB JJ 
-1.7589 CC WRB MD 
-1.7589 CC WRB NN 
-1.1433 CC WRB NNP 
-1.5315 CC WRB NNS 
-0.4687 CC WRB PRP 
-1.8002 CC WRB PRP$ 
-1.4857 CC WRB RB 
-1.4443 CC WRB TO 
-2.1046 CC WRB VB 
-1.3096 CC WRB VBD 
-2.1046 CC WRB VBN 
-1.9941 CC WRB VBP 
-1.8002 CC WRB VBZ 
-1.9941 CC WRB YPFAI 
-1.8002 CC WRB YPFOR 
-2.5014 CC YPFAI DEB_QUO 
-2.5014 CC YPFAI DT 
-0.2788 CC YPFAI IN 
-1.7412 CC YPFAI JJ 
-2.5014 CC YPFAI JJR 
-2.2038 CC YPFAI NN 
-2.2038 CC YPFAI NNP 
-1.4650 CC YPFAI PRP 
-0.6869 CC YPFAI RB 
-1.5815 CC YPFAI RBR 
-2.3144 CC YPFAI RBS 
-1.7924 CC YPFAI TO 
-2.2038 CC YPFAI UH 
-2.3144 CC YPFAI VB 
-1.1514 CC YPFAI VBG 
-2.0100 CC YPFAI VBN 
-2.2038 CC YPFAI WP 
-1.6163 CC YPFAI WRB 
-0.0960 CC YPFOR ZTRM 
-0.2945 CD CC CD 
-1.7346 CD CC DOLLAR 
-1.0278 CD CC DT 
-2.5819 CD CC EX 
-1.6298 CD CC IN 
-1.4538 CD CC JJ 
-1.2575 CD CC JJR 
-1.6620 CD CC NN 
-1.8729 CD CC NNP 
-2.3949 CD CC NNS 
-1.6620 CD CC PRP 
-2.2843 CD CC PRP$ 
-1.2575 CD CC RB 
-1.5719 CD CC RBR 
-1.8217 CD CC VB 
-1.3288 CD CC VBD 
-2.2843 CD CC VBG 
-2.0148 CD CC VBN 
-1.7760 CD CC VBZ 
-2.5819 CD CC WP 
-2.5819 CD CC WP$ 
-1.1397 CD CD CC 
-1.3490 CD CD CD 
-2.2901 CD CD DEB_PAR 
-1.9856 CD CD DOUB_PT 
-1.7681 CD CD DT 
-1.3701 CD CD FIN_PAR 
-2.4771 CD CD FIN_QUO 
-0.8788 CD CD IN 
-1.6298 CD CD JJ 
-2.4771 CD CD JJR 
-0.9722 CD CD NN 
-1.7681 CD CD NNP 
-1.9443 CD CD NNPS 
-0.4511 CD CD NNS 
-2.2901 CD CD RB 
-1.6298 CD CD TO 
-1.9100 CD CD VBD 
-1.9856 CD CD VBN 
-1.3701 CD CD YPFAI 
-1.4407 CD CD YPFOR 
-1.7193 CD DEB_PAR CC 
-1.0590 CD DEB_PAR CD 
-1.1973 CD DEB_PAR DEB_PAR 
-1.1004 CD DEB_PAR DT 
-0.8451 CD DEB_PAR IN 
-1.6087 CD DEB_PAR JJ 
-0.5093 CD DEB_PAR NN 
-0.9243 CD DEB_PAR NNP 
-1.3735 CD DEB_PAR RB 
-1.9063 CD DEB_PAR WDT 
-0.9199 CD DEB_QUO JJ 
-0.8094 CD DEB_QUO NN 
-0.8094 CD DEB_QUO NNP 
-0.8094 CD DEB_QUO NNS 
-1.1070 CD DEB_QUO PRP 
-1.3413 CD DOUB_PT CC 
-0.5138 CD DOUB_PT CD 
-2.2155 CD DOUB_PT DEB_PAR 
-2.2155 CD DOUB_PT DEB_QUO 
-0.3765 CD DOUB_PT DOUB_PT 
-1.1652 CD DOUB_PT DT 
-1.5966 CD DOUB_PT IN 
-2.4026 CD DOUB_PT JJ 
-2.2155 CD DOUB_PT NN 
-1.5966 CD DOUB_PT NNP 
-1.8698 CD DOUB_PT NNS 
-1.5966 CD DOUB_PT PRP 
-2.2155 CD DOUB_PT VBD 
-2.1049 CD DOUB_PT VBG 
-2.4026 CD DOUB_PT VBZ 
-1.7001 CD DT CC 
-2.0045 CD DT CD 
-2.1916 CD DT DEB_QUO 
-2.1916 CD DT DOUB_PT 
-1.1815 CD DT IN 
-0.9542 CD DT JJ 
-0.3064 CD DT NN 
-1.1069 CD DT NNP 
-2.0045 CD DT NNPS 
-1.4825 CD DT NNS 
-1.7001 CD DT POS 
-1.8939 CD DT RB 
-2.1916 CD DT RP 
-2.1916 CD DT VBZ 
-1.6244 CD DT YPFAI 
-1.1815 CD DT YPFOR 
-0.5841 CD EX MD 
-0.2865 CD EX VBD 
-1.1994 CD FIN_PAR CC 
-1.4882 CD FIN_PAR DOUB_PT 
-1.3818 CD FIN_PAR DT 
-1.6296 CD FIN_PAR FIN_PAR 
-2.2518 CD FIN_PAR FIN_QUO 
-1.1872 CD FIN_PAR IN 
-2.3624 CD FIN_PAR JJ 
-2.5495 CD FIN_PAR JJS 
-2.2518 CD FIN_PAR MD 
-1.7021 CD FIN_PAR NN 
-2.2518 CD FIN_PAR NNP 
-1.7893 CD FIN_PAR NNS 
-1.9824 CD FIN_PAR PRP 
-2.2518 CD FIN_PAR PRP$ 
-2.0167 CD FIN_PAR RB 
-2.2518 CD FIN_PAR TO 
-1.1203 CD FIN_PAR VB 
-1.5674 CD FIN_PAR VBD 
-2.5495 CD FIN_PAR VBG 
-2.0580 CD FIN_PAR VBN 
-2.0580 CD FIN_PAR VBP 
-1.1524 CD FIN_PAR VBZ 
-2.5495 CD FIN_PAR WRB 
-0.7141 CD FIN_PAR YPFAI 
-0.5674 CD FIN_PAR YPFOR 
-1.7927 CD FIN_QUO DEB_PAR 
-1.6057 CD FIN_QUO DOUB_PT 
-1.6057 CD FIN_QUO FIN_PAR 
-1.2599 CD FIN_QUO FIN_QUO 
-0.5554 CD FIN_QUO YPFAI 
-0.2878 CD FIN_QUO YPFOR 
-0.6545 CD FW CD 
-0.9521 CD FW FW 
-0.4606 CD FW IN 
-0.9521 CD FW YPFOR 
-1.1358 CD IN CD 
-3.0490 CD IN DEB_QUO 
-3.0490 CD IN DOLLAR 
-0.3324 CD IN DT 
-2.8619 CD IN EX 
-2.8619 CD IN FIN_PAR 
-1.7116 CD IN IN 
-1.5996 CD IN JJ 
-3.0490 CD IN JJS 
-0.7913 CD IN NN 
-1.2056 CD IN NNP 
-1.6748 CD IN NNS 
-1.2563 CD IN PRP 
-1.1639 CD IN PRP$ 
-2.2430 CD IN RB 
-3.0490 CD IN SYM 
-2.0389 CD IN VBG 
-2.7514 CD IN VBN 
-2.1291 CD IN WDT 
-2.3399 CD IN WP 
-2.5575 CD IN YPFAI 
-2.3399 CD IN YPFOR 
-1.6664 CD JJ CC 
-2.7276 CD JJ DEB_PAR 
-2.2362 CD JJ DOUB_PT 
-2.7276 CD JJ DT 
-2.7276 CD JJ FIN_PAR 
-2.1605 CD JJ IN 
-1.1364 CD JJ JJ 
-0.5203 CD JJ NN 
-1.4593 CD JJ NNP 
-2.1948 CD JJ NNPS 
-0.2974 CD JJ NNS 
-2.5406 CD JJ RB 
-2.7276 CD JJ VBN 
-1.8077 CD JJ YPFAI 
-2.4300 CD JJ YPFOR 
-0.8751 CD JJR IN 
-1.2865 CD JJR JJ 
-0.4994 CD JJR NN 
-1.5841 CD JJR NNP 
-0.6021 CD JJR NNS 
-1.5841 CD JJR TO 
-1.5841 CD JJR YPFAI 
-1.2865 CD JJR YPFOR 
-0.2865 CD JJS NNS 
-0.6084 CD MD RB 
-0.1487 CD MD VB 
-1.2689 CD NN CC 
-2.0798 CD NN CD 
-2.1342 CD NN DEB_PAR 
-1.7305 CD NN DOUB_PT 
-1.7788 CD NN DT 
-2.6247 CD NN EX 
-1.9678 CD NN FIN_PAR 
-1.5699 CD NN FIN_QUO 
-0.6192 CD NN IN 
-1.5779 CD NN JJ 
-2.9292 CD NN JJR 
-1.8953 CD NN MD 
-1.0136 CD NN NN 
-1.7082 CD NN NNP 
-1.1227 CD NN NNS 
-2.3560 CD NN POS 
-1.6113 CD NN PRP 
-3.1162 CD NN PRP$ 
-1.6668 CD NN RB 
-2.9292 CD NN RBR 
-3.1162 CD NN RP 
-3.1162 CD NN SYM 
-1.4974 CD NN TO 
-2.5491 CD NN VB 
-1.3658 CD NN VBD 
-2.1963 CD NN VBG 
-2.2311 CD NN VBN 
-2.4072 CD NN VBP 
-1.4714 CD NN VBZ 
-2.1061 CD NN WDT 
-2.2311 CD NN WP 
-3.1162 CD NN WP$ 
-2.2311 CD NN WRB 
-1.0028 CD NN YPFAI 
-1.1061 CD NN YPFOR 
-1.4957 CD NNP CC 
-1.2117 CD NNP CD 
-2.2285 CD NNP DEB_PAR 
-2.1179 CD NNP DOUB_PT 
-2.2285 CD NNP DT 
-2.4156 CD NNP FIN_PAR 
-2.2285 CD NNP FIN_QUO 
-1.3791 CD NNP IN 
-1.8828 CD NNP JJ 
-2.4156 CD NNP MD 
-1.2479 CD NNP NN 
-0.3974 CD NNP NNP 
-1.4055 CD NNP NNPS 
-1.0298 CD NNP NNS 
-2.2285 CD NNP POS 
-2.2285 CD NNP RB 
-2.1179 CD NNP TO 
-1.2874 CD NNP VBD 
-2.2285 CD NNP VBP 
-2.4156 CD NNP VBZ 
-2.2285 CD NNP WP 
-1.0185 CD NNP YPFAI 
-1.6554 CD NNP YPFOR 
-1.2159 CD NNPS CC 
-1.5135 CD NNPS CD 
-1.5135 CD NNPS DEB_PAR 
-1.3265 CD NNPS DOUB_PT 
-1.0220 CD NNPS DT 
-0.9464 CD NNPS IN 
-1.3265 CD NNPS MD 
-1.5135 CD NNPS PRP 
-1.0220 CD NNPS VBD 
-1.5135 CD NNPS VBP 
-1.5135 CD NNPS WP 
-0.7076 CD NNPS YPFAI 
-1.3212 CD NNS CC 
-2.6460 CD NNS CD 
-2.0176 CD NNS DEB_PAR 
-1.5038 CD NNS DOUB_PT 
-1.5405 CD NNS DT 
-2.2067 CD NNS FIN_PAR 
-1.9809 CD NNS FIN_QUO 
-0.5393 CD NNS IN 
-1.5853 CD NNS JJ 
-2.2704 CD NNS JJR 
-1.8679 CD NNS MD 
-2.1689 CD NNS NN 
-2.4699 CD NNS NNP 
-3.0575 CD NNS NNS 
-2.1689 CD NNS POS 
-1.9581 CD NNS PRP 
-2.5491 CD NNS PRP$ 
-1.0372 CD NNS RB 
-2.3730 CD NNS RBR 
-1.6197 CD NNS TO 
-2.6460 CD NNS VB 
-1.3290 CD NNS VBD 
-1.8589 CD NNS VBG 
-1.8167 CD NNS VBN 
-1.5624 CD NNS VBP 
-2.0867 CD NNS VBZ 
-2.1178 CD NNS WDT 
-2.2939 CD NNS WP 
-3.3551 CD NNS WP$ 
-2.8223 CD NNS WRB 
-0.9157 CD NNS YPFAI 
-0.8988 CD NNS YPFOR 
-1.1316 CD POS CC 
-1.2421 CD POS JJ 
-1.4292 CD POS NN 
-1.4292 CD POS VBD 
-0.6232 CD POS YPFAI 
-0.4191 CD POS YPFOR 
-1.6633 CD PRP CC 
-1.6633 CD PRP MD 
-0.1015 CD PRP VBD 
-1.1305 CD PRP VBP 
-1.4762 CD PRP VBZ 
-0.1931 CD PRP$ NN 
-1.1556 CD RB CC 
-1.3664 CD RB DT 
-0.7644 CD RB IN 
-0.9078 CD RB JJ 
-2.0755 CD RB MD 
-1.5840 CD RB NN 
-1.2281 CD RB NNP 
-1.5427 CD RB RB 
-2.0755 CD RB RBS 
-1.5840 CD RB TO 
-1.8884 CD RB VBD 
-2.0755 CD RB VBG 
-1.0654 CD RB VBN 
-2.0755 CD RB VBP 
-1.7778 CD RB VBZ 
-2.0755 CD RB WRB 
-1.1556 CD RB YPFAI 
-0.7644 CD RB YPFOR 
-0.5083 CD RBR IN 
-0.4080 CD RBS JJ 
-1.0590 CD SYM CC 
-1.7193 CD SYM CD 
-1.9063 CD SYM DT 
-1.4148 CD SYM FIN_QUO 
-0.5819 CD SYM IN 
-1.6087 CD SYM JJ 
-1.9063 CD SYM JJR 
-0.9542 CD SYM NN 
-1.9063 CD SYM RB 
-1.7193 CD SYM TO 
-1.9063 CD SYM VBD 
-1.9063 CD SYM VBZ 
-1.3735 CD SYM YPFAI 
-0.5689 CD SYM YPFOR 
-0.2505 CD TO CD 
-1.0481 CD TO DOLLAR 
-1.0334 CD TO DT 
-1.7837 CD TO NN 
-1.1681 CD TO NNP 
-2.3165 CD TO RB 
-2.3165 CD TO RBR 
-0.8203 CD TO VB 
-0.5049 CD VB IN 
-2.1696 CD VBD CC 
-1.4605 CD VBD CD 
-1.9825 CD VBD DOLLAR 
-0.8073 CD VBD DT 
-0.8585 CD VBD IN 
-1.1332 CD VBD JJ 
-2.1696 CD VBD JJR 
-2.1696 CD VBD NN 
-1.8719 CD VBD NNP 
-1.6368 CD VBD NNS 
-1.3636 CD VBD PRP 
-1.9825 CD VBD PRP$ 
-0.9012 CD VBD RB 
-1.2175 CD VBD TO 
-2.1696 CD VBD VBD 
-1.9825 CD VBD VBG 
-0.6915 CD VBD VBN 
-1.8719 CD VBD YPFAI 
-1.8719 CD VBD YPFOR 
-1.6255 CD VBG CC 
-1.6255 CD VBG CD 
-0.8653 CD VBG DT 
-1.3279 CD VBG IN 
-1.4384 CD VBG JJ 
-0.6435 CD VBG NN 
-1.6255 CD VBG NNP 
-0.4973 CD VBG NNS 
-1.3279 CD VBG RB 
-1.6053 CD VBN CC 
-0.7993 CD VBN IN 
-1.4182 CD VBN JJ 
-0.8451 CD VBN NN 
-0.4569 CD VBN NNS 
-1.6053 CD VBN RB 
-1.0725 CD VBN TO 
-1.6053 CD VBN WRB 
-1.6053 CD VBN YPFAI 
-1.0627 CD VBP DT 
-1.0627 CD VBP IN 
-0.7939 CD VBP JJ 
-1.5541 CD VBP JJS 
-1.3671 CD VBP NNS 
-0.7939 CD VBP RB 
-0.5441 CD VBP VBN 
-1.5541 CD VBP YPFAI 
-1.6442 CD VBZ CD 
-0.5939 CD VBZ DT 
-0.9461 CD VBZ IN 
-1.2985 CD VBZ JJ 
-1.8313 CD VBZ NN 
-1.8313 CD VBZ NNS 
-0.9839 CD VBZ RB 
-1.5336 CD VBZ TO 
-1.8313 CD VBZ VBG 
-0.6103 CD VBZ VBN 
-1.6442 CD VBZ YPFAI 
-1.0847 CD WDT DT 
-0.3245 CD WDT VBD 
-0.5932 CD WDT VBZ 
-1.0364 CD WP MD 
-0.8493 CD WP RB 
-0.2762 CD WP VBD 
-0.8493 CD WP VBP 
-0.3565 CD WRB DT 
-0.3188 CD WRB PRP 
-0.9272 CD YPFAI CC 
-0.7079 CD YPFAI CD 
-2.7451 CD YPFAI DEB_PAR 
-2.4756 CD YPFAI DEB_QUO 
-2.7451 CD YPFAI DOLLAR 
-2.1228 CD YPFAI DOUB_PT 
-0.9580 CD YPFAI DT 
-2.2825 CD YPFAI EX 
-2.8557 CD YPFAI FW 
-0.9767 CD YPFAI IN 
-1.8388 CD YPFAI JJ 
-2.5513 CD YPFAI JJR 
-2.1228 CD YPFAI MD 
-1.5044 CD YPFAI NN 
-1.1065 CD YPFAI NNP 
-3.0427 CD YPFAI NNPS 
-1.7053 CD YPFAI NNS 
-1.3560 CD YPFAI PRP 
-2.4756 CD YPFAI PRP$ 
-1.4734 CD YPFAI RB 
-2.0327 CD YPFAI TO 
-2.5513 CD YPFAI VB 
-1.2591 CD YPFAI VBD 
-1.7053 CD YPFAI VBG 
-1.8218 CD YPFAI VBN 
-2.2825 CD YPFAI VBP 
-1.5292 CD YPFAI VBZ 
-1.7896 CD YPFAI WDT 
-2.0907 CD YPFAI WP 
-1.7316 CD YPFAI WRB 
-1.5292 CD YPFAI YPFAI 
-0.0004 CD YPFOR ZTRM 
-1.3439 DEB_PAR CC CD 
-0.8533 DEB_PAR CC DT 
-1.2682 DEB_PAR CC IN 
-1.1263 DEB_PAR CC JJ 
-1.6483 DEB_PAR CC JJR 
-0.9502 DEB_PAR CC NN 
-1.5377 DEB_PAR CC NNS 
-1.3439 DEB_PAR CC PRP 
-1.8353 DEB_PAR CC PRP$ 
-0.6314 DEB_PAR CC RB 
-1.8353 DEB_PAR CC VB 
-1.5377 DEB_PAR CC VBN 
-1.6483 DEB_PAR CC VBZ 
-1.2682 DEB_PAR CC YPFAI 
-1.3832 DEB_PAR CD CD 
-1.3832 DEB_PAR CD DOUB_PT 
-0.1724 DEB_PAR CD FIN_PAR 
-1.3485 DEB_PAR CD IN 
-2.2684 DEB_PAR CD JJ 
-1.3163 DEB_PAR CD NN 
-1.7356 DEB_PAR CD NNP 
-1.2071 DEB_PAR CD NNS 
-1.9707 DEB_PAR CD SYM 
-2.0813 DEB_PAR CD TO 
-1.7356 DEB_PAR CD YPFAI 
-0.9820 DEB_PAR DEB_PAR CD 
-0.9820 DEB_PAR DEB_PAR DT 
-0.9820 DEB_PAR DEB_PAR LS 
-0.7950 DEB_PAR DEB_PAR NN 
-0.7950 DEB_PAR DEB_PAR NNP 
-0.9820 DEB_PAR DEB_PAR SYM 
-1.3742 DEB_PAR DEB_QUO CD 
-1.3742 DEB_PAR DEB_QUO IN 
-1.3742 DEB_PAR DEB_QUO JJ 
-0.8827 DEB_PAR DEB_QUO NN 
-0.6651 DEB_PAR DEB_QUO NNP 
-1.3742 DEB_PAR DEB_QUO NNPS 
-0.8414 DEB_PAR DEB_QUO PRP 
-1.1871 DEB_PAR DEB_QUO VBG 
-1.9762 DEB_PAR DT CD 
-1.7892 DEB_PAR DT DEB_QUO 
-1.4847 DEB_PAR DT FIN_PAR 
-1.6786 DEB_PAR DT IN 
-0.6021 DEB_PAR DT JJ 
-0.4890 DEB_PAR DT NN 
-0.8915 DEB_PAR DT NNP 
-1.1289 DEB_PAR DT NNS 
-1.7892 DEB_PAR DT RB 
-1.6786 DEB_PAR DT VBD 
-1.2672 DEB_PAR DT VBZ 
-0.0134 DEB_PAR EX VBP 
-0.7388 DEB_PAR FW FW 
-1.0364 DEB_PAR FW NNP 
-0.3274 DEB_PAR FW YPFAI 
-1.1574 DEB_PAR IN CD 
-1.0744 DEB_PAR IN DOLLAR 
-0.7038 DEB_PAR IN DT 
-2.2421 DEB_PAR IN FIN_PAR 
-1.5331 DEB_PAR IN IN 
-1.2601 DEB_PAR IN JJ 
-1.6750 DEB_PAR IN JJS 
-0.9890 DEB_PAR IN NN 
-0.8341 DEB_PAR IN NNP 
-1.3948 DEB_PAR IN NNS 
-1.2601 DEB_PAR IN PRP 
-1.7093 DEB_PAR IN PRP$ 
-1.4362 DEB_PAR IN RB 
-2.2421 DEB_PAR IN TO 
-2.2421 DEB_PAR IN VB 
-2.0551 DEB_PAR IN VBG 
-1.4362 DEB_PAR IN VBN 
-1.4819 DEB_PAR IN WDT 
-2.2421 DEB_PAR IN WRB 
-2.2421 DEB_PAR IN YPFAI 
-1.2775 DEB_PAR JJ CC 
-0.4728 DEB_PAR JJ FIN_PAR 
-0.9629 DEB_PAR JJ IN 
-1.5127 DEB_PAR JJ JJ 
-0.7033 DEB_PAR JJ NN 
-1.5127 DEB_PAR JJ NNP 
-1.1012 DEB_PAR JJ NNS 
-1.8103 DEB_PAR JJ RB 
-1.6232 DEB_PAR JJ TO 
-1.2432 DEB_PAR JJ YPFAI 
-2.1343 DEB_PAR LS CC 
-0.0041 DEB_PAR LS FIN_PAR 
-1.8355 DEB_PAR NN CC 
-0.8219 DEB_PAR NN CD 
-2.0706 DEB_PAR NN DOUB_PT 
-0.2421 DEB_PAR NN FIN_PAR 
-2.3683 DEB_PAR NN FW 
-1.6592 DEB_PAR NN IN 
-2.0706 DEB_PAR NN JJ 
-1.1644 DEB_PAR NN NN 
-1.6081 DEB_PAR NN NNP 
-1.8011 DEB_PAR NN NNS 
-2.3683 DEB_PAR NN POS 
-2.0706 DEB_PAR NN TO 
-2.0706 DEB_PAR NN VBN 
-2.3683 DEB_PAR NN VBZ 
-1.4162 DEB_PAR NN YPFAI 
-1.8768 DEB_PAR NN YPFOR 
-1.3531 DEB_PAR NNP CC 
-1.0309 DEB_PAR NNP CD 
-0.5238 DEB_PAR NNP FIN_PAR 
-2.4601 DEB_PAR NNP IN 
-2.4601 DEB_PAR NNP JJ 
-1.5080 DEB_PAR NNP NN 
-0.4752 DEB_PAR NNP NNP 
-1.9686 DEB_PAR NNP NNPS 
-1.5402 DEB_PAR NNP POS 
-2.1625 DEB_PAR NNP RB 
-1.8930 DEB_PAR NNP VBD 
-2.2731 DEB_PAR NNP VBZ 
-0.9640 DEB_PAR NNP YPFAI 
-0.5202 DEB_PAR NNS CD 
-0.6829 DEB_PAR NNS FIN_PAR 
-1.0387 DEB_PAR NNS IN 
-1.5302 DEB_PAR NNS NNP 
-1.5302 DEB_PAR NNS VBN 
-1.5302 DEB_PAR NNS VBP 
-0.9631 DEB_PAR NNS YPFAI 
-1.0056 DEB_PAR PRP MD 
-0.9712 DEB_PAR PRP RB 
-0.4314 DEB_PAR PRP VBD 
-0.6910 DEB_PAR PRP VBP 
-0.9712 DEB_PAR PRP VBZ 
-0.6603 DEB_PAR PRP$ JJ 
-0.5497 DEB_PAR PRP$ NN 
-1.3339 DEB_PAR RB CD 
-1.1065 DEB_PAR RB DT 
-0.8846 DEB_PAR RB FIN_PAR 
-1.0193 DEB_PAR RB IN 
-1.1065 DEB_PAR RB JJ 
-1.3752 DEB_PAR RB NN 
-1.3752 DEB_PAR RB NNP 
-1.5690 DEB_PAR RB NNS 
-1.8667 DEB_PAR RB PRP 
-1.0607 DEB_PAR RB RB 
-1.8667 DEB_PAR RB SYM 
-1.6796 DEB_PAR RB TO 
-1.5690 DEB_PAR RB VBG 
-1.0193 DEB_PAR RB VBN 
-0.9468 DEB_PAR RB YPFAI 
-0.1070 DEB_PAR RBR RB 
-0.0223 DEB_PAR SYM FIN_PAR 
-0.8851 DEB_PAR TO CD 
-0.8851 DEB_PAR TO DT 
-0.8851 DEB_PAR TO NNP 
-0.8851 DEB_PAR TO PRP 
-0.5875 DEB_PAR TO VB 
-1.1974 DEB_PAR VB CD 
-1.7302 DEB_PAR VB DOUB_PT 
-1.1631 DEB_PAR VB DT 
-1.7302 DEB_PAR VB FIN_PAR 
-1.5432 DEB_PAR VB IN 
-1.7302 DEB_PAR VB JJ 
-0.2908 DEB_PAR VB NN 
-1.1974 DEB_PAR VB NNP 
-1.4326 DEB_PAR VB NNS 
-1.7302 DEB_PAR VB PRP 
-1.5432 DEB_PAR VB RB 
-1.3857 DEB_PAR VBG CD 
-0.5798 DEB_PAR VBG DT 
-1.1987 DEB_PAR VBG FIN_PAR 
-0.6255 DEB_PAR VBG NN 
-1.1987 DEB_PAR VBG NNP 
-1.1987 DEB_PAR VBG NNS 
-1.3857 DEB_PAR VBG TO 
-1.3742 DEB_PAR VBN DEB_QUO 
-1.3742 DEB_PAR VBN DT 
-0.8414 DEB_PAR VBN FIN_PAR 
-0.3921 DEB_PAR VBN IN 
-1.3742 DEB_PAR VBN NN 
-1.3742 DEB_PAR VBN NNP 
-1.3742 DEB_PAR VBN RB 
-1.1871 DEB_PAR VBN TO 
-1.3742 DEB_PAR WDT DT 
-1.0765 DEB_PAR WDT MD 
-1.3742 DEB_PAR WDT NNP 
-0.8070 DEB_PAR WDT PRP 
-1.0765 DEB_PAR WDT VBD 
-1.1871 DEB_PAR WDT VBP 
-0.4890 DEB_PAR WDT VBZ 
-0.2732 DEB_PAR WP VBD 
-0.4080 DEB_PAR WP$ JJ 
-0.8851 DEB_PAR WRB JJ 
-0.8851 DEB_PAR WRB NN 
-0.6981 DEB_PAR WRB PRP 
-0.2831 DEB_PAR YPFAI FIN_PAR 
-2.2142 DEB_QUO CC CD 
-0.8897 DEB_QUO CC DT 
-2.2142 DEB_QUO CC EX 
-2.0271 DEB_QUO CC FIN_QUO 
-1.1072 DEB_QUO CC IN 
-1.9166 DEB_QUO CC JJ 
-2.0271 DEB_QUO CC MD 
-2.0271 DEB_QUO CC NN 
-1.4082 DEB_QUO CC NNP 
-2.2142 DEB_QUO CC NNS 
-0.4492 DEB_QUO CC PRP 
-2.0271 DEB_QUO CC PRP$ 
-1.0280 DEB_QUO CC RB 
-2.2142 DEB_QUO CC TO 
-1.4540 DEB_QUO CC VB 
-1.6471 DEB_QUO CC VBD 
-1.6471 DEB_QUO CC VBP 
-2.0271 DEB_QUO CC VBZ 
-1.4540 DEB_QUO CC WP 
-1.4540 DEB_QUO CC WRB 
-1.6814 DEB_QUO CC YPFAI 
-1.1804 DEB_QUO CD CC 
-1.2910 DEB_QUO CD CD 
-0.9109 DEB_QUO CD FIN_QUO 
-0.9866 DEB_QUO CD IN 
-1.2910 DEB_QUO CD JJ 
-0.7690 DEB_QUO CD NN 
-1.4781 DEB_QUO CD NNP 
-0.6721 DEB_QUO CD NNS 
-0.5841 DEB_QUO DEB_PAR DEB_PAR 
-0.7090 DEB_QUO DOUB_PT DOUB_PT 
-0.7090 DEB_QUO DOUB_PT VBD 
-2.1584 DEB_QUO DT CD 
-2.5385 DEB_QUO DT DT 
-2.2341 DEB_QUO DT FIN_QUO 
-1.8782 DEB_QUO DT IN 
-0.7182 DEB_QUO DT JJ 
-2.0165 DEB_QUO DT JJR 
-1.8404 DEB_QUO DT JJS 
-1.7435 DEB_QUO DT MD 
-0.4410 DEB_QUO DT NN 
-0.9328 DEB_QUO DT NNP 
-1.1714 DEB_QUO DT NNS 
-1.8057 DEB_QUO DT PRP 
-2.7256 DEB_QUO DT PRP$ 
-1.7435 DEB_QUO DT RB 
-2.7256 DEB_QUO DT RBR 
-2.2341 DEB_QUO DT RBS 
-2.7256 DEB_QUO DT VB 
-1.8057 DEB_QUO DT VBD 
-2.2341 DEB_QUO DT VBG 
-2.5385 DEB_QUO DT VBN 
-2.2341 DEB_QUO DT VBP 
-0.9801 DEB_QUO DT VBZ 
-2.7256 DEB_QUO DT WP 
-0.8219 DEB_QUO EX MD 
-0.9091 DEB_QUO EX VBD 
-1.1022 DEB_QUO EX VBP 
-0.2006 DEB_QUO EX VBZ 
-0.4702 DEB_QUO FW FIN_QUO 
-0.3010 DEB_QUO FW FW 
-1.0656 DEB_QUO FW YPFAI 
-1.5983 DEB_QUO FW YPFOR 
-1.2896 DEB_QUO IN CD 
-0.5114 DEB_QUO IN DT 
-1.6099 DEB_QUO IN FIN_QUO 
-1.3725 DEB_QUO IN IN 
-1.6099 DEB_QUO IN JJ 
-1.9244 DEB_QUO IN JJS 
-0.9437 DEB_QUO IN NN 
-1.1461 DEB_QUO IN NNP 
-1.6970 DEB_QUO IN NNS 
-0.7019 DEB_QUO IN PRP 
-1.3960 DEB_QUO IN PRP$ 
-1.6099 DEB_QUO IN RB 
-2.2702 DEB_QUO IN TO 
-1.4752 DEB_QUO IN VBG 
-2.2702 DEB_QUO IN VBN 
-2.4572 DEB_QUO IN WRB 
-1.6312 DEB_QUO JJ CC 
-0.4181 DEB_QUO JJ FIN_QUO 
-1.6560 DEB_QUO JJ IN 
-1.4094 DEB_QUO JJ JJ 
-0.4649 DEB_QUO JJ NN 
-1.6824 DEB_QUO JJ NNP 
-2.6924 DEB_QUO JJ NNPS 
-0.9134 DEB_QUO JJ NNS 
-2.5054 DEB_QUO JJ RB 
-2.3948 DEB_QUO JJ TO 
-1.7404 DEB_QUO JJ YPFAI 
-1.9322 DEB_QUO JJ YPFOR 
-0.5875 DEB_QUO JJR FIN_QUO 
-0.6981 DEB_QUO JJR NN 
-0.6981 DEB_QUO JJR NNS 
-0.6189 DEB_QUO JJS FIN_QUO 
-0.6189 DEB_QUO JJS NN 
-0.2210 DEB_QUO LS YPFAI 
-1.5983 DEB_QUO MD DT 
-0.3010 DEB_QUO MD PRP 
-0.5619 DEB_QUO MD RB 
-0.7132 DEB_QUO MD VB 
-2.0067 DEB_QUO NN CC 
-2.2341 DEB_QUO NN CD 
-2.5798 DEB_QUO NN DOUB_PT 
-0.2433 DEB_QUO NN FIN_QUO 
-0.9832 DEB_QUO NN IN 
-1.9196 DEB_QUO NN JJ 
-2.0579 DEB_QUO NN MD 
-0.9356 DEB_QUO NN NN 
-1.4295 DEB_QUO NN NNS 
-1.8470 DEB_QUO NN POS 
-2.0579 DEB_QUO NN RB 
-2.0579 DEB_QUO NN TO 
-1.9609 DEB_QUO NN VBD 
-1.9609 DEB_QUO NN VBN 
-2.7669 DEB_QUO NN VBP 
-1.5296 DEB_QUO NN VBZ 
-2.7669 DEB_QUO NN WP 
-1.7057 DEB_QUO NN YPFAI 
-1.7849 DEB_QUO NN YPFOR 
-1.6567 DEB_QUO NNP CC 
-2.5075 DEB_QUO NNP CD 
-2.2380 DEB_QUO NNP DT 
-0.6728 DEB_QUO NNP FIN_QUO 
-1.3002 DEB_QUO NNP IN 
-1.9199 DEB_QUO NNP MD 
-1.7950 DEB_QUO NNP NN 
-0.3616 DEB_QUO NNP NNP 
-1.6374 DEB_QUO NNP NNPS 
-2.2723 DEB_QUO NNP NNS 
-1.8530 DEB_QUO NNP POS 
-2.2723 DEB_QUO NNP PRP 
-2.2380 DEB_QUO NNP RB 
-2.2723 DEB_QUO NNP TO 
-2.2723 DEB_QUO NNP VB 
-1.5220 DEB_QUO NNP VBD 
-2.6180 DEB_QUO NNP VBP 
-1.3971 DEB_QUO NNP VBZ 
-1.1479 DEB_QUO NNP YPFAI 
-1.5842 DEB_QUO NNP YPFOR 
-0.6368 DEB_QUO NNPS FIN_QUO 
-0.9063 DEB_QUO NNPS IN 
-0.6368 DEB_QUO NNPS NNP 
-1.0168 DEB_QUO NNPS POS 
-1.0168 DEB_QUO NNPS YPFAI 
-1.6405 DEB_QUO NNS CC 
-0.2181 DEB_QUO NNS FIN_QUO 
-0.8622 DEB_QUO NNS IN 
-2.1733 DEB_QUO NNS JJ 
-1.6062 DEB_QUO NNS MD 
-1.9863 DEB_QUO NNS NN 
-1.9863 DEB_QUO NNS NNS 
-2.1733 DEB_QUO NNS POS 
-1.4643 DEB_QUO NNS RB 
-2.1733 DEB_QUO NNS VBN 
-1.1913 DEB_QUO NNS VBP 
-1.6062 DEB_QUO NNS YPFAI 
-2.1733 DEB_QUO NNS YPFOR 
-0.0512 DEB_QUO PDT DT 
-2.3209 DEB_QUO PRP CC 
-2.8429 DEB_QUO PRP DOUB_PT 
-2.4629 DEB_QUO PRP DT 
-2.1448 DEB_QUO PRP FIN_QUO 
-2.5385 DEB_QUO PRP JJ 
-0.7095 DEB_QUO PRP MD 
-2.4972 DEB_QUO PRP NN 
-2.8429 DEB_QUO PRP NNP 
-2.8429 DEB_QUO PRP NNS 
-3.0300 DEB_QUO PRP PRP 
-1.4681 DEB_QUO PRP RB 
-3.0300 DEB_QUO PRP UH 
-1.7055 DEB_QUO PRP VB 
-0.8296 DEB_QUO PRP VBD 
-2.4629 DEB_QUO PRP VBG 
-3.0300 DEB_QUO PRP VBN 
-0.3565 DEB_QUO PRP VBP 
-0.9230 DEB_QUO PRP VBZ 
-2.7323 DEB_QUO PRP WDT 
-3.0300 DEB_QUO PRP WP 
-2.7323 DEB_QUO PRP YPFAI 
-1.6758 DEB_QUO PRP$ FIN_QUO 
-0.7559 DEB_QUO PRP$ JJ 
-0.2440 DEB_QUO PRP$ NN 
-1.0155 DEB_QUO PRP$ NNP 
-0.9430 DEB_QUO PRP$ NNS 
-2.0029 DEB_QUO RB CC 
-2.3073 DEB_QUO RB CD 
-1.1569 DEB_QUO RB DT 
-2.4944 DEB_QUO RB EX 
-1.0550 DEB_QUO RB FIN_QUO 
-1.0756 DEB_QUO RB IN 
-0.7908 DEB_QUO RB JJ 
-2.3073 DEB_QUO RB JJR 
-2.4944 DEB_QUO RB MD 
-1.9273 DEB_QUO RB NN 
-2.3073 DEB_QUO RB NNP 
-1.9616 DEB_QUO RB NNS 
-0.9808 DEB_QUO RB PRP 
-2.1968 DEB_QUO RB PRP$ 
-1.0652 DEB_QUO RB RB 
-1.7342 DEB_QUO RB TO 
-1.1444 DEB_QUO RB VB 
-2.0029 DEB_QUO RB VBD 
-1.9273 DEB_QUO RB VBG 
-1.5423 DEB_QUO RB VBN 
-1.9616 DEB_QUO RB VBP 
-2.0029 DEB_QUO RB VBZ 
-2.3073 DEB_QUO RB WP 
-1.7342 DEB_QUO RB WRB 
-0.9031 DEB_QUO RB YPFAI 
-1.9616 DEB_QUO RB YPFOR 
-0.6511 DEB_QUO RBR JJ 
-0.5497 DEB_QUO RBS IN 
-0.5497 DEB_QUO RBS JJ 
-0.8474 DEB_QUO RBS RB 
-0.9947 DEB_QUO TO DT 
-0.1027 DEB_QUO TO VB 
-1.7549 DEB_QUO UH DOUB_PT 
-0.5861 DEB_QUO UH FIN_QUO 
-2.4640 DEB_QUO UH IN 
-2.4640 DEB_QUO UH JJ 
-1.9312 DEB_QUO UH NN 
-2.2769 DEB_QUO UH NNP 
-1.6580 DEB_QUO UH PRP 
-2.2769 DEB_QUO UH RB 
-1.4819 DEB_QUO UH UH 
-2.1663 DEB_QUO UH VB 
-2.4640 DEB_QUO UH WRB 
-0.3001 DEB_QUO UH YPFAI 
-0.9678 DEB_QUO UH YPFOR 
-1.9308 DEB_QUO VB CC 
-2.3109 DEB_QUO VB CD 
-0.8407 DEB_QUO VB DT 
-2.2003 DEB_QUO VB EX 
-0.9596 DEB_QUO VB FIN_QUO 
-0.9361 DEB_QUO VB IN 
-1.6920 DEB_QUO VB JJ 
-1.6920 DEB_QUO VB NN 
-1.9651 DEB_QUO VB NNP 
-2.4979 DEB_QUO VB NNS 
-2.2003 DEB_QUO VB POS 
-0.6545 DEB_QUO VB PRP 
-1.4615 DEB_QUO VB PRP$ 
-0.9438 DEB_QUO VB RB 
-2.4979 DEB_QUO VB RBR 
-1.9308 DEB_QUO VB RP 
-1.6506 DEB_QUO VB TO 
-1.6506 DEB_QUO VB VB 
-2.2003 DEB_QUO VB VBG 
-2.4979 DEB_QUO VB VBN 
-2.3109 DEB_QUO VB VBP 
-2.0064 DEB_QUO VB WP 
-2.4979 DEB_QUO VB WRB 
-1.2448 DEB_QUO VB YPFAI 
-2.2003 DEB_QUO VB YPFOR 
-1.7354 DEB_QUO VBD CC 
-1.0263 DEB_QUO VBD DT 
-1.5483 DEB_QUO VBD FIN_QUO 
-1.4378 DEB_QUO VBD IN 
-1.5483 DEB_QUO VBD JJ 
-1.5483 DEB_QUO VBD NN 
-1.7354 DEB_QUO VBD NNP 
-1.5483 DEB_QUO VBD NNS 
-0.4381 DEB_QUO VBD PRP 
-1.5483 DEB_QUO VBD PRP$ 
-0.8502 DEB_QUO VBD RB 
-1.7354 DEB_QUO VBD TO 
-1.4378 DEB_QUO VBD VBN 
-1.8103 DEB_QUO VBG CC 
-1.1012 DEB_QUO VBG DT 
-0.4728 DEB_QUO VBG FIN_QUO 
-0.9251 DEB_QUO VBG IN 
-1.6232 DEB_QUO VBG JJ 
-1.0043 DEB_QUO VBG NN 
-1.6232 DEB_QUO VBG NNP 
-1.2432 DEB_QUO VBG NNS 
-1.3188 DEB_QUO VBG PRP 
-1.6232 DEB_QUO VBG PRP$ 
-1.3188 DEB_QUO VBG RB 
-1.8103 DEB_QUO VBG RP 
-1.3188 DEB_QUO VBG TO 
-1.1181 DEB_QUO VBN DT 
-0.4649 DEB_QUO VBN FIN_QUO 
-0.6595 DEB_QUO VBN IN 
-1.6401 DEB_QUO VBN JJ 
-1.3357 DEB_QUO VBN NN 
-1.2600 DEB_QUO VBN NNS 
-1.8271 DEB_QUO VBN PRP 
-1.2600 DEB_QUO VBN RB 
-1.1181 DEB_QUO VBN TO 
-1.4251 DEB_QUO VBP DT 
-1.9165 DEB_QUO VBP FIN_QUO 
-1.7295 DEB_QUO VBP IN 
-1.9165 DEB_QUO VBP JJ 
-1.1563 DEB_QUO VBP NNP 
-0.3782 DEB_QUO VBP PRP 
-0.4385 DEB_QUO VBP RB 
-0.6326 DEB_QUO VBZ DT 
-1.8188 DEB_QUO VBZ EX 
-1.0586 DEB_QUO VBZ FIN_QUO 
-0.8087 DEB_QUO VBZ IN 
-1.8188 DEB_QUO VBZ JJ 
-1.8188 DEB_QUO VBZ NN 
-1.0586 DEB_QUO VBZ PRP 
-1.8188 DEB_QUO VBZ PRP$ 
-0.7341 DEB_QUO VBZ RB 
-1.3273 DEB_QUO VBZ TO 
-1.8188 DEB_QUO VBZ VB 
-1.8188 DEB_QUO VBZ VBG 
-1.5212 DEB_QUO VBZ VBN 
-0.3010 DEB_QUO WDT NN 
-1.1070 DEB_QUO WDT NNS 
-0.9199 DEB_QUO WDT PRP 
-1.1070 DEB_QUO WDT VBP 
-0.9199 DEB_QUO WDT VBZ 
-1.3688 DEB_QUO WP DT 
-1.8907 DEB_QUO WP FIN_QUO 
-1.0166 DEB_QUO WP IN 
-1.0958 DEB_QUO WP MD 
-1.7802 DEB_QUO WP NN 
-2.0778 DEB_QUO WP NNP 
-1.3688 DEB_QUO WP PRP 
-1.5450 DEB_QUO WP RB 
-0.8916 DEB_QUO WP VBD 
-0.8094 DEB_QUO WP VBP 
-0.4393 DEB_QUO WP VBZ 
-1.2512 DEB_QUO WRB DT 
-2.1364 DEB_QUO WRB EX 
-1.5693 DEB_QUO WRB FIN_QUO 
-1.4273 DEB_QUO WRB IN 
-1.3304 DEB_QUO WRB JJ 
-1.0082 DEB_QUO WRB MD 
-1.9493 DEB_QUO WRB NNP 
-0.9325 DEB_QUO WRB PRP 
-1.0294 DEB_QUO WRB RB 
-1.9493 DEB_QUO WRB TO 
-1.3762 DEB_QUO WRB VB 
-1.1263 DEB_QUO WRB VBD 
-2.1364 DEB_QUO WRB VBG 
-0.7863 DEB_QUO WRB VBP 
-1.0751 DEB_QUO WRB VBZ 
-1.1543 DEB_QUO WRB YPFAI 
-2.1364 DEB_QUO WRB YPFOR 
-0.0839 DEB_QUO YPFOR ZTRM 
-1.2988 DOLLAR CD CC 
-0.7655 DOLLAR CD CD 
-2.5671 DOLLAR CD DEB_PAR 
-1.7612 DOLLAR CD DOUB_PT 
-0.9483 DOLLAR CD DT 
-1.4188 DOLLAR CD FIN_PAR 
-2.5671 DOLLAR CD FIN_QUO 
-0.6893 DOLLAR CD IN 
-2.0343 DOLLAR CD JJ 
-2.3801 DOLLAR CD JJR 
-2.5671 DOLLAR CD MD 
-1.1080 DOLLAR CD NN 
-2.0756 DOLLAR CD NNP 
-2.2695 DOLLAR CD NNS 
-2.0000 DOLLAR CD RB 
-2.5671 DOLLAR CD RBR 
-1.1379 DOLLAR CD TO 
-2.2695 DOLLAR CD VBD 
-2.2695 DOLLAR CD VBG 
-2.3801 DOLLAR CD VBN 
-2.3801 DOLLAR CD VBZ 
-1.1277 DOLLAR CD YPFAI 
-1.0369 DOLLAR CD YPFOR 
-0.2210 DOLLAR JJ NN 
-1.9142 DOUB_PT CC CD 
-1.8240 DOUB_PT CC DEB_PAR 
-2.3426 DOUB_PT CC DEB_QUO 
-0.7359 DOUB_PT CC DT 
-1.9868 DOUB_PT CC EX 
-0.8638 DOUB_PT CC IN 
-1.2428 DOUB_PT CC JJ 
-2.8341 DOUB_PT CC MD 
-1.4484 DOUB_PT CC NN 
-1.3292 DOUB_PT CC NNP 
-1.8240 DOUB_PT CC NNS 
-0.8268 DOUB_PT CC PRP 
-1.6480 DOUB_PT CC PRP$ 
-0.8698 DOUB_PT CC RB 
-2.8341 DOUB_PT CC RBR 
-2.8341 DOUB_PT CC SYM 
-1.8521 DOUB_PT CC TO 
-1.6664 DOUB_PT CC VB 
-1.5097 DOUB_PT CC VBD 
-1.9868 DOUB_PT CC VBG 
-2.0282 DOUB_PT CC VBN 
-2.3426 DOUB_PT CC VBP 
-2.1251 DOUB_PT CC VBZ 
-2.8341 DOUB_PT CC WDT 
-1.9868 DOUB_PT CC WP 
-1.7494 DOUB_PT CC WRB 
-1.4261 DOUB_PT CC YPFAI 
-1.6368 DOUB_PT CD CC 
-1.9063 DOUB_PT CD CD 
-1.3979 DOUB_PT CD DOUB_PT 
-0.9508 DOUB_PT CD FIN_PAR 
-1.7124 DOUB_PT CD FIN_QUO 
-0.7447 DOUB_PT CD IN 
-1.3979 DOUB_PT CD JJ 
-1.0177 DOUB_PT CD NN 
-1.7124 DOUB_PT CD NNP 
-2.2039 DOUB_PT CD NNPS 
-0.8297 DOUB_PT CD NNS 
-2.2039 DOUB_PT CD PRP 
-1.2840 DOUB_PT CD SYM 
-2.2039 DOUB_PT CD TO 
-2.0168 DOUB_PT CD VBD 
-2.2039 DOUB_PT CD VBG 
-1.2518 DOUB_PT CD YPFAI 
-0.8794 DOUB_PT CD YPFOR 
-0.8751 DOUB_PT DEB_PAR CD 
-1.8851 DOUB_PT DEB_PAR DT 
-0.1984 DOUB_PT DEB_PAR LS 
-0.8239 DOUB_PT DEB_PAR NN 
-1.3523 DOUB_PT DEB_PAR NNP 
-1.7056 DOUB_PT DEB_QUO CC 
-2.3279 DOUB_PT DEB_QUO CD 
-2.1340 DOUB_PT DEB_QUO DEB_PAR 
-0.7861 DOUB_PT DEB_QUO DT 
-1.8195 DOUB_PT DEB_QUO EX 
-2.4384 DOUB_PT DEB_QUO FW 
-1.0414 DOUB_PT DEB_QUO IN 
-1.6154 DOUB_PT DEB_QUO JJ 
-2.6255 DOUB_PT DEB_QUO LS 
-2.3279 DOUB_PT DEB_QUO MD 
-1.3724 DOUB_PT DEB_QUO NN 
-1.0637 DOUB_PT DEB_QUO NNP 
-2.0927 DOUB_PT DEB_QUO NNS 
-0.5968 DOUB_PT DEB_QUO PRP 
-1.6154 DOUB_PT DEB_QUO PRP$ 
-1.2632 DOUB_PT DEB_QUO RB 
-2.6255 DOUB_PT DEB_QUO RBR 
-2.4384 DOUB_PT DEB_QUO RBS 
-2.4384 DOUB_PT DEB_QUO TO 
-1.5185 DOUB_PT DEB_QUO UH 
-1.2068 DOUB_PT DEB_QUO VB 
-2.4384 DOUB_PT DEB_QUO VBD 
-2.4384 DOUB_PT DEB_QUO VBG 
-2.0927 DOUB_PT DEB_QUO VBN 
-1.8195 DOUB_PT DEB_QUO VBP 
-2.1340 DOUB_PT DEB_QUO VBZ 
-1.8653 DOUB_PT DEB_QUO WP 
-1.5643 DOUB_PT DEB_QUO WRB 
-0.0512 DOUB_PT DOLLAR CD 
-0.7128 DOUB_PT DOUB_PT CC 
-1.8237 DOUB_PT DOUB_PT CD 
-1.6818 DOUB_PT DOUB_PT DEB_PAR 
-2.2911 DOUB_PT DOUB_PT DEB_QUO 
-2.7816 DOUB_PT DOUB_PT DOLLAR 
-2.9755 DOUB_PT DOUB_PT DOUB_PT 
-0.7923 DOUB_PT DOUB_PT DT 
-1.8761 DOUB_PT DOUB_PT EX 
-3.0861 DOUB_PT DOUB_PT FIN_QUO 
-2.9755 DOUB_PT DOUB_PT FW 
-1.0093 DOUB_PT DOUB_PT IN 
-1.5751 DOUB_PT DOUB_PT JJ 
-2.7816 DOUB_PT DOUB_PT JJR 
-3.0861 DOUB_PT DOUB_PT JJS 
-3.2731 DOUB_PT DOUB_PT LS 
-2.9755 DOUB_PT DOUB_PT MD 
-1.3532 DOUB_PT DOUB_PT NN 
-1.0623 DOUB_PT DOUB_PT NNP 
-1.6678 DOUB_PT DOUB_PT NNS 
-3.0861 DOUB_PT DOUB_PT PDT 
-0.8169 DOUB_PT DOUB_PT PRP 
-1.6678 DOUB_PT DOUB_PT PRP$ 
-1.1491 DOUB_PT DOUB_PT RB 
-3.2731 DOUB_PT DOUB_PT RBR 
-3.2731 DOUB_PT DOUB_PT RBS 
-2.5641 DOUB_PT DOUB_PT SYM 
-2.1054 DOUB_PT DOUB_PT TO 
-3.0861 DOUB_PT DOUB_PT UH 
-1.8874 DOUB_PT DOUB_PT VB 
-2.2911 DOUB_PT DOUB_PT VBD 
-2.1661 DOUB_PT DOUB_PT VBG 
-2.3880 DOUB_PT DOUB_PT VBN 
-2.9755 DOUB_PT DOUB_PT VBP 
-3.0861 DOUB_PT DOUB_PT WDT 
-2.2630 DOUB_PT DOUB_PT WP 
-3.2731 DOUB_PT DOUB_PT WP$ 
-2.1661 DOUB_PT DOUB_PT WRB 
-2.9159 DOUB_PT DT CC 
-1.6048 DOUB_PT DT CD 
-1.9638 DOUB_PT DT DEB_QUO 
-2.9159 DOUB_PT DT DOUB_PT 
-2.6183 DOUB_PT DT DT 
-2.9159 DOUB_PT DT FIN_QUO 
-2.9159 DOUB_PT DT FW 
-1.7297 DOUB_PT DT IN 
-0.6416 DOUB_PT DT JJ 
-2.4244 DOUB_PT DT JJR 
-2.1099 DOUB_PT DT JJS 
-2.3488 DOUB_PT DT MD 
-0.3719 DOUB_PT DT NN 
-1.1509 DOUB_PT DT NNP 
-2.2068 DOUB_PT DT NNPS 
-1.1908 DOUB_PT DT NNS 
-2.6183 DOUB_PT DT PRP 
-1.7482 DOUB_PT DT RB 
-2.3831 DOUB_PT DT RBR 
-2.9159 DOUB_PT DT RBS 
-1.7120 DOUB_PT DT VBD 
-2.0685 DOUB_PT DT VBG 
-2.3488 DOUB_PT DT VBN 
-1.9960 DOUB_PT DT VBP 
-1.3246 DOUB_PT DT VBZ 
-2.3488 DOUB_PT DT WP 
-1.1183 DOUB_PT EX MD 
-0.4301 DOUB_PT EX VBD 
-1.1183 DOUB_PT EX VBP 
-0.3537 DOUB_PT EX VBZ 
-1.0612 DOUB_PT FIN_QUO DEB_QUO 
-1.0612 DOUB_PT FIN_QUO DT 
-0.8742 DOUB_PT FIN_QUO NNP 
-0.5284 DOUB_PT FIN_QUO PRP 
-1.0612 DOUB_PT FIN_QUO YPFOR 
-0.6981 DOUB_PT FW FW 
-0.3180 DOUB_PT FW YPFAI 
-2.7450 DOUB_PT IN CC 
-1.5588 DOUB_PT IN CD 
-2.1779 DOUB_PT IN DEB_QUO 
-2.4474 DOUB_PT IN DOLLAR 
-0.5109 DOUB_PT IN DT 
-1.9848 DOUB_PT IN EX 
-1.3158 DOUB_PT IN IN 
-1.2400 DOUB_PT IN JJ 
-2.5579 DOUB_PT IN JJR 
-1.8598 DOUB_PT IN JJS 
-2.7450 DOUB_PT IN MD 
-0.9800 DOUB_PT IN NN 
-1.1537 DOUB_PT IN NNP 
-1.7086 DOUB_PT IN NNS 
-2.5579 DOUB_PT IN PDT 
-0.8284 DOUB_PT IN PRP 
-1.4075 DOUB_PT IN PRP$ 
-1.4619 DOUB_PT IN RB 
-2.5579 DOUB_PT IN RBS 
-2.2122 DOUB_PT IN TO 
-2.4474 DOUB_PT IN VB 
-1.5588 DOUB_PT IN VBG 
-2.4474 DOUB_PT IN VBN 
-1.9390 DOUB_PT IN WDT 
-1.8976 DOUB_PT IN WP 
-2.4474 DOUB_PT IN WRB 
-1.9390 DOUB_PT IN YPFAI 
-1.3026 DOUB_PT JJ CC 
-2.0676 DOUB_PT JJ DOUB_PT 
-1.9570 DOUB_PT JJ DT 
-2.0676 DOUB_PT JJ FIN_QUO 
-1.0508 DOUB_PT JJ IN 
-1.3348 DOUB_PT JJ JJ 
-0.5349 DOUB_PT JJ NN 
-1.5456 DOUB_PT JJ NNP 
-0.6162 DOUB_PT JJ NNS 
-2.2547 DOUB_PT JJ RB 
-1.9570 DOUB_PT JJ TO 
-2.2547 DOUB_PT JJ VBP 
-0.8466 DOUB_PT JJ YPFAI 
-1.7219 DOUB_PT JJ YPFOR 
-1.1070 DOUB_PT JJR CC 
-0.5399 DOUB_PT JJR IN 
-0.5742 DOUB_PT JJR NN 
-1.1070 DOUB_PT JJR NNS 
-0.5049 DOUB_PT JJS IN 
-0.5049 DOUB_PT JJS NN 
-1.1871 DOUB_PT LS DT 
-0.0911 DOUB_PT LS YPFOR 
-0.9066 DOUB_PT MD PRP 
-0.8723 DOUB_PT MD RB 
-0.2021 DOUB_PT MD VB 
-1.0276 DOUB_PT NN CC 
-1.2930 DOUB_PT NN CD 
-2.1906 DOUB_PT NN DEB_PAR 
-1.2930 DOUB_PT NN DOUB_PT 
-0.8158 DOUB_PT NN IN 
-1.8106 DOUB_PT NN JJ 
-1.5303 DOUB_PT NN MD 
-0.9485 DOUB_PT NN NN 
-1.8106 DOUB_PT NN NNP 
-1.0532 DOUB_PT NN NNS 
-2.3777 DOUB_PT NN POS 
-2.1906 DOUB_PT NN PRP 
-1.8862 DOUB_PT NN RB 
-1.8862 DOUB_PT NN TO 
-1.2495 DOUB_PT NN VBD 
-2.1906 DOUB_PT NN VBG 
-1.8106 DOUB_PT NN VBN 
-1.2293 DOUB_PT NN VBZ 
-2.0800 DOUB_PT NN WDT 
-2.1906 DOUB_PT NN WP 
-0.9485 DOUB_PT NN YPFAI 
-1.2930 DOUB_PT NN YPFOR 
-1.3655 DOUB_PT NNP CC 
-2.2718 DOUB_PT NNP CD 
-1.8603 DOUB_PT NNP DEB_PAR 
-1.7220 DOUB_PT NNP DOUB_PT 
-2.2718 DOUB_PT NNP FIN_PAR 
-1.4624 DOUB_PT NNP IN 
-1.8603 DOUB_PT NNP MD 
-2.0023 DOUB_PT NNP NN 
-0.3040 DOUB_PT NNP NNP 
-2.5694 DOUB_PT NNP NNPS 
-2.0023 DOUB_PT NNP NNS 
-1.4412 DOUB_PT NNP POS 
-1.8603 DOUB_PT NNP RB 
-1.0310 DOUB_PT NNP VBD 
-2.2718 DOUB_PT NNP VBG 
-1.4412 DOUB_PT NNP VBZ 
-0.8942 DOUB_PT NNP YPFAI 
-1.8603 DOUB_PT NNP YPFOR 
-0.4080 DOUB_PT NNPS VBP 
-1.0512 DOUB_PT NNS CC 
-1.4941 DOUB_PT NNS DEB_PAR 
-1.5284 DOUB_PT NNS DOUB_PT 
-0.5563 DOUB_PT NNS IN 
-2.0612 DOUB_PT NNS JJ 
-1.7636 DOUB_PT NNS MD 
-1.4941 DOUB_PT NNS RB 
-1.8742 DOUB_PT NNS TO 
-1.5697 DOUB_PT NNS VBD 
-1.8742 DOUB_PT NNS VBG 
-1.7636 DOUB_PT NNS VBN 
-1.0248 DOUB_PT NNS VBP 
-1.5697 DOUB_PT NNS WDT 
-1.4941 DOUB_PT NNS WP 
-0.7112 DOUB_PT NNS YPFAI 
-0.0726 DOUB_PT PDT DT 
-2.7074 DOUB_PT PRP DEB_QUO 
-2.7074 DOUB_PT PRP DT 
-0.8259 DOUB_PT PRP MD 
-2.7074 DOUB_PT PRP NN 
-1.2025 DOUB_PT PRP RB 
-2.1746 DOUB_PT PRP VB 
-0.3725 DOUB_PT PRP VBD 
-0.7977 DOUB_PT PRP VBP 
-0.7553 DOUB_PT PRP VBZ 
-2.7074 DOUB_PT PRP WDT 
-2.5204 DOUB_PT PRP YPFAI 
-1.9199 DOUB_PT PRP$ CD 
-0.7337 DOUB_PT PRP$ JJ 
-0.2879 DOUB_PT PRP$ NN 
-0.6088 DOUB_PT PRP$ NNS 
-1.7328 DOUB_PT PRP$ VBG 
-1.7893 DOUB_PT RB CC 
-1.8404 DOUB_PT RB CD 
-1.5674 DOUB_PT RB DOUB_PT 
-0.9110 DOUB_PT RB DT 
-2.3624 DOUB_PT RB EX 
-2.3624 DOUB_PT RB FIN_QUO 
-0.7523 DOUB_PT RB IN 
-1.2811 DOUB_PT RB JJ 
-2.5495 DOUB_PT RB JJS 
-2.5495 DOUB_PT RB MD 
-1.9824 DOUB_PT RB NN 
-1.7021 DOUB_PT RB NNP 
-2.0580 DOUB_PT RB NNS 
-1.0111 DOUB_PT RB PRP 
-1.8404 DOUB_PT RB PRP$ 
-1.0192 DOUB_PT RB RB 
-2.0167 DOUB_PT RB RBR 
-2.5495 DOUB_PT RB SYM 
-1.7893 DOUB_PT RB TO 
-1.7893 DOUB_PT RB VB 
-1.7435 DOUB_PT RB VBD 
-1.5974 DOUB_PT RB VBG 
-1.6643 DOUB_PT RB VBN 
-2.0167 DOUB_PT RB VBP 
-2.3624 DOUB_PT RB VBZ 
-2.3624 DOUB_PT RB WP 
-2.0167 DOUB_PT RB WRB 
-0.8040 DOUB_PT RB YPFAI 
-1.7435 DOUB_PT RB YPFOR 
-0.7090 DOUB_PT RBR IN 
-0.4114 DOUB_PT RBR JJ 
-1.5049 DOUB_PT SYM CC 
-1.5049 DOUB_PT SYM DOUB_PT 
-1.3179 DOUB_PT SYM NN 
-1.5049 DOUB_PT SYM NNP 
-1.3179 DOUB_PT SYM VBZ 
-1.0134 DOUB_PT SYM WRB 
-0.2518 DOUB_PT SYM YPFOR 
-0.8002 DOUB_PT TO DT 
-1.3188 DOUB_PT TO JJ 
-1.1012 DOUB_PT TO NNP 
-1.6232 DOUB_PT TO PRP 
-1.6232 DOUB_PT TO PRP$ 
-0.2050 DOUB_PT TO VB 
-0.9377 DOUB_PT UH DOUB_PT 
-0.2808 DOUB_PT UH YPFAI 
-0.5441 DOUB_PT UH YPFOR 
-1.6981 DOUB_PT VB CD 
-0.7570 DOUB_PT VB DT 
-1.1249 DOUB_PT VB IN 
-1.0378 DOUB_PT VB JJ 
-0.9031 DOUB_PT VB NN 
-1.8851 DOUB_PT VB NNP 
-1.3937 DOUB_PT VB NNS 
-0.7175 DOUB_PT VB PRP 
-1.3180 DOUB_PT VB PRP$ 
-1.3523 DOUB_PT VB RB 
-1.5875 DOUB_PT VB TO 
-1.3523 DOUB_PT VB YPFAI 
-1.8851 DOUB_PT VB YPFOR 
-0.7718 DOUB_PT VBD DT 
-0.8548 DOUB_PT VBD IN 
-1.0544 DOUB_PT VBD JJ 
-1.9395 DOUB_PT VBD NN 
-1.3724 DOUB_PT VBD NNP 
-1.0544 DOUB_PT VBD PRP 
-1.4480 DOUB_PT VBD PRP$ 
-0.9294 DOUB_PT VBD RB 
-1.6419 DOUB_PT VBD TO 
-1.9395 DOUB_PT VBD VBG 
-0.6711 DOUB_PT VBD VBN 
-1.5537 DOUB_PT VBG CC 
-1.8513 DOUB_PT VBG CD 
-1.8513 DOUB_PT VBG DOUB_PT 
-0.5982 DOUB_PT VBG DT 
-0.7443 DOUB_PT VBG IN 
-1.0911 DOUB_PT VBG JJ 
-1.8513 DOUB_PT VBG JJS 
-1.0911 DOUB_PT VBG NN 
-1.6642 DOUB_PT VBG NNS 
-1.1422 DOUB_PT VBG PRP 
-1.6642 DOUB_PT VBG PRP$ 
-1.1422 DOUB_PT VBG RB 
-1.3185 DOUB_PT VBG TO 
-1.5537 DOUB_PT VBG YPFAI 
-1.3596 DOUB_PT VBN CC 
-1.6572 DOUB_PT VBN DEB_PAR 
-1.0901 DOUB_PT VBN DT 
-0.4895 DOUB_PT VBN IN 
-1.6572 DOUB_PT VBN JJ 
-1.3596 DOUB_PT VBN NN 
-1.4702 DOUB_PT VBN NNS 
-1.1244 DOUB_PT VBN RB 
-1.1244 DOUB_PT VBN TO 
-0.9482 DOUB_PT VBN YPFAI 
-1.4702 DOUB_PT VBN YPFOR 
-0.9165 DOUB_PT VBP DT 
-1.1104 DOUB_PT VBP IN 
-1.2210 DOUB_PT VBP JJ 
-1.4080 DOUB_PT VBP NN 
-0.8409 DOUB_PT VBP PRP 
-0.5229 DOUB_PT VBP RB 
-1.2210 DOUB_PT VBP VBN 
-1.4822 DOUB_PT VBZ DOUB_PT 
-0.5846 DOUB_PT VBZ DT 
-0.9091 DOUB_PT VBZ IN 
-1.6693 DOUB_PT VBZ JJ 
-1.1365 DOUB_PT VBZ NN 
-1.6693 DOUB_PT VBZ NNS 
-1.6693 DOUB_PT VBZ PRP 
-0.9602 DOUB_PT VBZ RB 
-1.1778 DOUB_PT VBZ TO 
-0.8219 DOUB_PT VBZ VBN 
-1.6693 DOUB_PT VBZ WP 
-1.0056 DOUB_PT WDT MD 
-1.2407 DOUB_PT WDT NN 
-0.7782 DOUB_PT WDT PRP 
-1.3513 DOUB_PT WDT RB 
-0.6185 DOUB_PT WDT VBD 
-1.5384 DOUB_PT WDT VBP 
-0.8293 DOUB_PT WDT VBZ 
-1.0056 DOUB_PT WDT YPFAI 
-1.3279 DOUB_PT WP DT 
-1.4384 DOUB_PT WP IN 
-1.6255 DOUB_PT WP JJ 
-0.7782 DOUB_PT WP MD 
-1.3279 DOUB_PT WP PRP 
-0.6435 DOUB_PT WP VBD 
-0.9165 DOUB_PT WP VBP 
-0.6734 DOUB_PT WP VBZ 
-0.2210 DOUB_PT WP$ NN 
-0.8587 DOUB_PT WRB DT 
-1.4318 DOUB_PT WRB JJ 
-1.0861 DOUB_PT WRB MD 
-1.6189 DOUB_PT WRB NNP 
-1.4318 DOUB_PT WRB NNS 
-0.6088 DOUB_PT WRB PRP 
-1.0518 DOUB_PT WRB RB 
-1.6189 DOUB_PT WRB TO 
-1.3212 DOUB_PT WRB VBD 
-1.4318 DOUB_PT WRB VBP 
-1.3212 DOUB_PT WRB YPFAI 
-0.5841 DOUB_PT YPFAI JJ 
-0.1104 DOUB_PT YPFOR ZTRM 
-1.3523 DT CC CD 
-0.4881 DT CC DT 
-1.3937 DT CC IN 
-0.8239 DT CC JJ 
-1.8851 DT CC NN 
-1.6981 DT CC NNP 
-1.3523 DT CC PRP 
-1.3180 DT CC RB 
-1.8851 DT CC TO 
-1.8851 DT CC VB 
-1.0792 DT CC VBD 
-1.3937 DT CC VBN 
-1.5875 DT CC VBP 
-1.5875 DT CC VBZ 
-1.8851 DT CC YPFAI 
-1.5890 DT CD CC 
-1.5667 DT CD CD 
-2.2657 DT CD DEB_PAR 
-2.6771 DT CD DEB_QUO 
-1.8466 DT CD DOUB_PT 
-2.4420 DT CD FIN_QUO 
-1.1732 DT CD IN 
-1.0719 DT CD JJ 
-2.4833 DT CD JJR 
-2.7877 DT CD JJS 
-2.2657 DT CD MD 
-0.6831 DT CD NN 
-1.3764 DT CD NNP 
-1.9383 DT CD NNPS 
-0.4724 DT CD NNS 
-1.8264 DT CD POS 
-2.4076 DT CD PRP 
-2.0896 DT CD RB 
-2.9748 DT CD RBR 
-2.6771 DT CD RBS 
-2.4420 DT CD SYM 
-2.0227 DT CD TO 
-2.9748 DT CD VB 
-1.5890 DT CD VBD 
-2.0548 DT CD VBG 
-2.0896 DT CD VBN 
-2.1274 DT CD VBP 
-1.9383 DT CD VBZ 
-2.4833 DT CD WP 
-1.5667 DT CD YPFAI 
-1.7374 DT CD YPFOR 
-0.9806 DT DEB_PAR CD 
-0.6006 DT DEB_PAR JJ 
-1.1677 DT DEB_PAR NN 
-0.9806 DT DEB_PAR NNP 
-0.6349 DT DEB_PAR RB 
-2.6423 DT DEB_QUO CD 
-2.4552 DT DEB_QUO DT 
-2.6423 DT DEB_QUO FW 
-0.4525 DT DEB_QUO JJ 
-2.6423 DT DEB_QUO JJR 
-2.1508 DT DEB_QUO JJS 
-0.3907 DT DEB_QUO NN 
-0.8773 DT DEB_QUO NNP 
-2.3447 DT DEB_QUO NNPS 
-1.3450 DT DEB_QUO NNS 
-1.9332 DT DEB_QUO RB 
-2.1095 DT DEB_QUO VB 
-2.6423 DT DEB_QUO VBG 
-2.4552 DT DEB_QUO VBN 
-0.0170 DT DOLLAR CD 
-1.5110 DT DOLLAR JJ 
-1.2120 DT DOUB_PT CC 
-1.2876 DT DOUB_PT DEB_QUO 
-0.6721 DT DOUB_PT DOUB_PT 
-0.8592 DT DOUB_PT DT 
-1.0700 DT DOUB_PT IN 
-1.2876 DT DOUB_PT JJ 
-1.4815 DT DOUB_PT NN 
-1.4815 DT DOUB_PT NNP 
-1.7791 DT DOUB_PT NNS 
-1.2876 DT DOUB_PT PRP 
-1.2120 DT DOUB_PT RB 
-1.5920 DT DOUB_PT SYM 
-1.7791 DT DOUB_PT WP 
-2.1186 DT DT CD 
-2.1186 DT DT DEB_QUO 
-2.3056 DT DT DOUB_PT 
-2.1186 DT DT DT 
-2.3056 DT DT FIN_QUO 
-2.1186 DT DT IN 
-0.7515 DT DT JJ 
-0.3726 DT DT NN 
-1.3236 DT DT NNP 
-0.7673 DT DT NNS 
-2.3056 DT DT PRP 
-1.8142 DT DT RB 
-2.3056 DT DT RBR 
-2.3056 DT DT SYM 
-2.3056 DT DT VBD 
-2.0080 DT DT VBN 
-1.8142 DT DT VBZ 
-2.1186 DT DT WP 
-2.1186 DT DT YPFAI 
-2.1186 DT DT YPFOR 
-0.4114 DT EX VBD 
-0.7090 DT EX VBZ 
-0.9199 DT FIN_PAR DEB_PAR 
-0.9199 DT FIN_PAR IN 
-0.9199 DT FIN_PAR NN 
-0.9199 DT FIN_PAR NNS 
-0.9199 DT FIN_PAR VBD 
-0.9199 DT FIN_PAR YPFAI 
-1.5076 DT FIN_QUO DOUB_PT 
-1.2900 DT FIN_QUO JJ 
-1.4320 DT FIN_QUO NN 
-1.8120 DT FIN_QUO NNP 
-1.9991 DT FIN_QUO NNS 
-1.9991 DT FIN_QUO PRP 
-1.9991 DT FIN_QUO VBN 
-1.9991 DT FIN_QUO WRB 
-0.7160 DT FIN_QUO YPFAI 
-0.2437 DT FIN_QUO YPFOR 
-1.7036 DT FW CC 
-0.3178 DT FW FW 
-1.1365 DT FW IN 
-1.7036 DT FW MD 
-1.5165 DT FW NN 
-1.5165 DT FW NNP 
-1.7036 DT FW NNS 
-1.5165 DT FW VBD 
-1.7036 DT FW VBZ 
-1.1365 DT FW YPFAI 
-1.2121 DT FW YPFOR 
-2.0975 DT IN CC 
-2.1353 DT IN CD 
-2.2224 DT IN DEB_QUO 
-2.9826 DT IN DOLLAR 
-2.9826 DT IN DOUB_PT 
-0.3328 DT IN DT 
-2.2736 DT IN FIN_QUO 
-1.9214 DT IN IN 
-1.4777 DT IN JJ 
-2.4911 DT IN JJS 
-1.2736 DT IN NN 
-1.1638 DT IN NNP 
-1.6853 DT IN NNS 
-0.8362 DT IN PRP 
-1.0463 DT IN PRP$ 
-1.9462 DT IN RB 
-2.7956 DT IN RBR 
-2.7956 DT IN SYM 
-2.6850 DT IN TO 
-1.7787 DT IN VBG 
-2.7956 DT IN VBN 
-1.7453 DT IN WDT 
-1.9462 DT IN WP 
-2.2736 DT IN YPFAI 
-2.4498 DT IN YPFOR 
-1.5804 DT JJ CC 
-1.8614 DT JJ CD 
-3.0953 DT JJ DEB_PAR 
-2.4421 DT JJ DEB_QUO 
-3.3238 DT JJ DOLLAR 
-2.8357 DT JJ DOUB_PT 
-2.7845 DT JJ DT 
-3.7109 DT JJ FIN_PAR 
-2.7750 DT JJ FIN_QUO 
-3.3964 DT JJ FW 
-1.9814 DT JJ IN 
-1.1710 DT JJ JJ 
-3.0575 DT JJ JJR 
-3.7522 DT JJ JJS 
-3.2073 DT JJ MD 
-0.1760 DT JJ NN 
-1.5192 DT JJ NNP 
-3.0760 DT JJ NNPS 
-0.9225 DT JJ NNS 
-3.4835 DT JJ POS 
-3.2916 DT JJ PRP 
-3.9461 DT JJ PRP$ 
-2.6596 DT JJ RB 
-3.3964 DT JJ SYM 
-2.7135 DT JJ TO 
-3.4835 DT JJ VB 
-2.8580 DT JJ VBD 
-2.5293 DT JJ VBG 
-2.7054 DT JJ VBN 
-3.4835 DT JJ VBP 
-2.7657 DT JJ VBZ 
-3.4378 DT JJ WP 
-3.4835 DT JJ WRB 
-1.5197 DT JJ YPFAI 
-2.1324 DT JJ YPFOR 
-1.4680 DT JJR CC 
-1.9451 DT JJR CD 
-2.3565 DT JJR DEB_QUO 
-2.6541 DT JJR DOUB_PT 
-1.5929 DT JJR DT 
-2.4671 DT JJR FIN_QUO 
-1.5058 DT JJR IN 
-1.1580 DT JJR JJ 
-2.6541 DT JJR MD 
-0.2549 DT JJR NN 
-1.5260 DT JJR NNP 
-0.9188 DT JJR NNS 
-2.1213 DT JJR PRP 
-2.4671 DT JJR PRP$ 
-2.6541 DT JJR VBD 
-2.3565 DT JJR VBG 
-2.4671 DT JJR VBZ 
-1.4332 DT JJR YPFAI 
-1.4168 DT JJR YPFOR 
-1.3708 DT JJS CC 
-2.3976 DT JJS CD 
-2.5082 DT JJS DEB_PAR 
-2.1625 DT JJS DEB_QUO 
-2.6953 DT JJS DT 
-2.1625 DT JJS FIN_QUO 
-1.0900 DT JJS IN 
-0.9755 DT JJS JJ 
-0.3294 DT JJS NN 
-1.8893 DT JJS NNP 
-0.8174 DT JJS NNS 
-1.9351 DT JJS PRP 
-2.5082 DT JJS RB 
-2.5082 DT JJS TO 
-2.6953 DT JJS VBD 
-2.3976 DT JJS VBG 
-1.8893 DT JJS VBN 
-2.5082 DT JJS VBZ 
-1.4743 DT JJS YPFAI 
-1.5469 DT JJS YPFOR 
-2.2623 DT MD PRP 
-0.9001 DT MD RB 
-2.0753 DT MD TO 
-0.0726 DT MD VB 
-1.3381 DT NN CC 
-2.6684 DT NN CD 
-2.6096 DT NN DEB_PAR 
-2.7050 DT NN DEB_QUO 
-4.0763 DT NN DOLLAR 
-1.9051 DT NN DOUB_PT 
-1.9859 DT NN DT 
-3.1184 DT NN EX 
-2.8588 DT NN FIN_PAR 
-1.9051 DT NN FIN_QUO 
-3.7619 DT NN FW 
-0.4585 DT NN IN 
-2.1787 DT NN JJ 
-3.4001 DT NN JJR 
-4.2702 DT NN JJS 
-4.3808 DT NN LS 
-1.6618 DT NN MD 
-1.0527 DT NN NN 
-2.4155 DT NN NNP 
-4.5678 DT NN NNPS 
-1.7846 DT NN NNS 
-3.8588 DT NN PDT 
-1.7490 DT NN POS 
-1.7874 DT NN PRP 
-3.0991 DT NN PRP$ 
-1.6503 DT NN RB 
-3.0806 DT NN RBR 
-3.7205 DT NN RBS 
-3.1708 DT NN RP 
-2.9423 DT NN SYM 
-1.4900 DT NN TO 
-2.4175 DT NN VB 
-1.2573 DT NN VBD 
-2.0717 DT NN VBG 
-1.9186 DT NN VBN 
-2.4194 DT NN VBP 
-1.3388 DT NN VBZ 
-1.9510 DT NN WDT 
-2.1428 DT NN WP 
-3.2178 DT NN WP$ 
-2.2317 DT NN WRB 
-1.0680 DT NN YPFAI 
-1.0369 DT NN YPFOR 
-1.4310 DT NNP CC 
-2.3080 DT NNP CD 
-2.6602 DT NNP DEB_PAR 
-2.7308 DT NNP DEB_QUO 
-2.2370 DT NNP DOUB_PT 
-2.4699 DT NNP DT 
-3.7672 DT NNP EX 
-2.8473 DT NNP FIN_PAR 
-2.1417 DT NNP FIN_QUO 
-3.2757 DT NNP FW 
-1.0133 DT NNP IN 
-2.1978 DT NNP JJ 
-1.9359 DT NNP MD 
-0.8195 DT NNP NN 
-0.4282 DT NNP NNP 
-1.3559 DT NNP NNPS 
-1.4812 DT NNP NNS 
-1.5685 DT NNP POS 
-2.3930 DT NNP PRP 
-3.2344 DT NNP PRP$ 
-2.0370 DT NNP RB 
-3.7672 DT NNP RP 
-2.1483 DT NNP TO 
-2.6602 DT NNP VB 
-1.3769 DT NNP VBD 
-2.6390 DT NNP VBG 
-2.9198 DT NNP VBN 
-2.2130 DT NNP VBP 
-1.5957 DT NNP VBZ 
-2.7060 DT NNP WDT 
-2.6188 DT NNP WP 
-3.2344 DT NNP WRB 
-1.3080 DT NNP YPFAI 
-1.4336 DT NNP YPFOR 
-1.1051 DT NNPS CC 
-2.3868 DT NNPS DEB_PAR 
-1.8648 DT NNPS DOUB_PT 
-2.3868 DT NNPS DT 
-1.7265 DT NNPS FIN_QUO 
-0.9106 DT NNPS IN 
-2.3868 DT NNPS JJ 
-1.4062 DT NNPS MD 
-2.2762 DT NNPS NN 
-1.6218 DT NNPS NNP 
-1.4062 DT NNPS NNPS 
-1.4062 DT NNPS POS 
-2.2762 DT NNPS PRP 
-2.3868 DT NNPS PRP$ 
-1.5126 DT NNPS RB 
-1.5918 DT NNPS TO 
-2.0824 DT NNPS VB 
-0.7856 DT NNPS VBD 
-2.0824 DT NNPS VBG 
-2.5739 DT NNPS VBN 
-1.1658 DT NNPS VBP 
-2.3868 DT NNPS VBZ 
-2.0067 DT NNPS WP 
-0.7679 DT NNPS YPFAI 
-1.0689 DT NNPS YPFOR 
-1.2166 DT NNS CC 
-2.9941 DT NNS CD 
-2.6138 DT NNS DEB_PAR 
-2.8180 DT NNS DEB_QUO 
-1.8297 DT NNS DOUB_PT 
-1.9897 DT NNS DT 
-3.5024 DT NNS EX 
-2.8801 DT NNS FIN_PAR 
-1.9647 DT NNS FIN_QUO 
-0.4885 DT NNS IN 
-2.0910 DT NNS JJ 
-3.3085 DT NNS JJR 
-1.5741 DT NNS MD 
-1.8868 DT NNS NN 
-2.6323 DT NNS NNP 
-2.6718 DT NNS NNS 
-3.8000 DT NNS PDT 
-1.9222 DT NNS POS 
-1.6477 DT NNS PRP 
-3.6130 DT NNS PRP$ 
-1.5724 DT NNS RB 
-3.3085 DT NNS RBR 
-3.2329 DT NNS RBS 
-3.2672 DT NNS RP 
-3.0910 DT NNS SYM 
-1.6399 DT NNS TO 
-2.1190 DT NNS VB 
-1.0687 DT NNS VBD 
-1.9149 DT NNS VBG 
-1.6049 DT NNS VBN 
-1.1115 DT NNS VBP 
-1.9527 DT NNS VBZ 
-1.6974 DT NNS WDT 
-1.9149 DT NNS WP 
-3.0910 DT NNS WP$ 
-2.2617 DT NNS WRB 
-1.0447 DT NNS YPFAI 
-1.0729 DT NNS YPFOR 
-0.2831 DT PDT IN 
-0.0134 DT POS NNS 
-1.4769 DT PRP CC 
-2.0440 DT PRP IN 
-0.6698 DT PRP MD 
-1.7464 DT PRP RB 
-1.8569 DT PRP VB 
-0.4977 DT PRP VBD 
-0.6698 DT PRP VBP 
-1.0076 DT PRP VBZ 
-2.0440 DT PRP YPFAI 
-1.8569 DT PRP YPFOR 
-1.7295 DT PRP$ CD 
-0.8553 DT PRP$ JJ 
-0.2075 DT PRP$ NN 
-0.7126 DT PRP$ NNS 
-1.9165 DT PRP$ VBG 
-1.6140 DT RB CC 
-2.4091 DT RB CD 
-2.6786 DT RB DEB_QUO 
-2.7892 DT RB DOUB_PT 
-2.4847 DT RB DT 
-2.0241 DT RB FIN_QUO 
-1.9398 DT RB IN 
-0.2348 DT RB JJ 
-1.3010 DT RB JJR 
-2.4434 DT RB JJS 
-2.4434 DT RB MD 
-1.9661 DT RB NN 
-2.7892 DT RB NNP 
-2.4847 DT RB PRP 
-2.7892 DT RB PRP$ 
-1.3779 DT RB RB 
-1.5575 DT RB RBR 
-2.4091 DT RB TO 
-2.7892 DT RB VB 
-2.0911 DT RB VBD 
-1.5170 DT RB VBG 
-0.9007 DT RB VBN 
-2.4434 DT RB VBP 
-1.7389 DT RB VBZ 
-2.0563 DT RB YPFAI 
-2.0563 DT RB YPFOR 
-1.9662 DT RBR CC 
-2.0768 DT RBR DT 
-1.4165 DT RBR IN 
-0.1612 DT RBR JJ 
-1.9662 DT RBR NN 
-2.2638 DT RBR NNP 
-1.7724 DT RBR NNS 
-1.5036 DT RBR PRP 
-1.1569 DT RBR RB 
-2.2638 DT RBR TO 
-1.1569 DT RBR VBN 
-1.9662 DT RBR YPFOR 
-0.0412 DT RBS JJ 
-1.3107 DT RBS RB 
-2.2306 DT RBS VBG 
-1.7086 DT RBS VBN 
-0.5049 DT RP MD 
-1.4815 DT SYM CC 
-1.7791 DT SYM IN 
-1.5920 DT SYM JJ 
-0.3297 DT SYM NN 
-1.5920 DT SYM NNP 
-1.2876 DT SYM NNS 
-1.7791 DT SYM VBN 
-1.7791 DT SYM VBP 
-1.5920 DT SYM VBZ 
-1.4815 DT SYM YPFAI 
-0.6944 DT SYM YPFOR 
-0.6500 DT TO DT 
-1.6320 DT TO JJ 
-1.0992 DT TO NN 
-1.3344 DT TO NNP 
-0.7121 DT TO PRP 
-0.4281 DT TO VB 
-0.2831 DT UH NN 
-0.8893 DT VB DT 
-0.7924 DT VB IN 
-1.3007 DT VB JJ 
-1.5983 DT VB NNS 
-1.0312 DT VB PRP 
-1.0656 DT VB RB 
-1.0656 DT VB TO 
-0.8381 DT VB VBN 
-1.4113 DT VB YPFOR 
-2.1418 DT VBD CC 
-1.7860 DT VBD CD 
-2.6333 DT VBD DEB_QUO 
-2.4463 DT VBD DOUB_PT 
-0.6073 DT VBD DT 
-0.9885 DT VBD IN 
-1.2146 DT VBD JJ 
-2.4463 DT VBD JJR 
-1.4656 DT VBD NN 
-1.4124 DT VBD NNP 
-1.7482 DT VBD NNS 
-1.3802 DT VBD PRP 
-1.4849 DT VBD PRP$ 
-0.7667 DT VBD RB 
-2.6333 DT VBD RBR 
-2.3357 DT VBD RP 
-1.3960 DT VBD TO 
-2.4463 DT VBD VBD 
-1.8274 DT VBD VBG 
-1.0492 DT VBD VBN 
-2.4463 DT VBD WP 
-1.6812 DT VBD WRB 
-1.7134 DT VBD YPFAI 
-2.1005 DT VBD YPFOR 
-1.8812 DT VBG CC 
-2.0061 DT VBG CD 
-2.7042 DT VBG DEB_QUO 
-2.5936 DT VBG DOUB_PT 
-2.0853 DT VBG DT 
-2.5936 DT VBG FIN_QUO 
-1.1988 DT VBG IN 
-1.4518 DT VBG JJ 
-2.8912 DT VBG JJR 
-0.1994 DT VBG NN 
-1.7631 DT VBG NNP 
-0.7886 DT VBG NNS 
-2.8912 DT VBG PRP 
-2.0061 DT VBG RB 
-2.3241 DT VBG TO 
-2.8912 DT VBG VBD 
-2.3998 DT VBG VBN 
-2.7042 DT VBG VBZ 
-1.8300 DT VBG YPFAI 
-2.3998 DT VBG YPFOR 
-1.5882 DT VBN CC 
-2.1164 DT VBN CD 
-2.8255 DT VBN DEB_PAR 
-2.5279 DT VBN DEB_QUO 
-2.6384 DT VBN DOLLAR 
-2.6384 DT VBN DT 
-1.1683 DT VBN IN 
-1.2342 DT VBN JJ 
-0.2335 DT VBN NN 
-1.4755 DT VBN NNP 
-0.8860 DT VBN NNS 
-2.8255 DT VBN PRP$ 
-1.9781 DT VBN RB 
-2.5279 DT VBN SYM 
-1.9781 DT VBN TO 
-2.5279 DT VBN VBG 
-2.3340 DT VBN VBN 
-2.3340 DT VBN VBP 
-1.6046 DT VBN YPFAI 
-1.9404 DT VBN YPFOR 
-1.8663 DT VBP CC 
-0.8139 DT VBP DT 
-0.9430 DT VBP IN 
-0.9777 DT VBP JJ 
-1.6311 DT VBP NN 
-1.9768 DT VBP NNP 
-1.2788 DT VBP NNS 
-1.5968 DT VBP PRP 
-0.7452 DT VBP RB 
-2.1639 DT VBP RBR 
-1.3165 DT VBP TO 
-2.1639 DT VBP VB 
-1.6724 DT VBP VBG 
-0.8265 DT VBP VBN 
-1.8663 DT VBP WP 
-1.9768 DT VBP YPFAI 
-2.6555 DT VBZ CC 
-1.7814 DT VBZ CD 
-0.5342 DT VBZ DT 
-1.1793 DT VBZ IN 
-1.1072 DT VBZ JJ 
-2.3098 DT VBZ JJR 
-1.7579 DT VBZ NN 
-1.8605 DT VBZ NNP 
-2.6555 DT VBZ NNS 
-2.8426 DT VBZ PDT 
-1.6053 DT VBZ PRP 
-1.6749 DT VBZ PRP$ 
-0.7579 DT VBZ RB 
-2.5450 DT VBZ RBR 
-2.8426 DT VBZ RBS 
-2.8426 DT VBZ SYM 
-1.4238 DT VBZ TO 
-2.8426 DT VBZ VB 
-1.7144 DT VBZ VBG 
-1.2732 DT VBZ VBN 
-2.6555 DT VBZ WDT 
-1.4238 DT VBZ WP 
-1.3554 DT VBZ WRB 
-1.1558 DT VBZ YPFAI 
-2.5450 DT VBZ YPFOR 
-1.3349 DT WDT MD 
-1.5220 DT WDT NN 
-1.2243 DT WDT PRP 
-0.6021 DT WDT VBD 
-0.5399 DT WDT VBP 
-0.6368 DT WDT VBZ 
-1.2075 DT WP MD 
-1.6848 DT WP PRP 
-1.5085 DT WP RB 
-1.6505 DT WP VB 
-0.5855 DT WP VBD 
-0.2593 DT WP VBP 
-2.0305 DT WP VBZ 
-1.9200 DT WP YPFAI 
-0.5049 DT WP$ NN 
-0.3179 DT WP$ NNS 
-0.2831 DT WRB JJ 
-0.8269 DT YPFAI CC 
-2.0047 DT YPFAI CD 
-0.9343 DT YPFAI DT 
-0.8978 DT YPFAI IN 
-1.3478 DT YPFAI JJ 
-2.0047 DT YPFAI MD 
-1.5763 DT YPFAI NN 
-1.1988 DT YPFAI NNP 
-1.6488 DT YPFAI NNS 
-0.8151 DT YPFAI PRP 
-2.0047 DT YPFAI PRP$ 
-0.9420 DT YPFAI RB 
-2.3091 DT YPFAI RBR 
-1.9634 DT YPFAI TO 
-2.4962 DT YPFAI UH 
-1.9290 DT YPFAI VB 
-2.3091 DT YPFAI VBD 
-1.6488 DT YPFAI VBG 
-1.9290 DT YPFAI VBN 
-1.9634 DT YPFAI VBP 
-1.9634 DT YPFAI VBZ 
-2.0047 DT YPFAI WDT 
-2.4962 DT YPFAI WP 
-1.6488 DT YPFAI WRB 
-0.0011 DT YPFOR ZTRM 
-0.6511 EX DT JJ 
-0.3534 EX DT NN 
-0.2073 EX FIN_QUO YPFAI 
-0.7741 EX MD RB 
-2.1364 EX MD TO 
-0.1000 EX MD VB 
-1.9493 EX MD VBN 
-0.5841 EX NN JJ 
-0.5049 EX POS JJR 
-0.5049 EX POS NNP 
-0.2176 EX PRP VBD 
-0.7090 EX PRP VBZ 
-1.2039 EX RB MD 
-0.3979 EX RB VBD 
-1.0168 EX RB VBP 
-0.6368 EX RB VBZ 
-0.4193 EX VB DT 
-0.6545 EX VB JJ 
-0.7650 EX VB VBN 
-1.2107 EX VBD CD 
-2.7410 EX VBD DEB_QUO 
-2.7410 EX VBD DOUB_PT 
-0.3417 EX VBD DT 
-1.9808 EX VBD IN 
-1.0005 EX VBD JJ 
-1.9808 EX VBD JJR 
-0.9808 EX VBD NN 
-2.0319 EX VBD NNP 
-1.4299 EX VBD NNS 
-0.8936 EX VBD RB 
-1.9350 EX VBD TO 
-2.5539 EX VBD VBG 
-1.3329 EX VBD VBN 
-1.8558 EX VBD YPFAI 
-0.3179 EX VBG IN 
-0.9696 EX VBP CD 
-0.7936 EX VBP DT 
-1.3676 EX VBP IN 
-0.6741 EX VBP JJ 
-1.8862 EX VBP JJR 
-1.8862 EX VBP NN 
-2.3777 EX VBP NNP 
-0.8557 EX VBP NNS 
-0.7329 EX VBP RB 
-2.0800 EX VBP RBR 
-2.3777 EX VBP SYM 
-2.1906 EX VBP TO 
-2.3777 EX VBP VBG 
-1.2495 EX VBP VBN 
-1.6175 EX VBP YPFAI 
-2.6699 EX VBZ CC 
-1.8225 EX VBZ CD 
-0.3125 EX VBZ DT 
-2.1784 EX VBZ IN 
-1.1396 EX VBZ JJ 
-1.8639 EX VBZ JJR 
-0.9049 EX VBZ NN 
-2.1784 EX VBZ NNP 
-2.4828 EX VBZ PRP$ 
-0.7304 EX VBZ RB 
-1.6878 EX VBZ TO 
-1.4837 EX VBZ VBN 
-1.7847 EX VBZ YPFAI 
-0.4626 EX YPFAI VBG 
-1.1663 FIN_PAR CC CD 
-1.2913 FIN_PAR CC DEB_PAR 
-2.0515 FIN_PAR CC DEB_QUO 
-0.6657 FIN_PAR CC DT 
-1.1663 FIN_PAR CC IN 
-1.2913 FIN_PAR CC JJ 
-2.0515 FIN_PAR CC MD 
-1.1316 FIN_PAR CC NN 
-0.9445 FIN_PAR CC NNP 
-2.0515 FIN_PAR CC NNS 
-1.5187 FIN_PAR CC PRP 
-1.5187 FIN_PAR CC PRP$ 
-1.3424 FIN_PAR CC RB 
-1.8644 FIN_PAR CC TO 
-1.7538 FIN_PAR CC VB 
-1.3424 FIN_PAR CC VBD 
-1.7538 FIN_PAR CC VBG 
-1.8644 FIN_PAR CC VBN 
-1.5600 FIN_PAR CC VBP 
-1.8644 FIN_PAR CC VBZ 
-1.8644 FIN_PAR CC YPFAI 
-1.3500 FIN_PAR CD CD 
-0.2016 FIN_PAR CD DOUB_PT 
-1.3500 FIN_PAR CD NN 
-1.3500 FIN_PAR CD NNS 
-1.3500 FIN_PAR CD SYM 
-1.1630 FIN_PAR CD YPFOR 
-0.0458 FIN_PAR DEB_PAR CD 
-0.9521 FIN_PAR DEB_QUO DT 
-0.9521 FIN_PAR DEB_QUO IN 
-0.9521 FIN_PAR DEB_QUO UH 
-0.9521 FIN_PAR DEB_QUO VBG 
-1.4768 FIN_PAR DOUB_PT CD 
-1.7744 FIN_PAR DOUB_PT DEB_QUO 
-0.2872 FIN_PAR DOUB_PT DOUB_PT 
-0.8545 FIN_PAR DOUB_PT DT 
-1.4768 FIN_PAR DOUB_PT JJ 
-1.5874 FIN_PAR DOUB_PT NN 
-0.9685 FIN_PAR DOUB_PT NNP 
-1.7744 FIN_PAR DOUB_PT NNS 
-1.7744 FIN_PAR DOUB_PT RB 
-0.6458 FIN_PAR DT JJ 
-0.3193 FIN_PAR DT NN 
-1.0182 FIN_PAR DT NNP 
-0.9883 FIN_PAR DT NNS 
-1.9703 FIN_PAR DT RB 
-1.9703 FIN_PAR DT VBG 
-1.9703 FIN_PAR DT VBN 
-1.9703 FIN_PAR DT VBZ 
-0.7602 FIN_PAR EX MD 
-0.7602 FIN_PAR EX VBD 
-0.5731 FIN_PAR EX VBP 
-0.7602 FIN_PAR EX VBZ 
-0.7950 FIN_PAR FIN_PAR CC 
-0.7950 FIN_PAR FIN_PAR IN 
-0.4906 FIN_PAR FIN_PAR YPFAI 
-0.7650 FIN_PAR FIN_QUO DT 
-0.9521 FIN_PAR FIN_QUO FIN_PAR 
-0.9521 FIN_PAR FIN_QUO IN 
-0.6545 FIN_PAR FIN_QUO YPFOR 
-1.1051 FIN_PAR IN CD 
-0.3877 FIN_PAR IN DT 
-1.7057 FIN_PAR IN IN 
-1.2116 FIN_PAR IN JJ 
-0.8041 FIN_PAR IN NN 
-1.1244 FIN_PAR IN NNP 
-1.7057 FIN_PAR IN NNS 
-1.2116 FIN_PAR IN PRP 
-1.9752 FIN_PAR IN PRP$ 
-2.0858 FIN_PAR IN RB 
-2.0858 FIN_PAR IN SYM 
-1.7400 FIN_PAR IN VBG 
-1.9752 FIN_PAR IN VBN 
-2.0858 FIN_PAR IN WDT 
-1.2624 FIN_PAR JJ IN 
-1.1518 FIN_PAR JJ JJ 
-0.4674 FIN_PAR JJ NN 
-0.3647 FIN_PAR JJ NNS 
-0.1762 FIN_PAR JJR NN 
-0.2831 FIN_PAR JJS IN 
-0.0212 FIN_PAR LS YPFOR 
-0.8046 FIN_PAR MD RB 
-0.1001 FIN_PAR MD VB 
-1.1980 FIN_PAR NN CC 
-1.6606 FIN_PAR NN DEB_PAR 
-1.9582 FIN_PAR NN DOUB_PT 
-0.5841 FIN_PAR NN IN 
-1.9582 FIN_PAR NN JJ 
-1.6606 FIN_PAR NN MD 
-1.0062 FIN_PAR NN NN 
-1.7712 FIN_PAR NN NNP 
-1.0731 FIN_PAR NN NNS 
-1.9582 FIN_PAR NN RB 
-1.6606 FIN_PAR NN TO 
-1.4254 FIN_PAR NN VBD 
-1.9582 FIN_PAR NN VBG 
-1.4254 FIN_PAR NN VBZ 
-0.8301 FIN_PAR NN YPFAI 
-1.1523 FIN_PAR NN YPFOR 
-1.4702 FIN_PAR NNP CC 
-0.8099 FIN_PAR NNP IN 
-0.7051 FIN_PAR NNP NNP 
-1.4702 FIN_PAR NNP POS 
-1.6572 FIN_PAR NNP RB 
-0.8970 FIN_PAR NNP VBD 
-1.1657 FIN_PAR NNP VBZ 
-0.6471 FIN_PAR NNP YPFAI 
-1.4702 FIN_PAR NNP YPFOR 
-1.1778 FIN_PAR NNS CC 
-1.4822 FIN_PAR NNS DEB_PAR 
-1.3717 FIN_PAR NNS DOUB_PT 
-1.6693 FIN_PAR NNS DT 
-1.6693 FIN_PAR NNS FIN_QUO 
-0.5846 FIN_PAR NNS IN 
-1.6693 FIN_PAR NNS JJ 
-1.3717 FIN_PAR NNS VBD 
-1.6693 FIN_PAR NNS VBG 
-1.6693 FIN_PAR NNS VBN 
-1.3717 FIN_PAR NNS VBP 
-1.4822 FIN_PAR NNS VBZ 
-1.6693 FIN_PAR NNS WP 
-0.7172 FIN_PAR NNS YPFAI 
-1.4822 FIN_PAR NNS YPFOR 
-0.6892 FIN_PAR PRP MD 
-1.4494 FIN_PAR PRP RB 
-0.5295 FIN_PAR PRP VBD 
-0.9579 FIN_PAR PRP VBP 
-0.5295 FIN_PAR PRP VBZ 
-0.2176 FIN_PAR PRP$ NN 
-1.0994 FIN_PAR RB DOUB_PT 
-1.2100 FIN_PAR RB IN 
-1.3970 FIN_PAR RB JJ 
-1.0994 FIN_PAR RB PRP 
-0.9055 FIN_PAR RB RB 
-1.3970 FIN_PAR RB TO 
-1.3970 FIN_PAR RB VB 
-0.9055 FIN_PAR RB VBD 
-1.2100 FIN_PAR RB VBN 
-1.2100 FIN_PAR RB VBZ 
-0.1070 FIN_PAR RBR JJ 
