
\data\
ngram 1=100
ngram 2=4366
ngram 3=30680

\1-grams:
-1.41208	</s>
-99	<s>	-4.725673
-1.320255	ADV	-1.566141
-2.288927	ADVNE	-1.83314
-2.276398	ADVPAS	-0.9300469
-2.241606	AFP	-0.7683648
-1.838909	AFS	-1.143844
-3.340889	AINDFP	-1.11704
-3.917487	AINDFS	-1.001054
-2.924541	AINDMP	-0.7994719
-3.278443	AINDMS	-1.586787
-2.099114	AMP	-0.9694378
-1.695971	AMS	-1.345747
-1.603455	CHIF	-1.564433
-1.655457	COCO	-1.217753
-1.808377	COSUB	-1.105766
-2.106321	DETFP	-2.438026
-1.352026	DETFS	-2.193168
-1.89807	DETMP	-2.396907
-1.38882	DETMS	-2.009344
-4.465191	DINTFP	-0.8677741
-4.011392	DINTFS	-0.8646994
-4.432398	DINTMP	-1.021767
-3.952652	DINTMS	-1.169769
-2.209491	MOTINC	-0.8132249
-1.765776	NFP	-1.244918
-1.294346	NFS	-1.589355
-1.597456	NMP	-1.372956
-1.227049	NMS	-1.660297
-4.28627	PDEMFP	-0.6869933
-2.960305	PDEMFS	-1.326924
-3.496066	PDEMMP	-1.016686
-2.593662	PDEMMS	-1.193445
-4.155726	PINDFP	-0.4200688
-3.719441	PINDFS	-0.699981
-3.781824	PINDMP	-0.615243
-2.647455	PINDMS	-0.7407997
-5.026638	PINTFP	-0.6905927
-4.340252	PINTFS	-0.7866334
-5.69567	PINTMP	-0.4660072
-2.991201	PINTMS	-0.9067094
-2.747062	PPER1P	-1.302746
-2.430191	PPER1S	-1.792942
-2.653588	PPER2P	-1.23501
-4.039221	PPER2S	-0.9368643
-3.468609	PPER3FP	-0.925335
-2.89059	PPER3FS	-1.268152
-2.789123	PPER3MP	-1.391985
-1.749055	PPER3MS	-1.718681
-3.77656	PPOBJFP	-1.08641
-3.020471	PPOBJFS	-0.71013
-2.462219	PPOBJMP	-0.9818394
-2.327971	PPOBJMS	-1.537829
-5.871777	PREFFP	-0.2899159
-3.165438	PREFFS	-2.02846
-2.940017	PREFMP	-1.775204
-2.375215	PREFMS	-2.106226
-3.183754	PRELFP	-1.005807
-2.550131	PRELFS	-1.345972
-2.653719	PRELMP	-1.124285
-2.41294	PRELMS	-1.224479
-1.363732	PREP	-1.627358
-1.241632	PREPADE	-1.820373
-2.354929	PREPAU	-1.710224
-2.756951	PREPAUX	-1.653565
-2.019493	PREPDES	-1.966258
-2.076475	PREPDU	-2.054254
-2.968097	V1P	-0.5138487
-2.570374	V1S	-0.822113
-2.758454	V2P	-0.5287192
-4.291947	V2S	-0.3867523
-2.220306	V3P	-0.841207
-1.702275	V3S	-1.378545
-3.423796	VA1P	-0.849056
-3.147453	VA1S	-0.9600642
-3.489712	VA2P	-0.7256933
-4.641283	VA2S	-0.4253798
-2.457006	VA3P	-1.401758
-1.960492	VA3S	-1.233471
-3.247963	VAINF	-1.619848
-3.595268	VE1P	-0.6126119
-3.412337	VE1S	-0.7439997
-3.528321	VE2P	-0.7332838
-4.500663	VE2S	-0.6867683
-2.479736	VE3P	-1.334181
-1.846792	VE3S	-1.302907
-2.981588	VEINF	-0.8023422
-1.760971	VINF	-1.176471
-2.765198	VPPFP	-0.9405009
-2.490163	VPPFS	-0.9750456
-2.498909	VPPMP	-1.057346
-1.783256	VPPMS	-1.205234
-2.707227	VPPRE	-0.7308033
-1.804677	XLOC	-1.129094
-1.803283	XORG	-1.225148
-1.629896	XPERS	-1.368081
-2.980192	XPROD	-0.4626043
-1.21206	YPFAI	-1.607347
-1.48385	YPFOR	-2.351569
-1.111028	ZTRM	-1.061789

\2-grams:
-7.535452e-06	<s> ZTRM	-2.473935
-1.006179	ADV ADV	0.5676725
-2.627701	ADV ADVNE	-0.008592188
-2.129555	ADV ADVPAS	0.2493457
-1.947214	ADV AFP	0.06006479
-1.694045	ADV AFS	0.1172256
-3.190253	ADV AINDFP	0.04665196
-3.597738	ADV AINDFS	-0.01664168
-2.933932	ADV AINDMP	0.006491125
-2.995678	ADV AINDMS	0.0144223
-1.904109	ADV AMP	-0.03533733
-1.327577	ADV AMS	0.06820643
-1.804957	ADV CHIF	-0.1196004
-1.801472	ADV COCO	-0.03331053
-1.5049	ADV COSUB	0.269783
-2.033466	ADV DETFP	0.2597399
-1.326154	ADV DETFS	0.3131235
-1.826477	ADV DETMP	0.237941
-1.316831	ADV DETMS	0.3652923
-3.94992	ADV DINTFP	-0.08922315
-3.64889	ADV DINTFS	0.2985383
-4.074859	ADV DINTMP	0.2145495
-3.491282	ADV DINTMS	0.2815079
-2.541256	ADV MOTINC	-0.001795113
-3.15404	ADV NFP	-0.07394508
-2.224621	ADV NFS	-0.03377312
-2.835977	ADV NMP	0.0002487302
-1.721071	ADV NMS	0.1543274
-3.94992	ADV PDEMFP	-0.311165
-2.571977	ADV PDEMFS	-0.3427162
-3.180912	ADV PDEMMP	0.2572665
-2.320256	ADV PDEMMS	0.475848
-4.074859	ADV PINDFP	-0.102873
-3.676919	ADV PINDFS	-0.528187
-3.898768	ADV PINDMP	-0.1213179
-2.571977	ADV PINDMS	-0.1601319
-2.90362	ADV PINTMS	0.06017172
-2.504705	ADV PPER1P	0.2353492
-2.05922	ADV PPER1S	0.289189
-2.549814	ADV PPER2P	0.029199
-4.25095	ADV PPER2S	0.02273685
-3.361649	ADV PPER3FP	0.07831126
-2.908528	ADV PPER3FS	-0.05729532
-2.662679	ADV PPER3MP	0.1483847
-1.490339	ADV PPER3MS	-0.2469677
-4.85301	ADV PPOBJFP
-3.180912	ADV PPOBJFS	-0.4603887
-2.627701	ADV PPOBJMP	-0.4816626
-2.496984	ADV PPOBJMS	-0.5703591
-2.246629	ADV PREFMS	0.6279079
-3.082158	ADV PRELFS	0.08718151
-2.630294	ADV PRELMP	0.1472771
-2.483794	ADV PRELMS	-0.04568762
-1.106532	ADV PREP	0.3411752
-1.112964	ADV PREPADE	0.5564851
-2.14886	ADV PREPAU	0.2897656
-2.508618	ADV PREPAUX	0.4835125
-1.965393	ADV PREPDES	0.4292924
-2.315191	ADV PREPDU	0.765101
-3.15404	ADV V1P	0.008789957
-4.074859	ADV V1S
-2.939197	ADV V2P	-0.035851
-2.622561	ADV V3P	0.142639
-2.316452	ADV V3S	-0.005154431
-2.989687	ADV VA3P	0.0922035
-1.585839	ADV VA3S	-0.4033984
-2.995678	ADV VAINF	0.3412226
-4.85301	ADV VE2P
-4.85301	ADV VE2S
-2.939197	ADV VE3P	0.03219867
-2.528728	ADV VE3S	-0.1522487
-3.007912	ADV VEINF	0.242449
-1.727529	ADV VINF	0.2150205
-2.405852	ADV VPPFP	-0.2934839
-2.050237	ADV VPPFS	-0.002659917
-2.095614	ADV VPPMP	-0.04249918
-1.41924	ADV VPPMS	0.217833
-3.25095	ADV VPPRE	0.08021516
-2.939197	ADV XLOC	0.1835393
-2.597738	ADV XORG	-0.002206922
-1.987314	ADV XPERS	0.1741754
-3.334496	ADV XPROD	-0.07823288
-0.8875264	ADV YPFAI	0.6410284
-1.286219	ADV YPFOR	-1.443483
-2.392112	ADV ZTRM	-1.835718
-1.335097	ADVNE ADV	-0.9595152
-2.524819	ADVNE ADVNE	-0.2268558
-3.041449	ADVNE ADVPAS	-0.3568317
-3.886547	ADVNE COSUB
-3.886547	ADVNE DETFS
-3.108396	ADVNE MOTINC	-0.4117353
-3.886547	ADVNE NFS
-3.886547	ADVNE NMP
-3.041449	ADVNE NMS	-0.8386452
-3.886547	ADVNE PDEMMS
-3.409426	ADVNE PINDMS	-0.5944778
-3.886547	ADVNE PPER1P
-3.886547	ADVNE PPER1S
-3.108396	ADVNE PPER2P	-0.02772045
-3.886547	ADVNE PPER3FS
-3.284487	ADVNE PPER3MS	-0.1455558
-2.740419	ADVNE PPOBJFS	-0.6177086
-1.638574	ADVNE PPOBJMP	-0.9108277
-1.440943	ADVNE PPOBJMS	-0.3414904
-2.807366	ADVNE PREFFS	-0.3295488
-1.631275	ADVNE PREFMP	-0.02486181
-1.886547	ADVNE PREFMS	-1.039344
-3.886547	ADVNE PRELMP
-3.886547	ADVNE PREPADE
-1.947028	ADVNE V1P	-0.8175139
-1.526712	ADVNE V1S	-0.7034131
-2.047698	ADVNE V2P	-1.094703
-3.284487	ADVNE V2S	-0.2732996
-1.150151	ADVNE V3P	-0.5462673
-0.643261	ADVNE V3S	-0.6224031
-2.123119	ADVNE VA1P	-0.5343251
-1.869514	ADVNE VA1S	-0.6106545
-2.342479	ADVNE VA2P	-0.794548
-3.409426	ADVNE VA2S	-0.1804561
-1.240143	ADVNE VA3P	-0.519917
-0.8571634	ADVNE VA3S	-0.6112306
-2.807366	ADVNE VAINF	-0.1912668
-2.488607	ADVNE VE1P	-0.9175197
-2.087207	ADVNE VE1S	-0.5364846
-2.710456	ADVNE VE2P	-0.7363682
-1.330245	ADVNE VE3P	-0.9370893
-0.7345647	ADVNE VE3S	-0.6930621
-2.886547	ADVNE VEINF	-0.2689002
-2.564328	ADVNE VINF	-0.4370452
-3.886547	ADVNE VPPFS
-3.585517	ADVNE VPPMS
-2.130672	ADVNE VPPRE	-0.4498906
-1.967469	ADVNE YPFAI	-0.3893933
-3.585517	ADVNE YPFOR	1.646304
-0.7586297	ADVPAS ADV	-0.1708889
-3.121614	ADVPAS ADVNE	0.001299024
-3.121614	ADVPAS ADVPAS	-0.09367043
-2.598736	ADVPAS AFP	-0.2135011
-2.308701	ADVPAS AFS	-0.1549932
-2.899766	ADVPAS AINDFP	0.2877786
-2.621012	ADVPAS AINDMP	0.04318622
-3.598736	ADVPAS AINDMS	0.1685193
-2.167372	ADVPAS AMP	-0.3884647
-1.353223	ADVPAS AMS	-0.410441
-2.785822	ADVPAS CHIF	0.05190855
-2.368287	ADVPAS COCO	0.01218238
-1.350762	ADVPAS COSUB	0.09202653
-2.121614	ADVPAS DETFP	0.2189882
-1.274453	ADVPAS DETFS	0.1941085
-1.795962	ADVPAS DETMP	0.1152344
-1.299883	ADVPAS DETMS	-0.1876523
-2.468402	ADVPAS MOTINC	-0.188211
-3.598736	ADVPAS NFP
-1.842861	ADVPAS NFS	0.008239865
-3.054668	ADVPAS NMP	-0.05809181
-1.960247	ADVPAS NMS	-0.4131961
-2.331564	ADVPAS PDEMFS	0.2512222
-3.899766	ADVPAS PDEMMP
-2.858373	ADVPAS PDEMMS	-0.3667296
-3.899766	ADVPAS PINDFP
-2.408404	ADVPAS PINDMS	-0.3433983
-2.899766	ADVPAS PINTMS	-0.06323944
-3.121614	ADVPAS PPER1S	-0.1212844
-3.422645	ADVPAS PPER2P
-3.297706	ADVPAS PPER3MP	-0.09924781
-2.621012	ADVPAS PPER3MS	0.1018516
-2.785822	ADVPAS PPOBJFS	-0.1782051
-2.100425	ADVPAS PPOBJMP	-0.2267018
-2.042433	ADVPAS PPOBJMS	-1.245162
-1.991281	ADVPAS PREFFS	-1.54926
-2.753638	ADVPAS PREFMS	-0.3150079
-2.538038	ADVPAS PRELMS	-0.3402685
-1.386548	ADVPAS PREP	0.3227355
-0.9891414	ADVPAS PREPADE	0.4348016
-2.452608	ADVPAS PREPAU	-0.1417742
-2.820585	ADVPAS PREPAUX	-0.02963239
-2.422645	ADVPAS PREPDES	0.443133
-2.394616	ADVPAS PREPDU	0.05165336
-3.899766	ADVPAS V1P
-3.297706	ADVPAS V3S	-0.2545697
-3.899766	ADVPAS VA3S
-2.368287	ADVPAS VAINF	0.0734657
-3.899766	ADVPAS VE3P
-3.598736	ADVPAS VE3S
-2.048507	ADVPAS VEINF	0.1072826
-1.090206	ADVPAS VINF	0.23365
-2.200796	ADVPAS VPPFP	-0.03152281
-1.926638	ADVPAS VPPFS	-0.1000484
-1.904131	ADVPAS VPPMP	0.1984826
-0.869571	ADVPAS VPPMS	0.09181845
-3.422645	ADVPAS VPPRE
-3.121614	ADVPAS XLOC	0.08159928
-3.121614	ADVPAS XORG	-0.09008105
-2.484792	ADVPAS XPERS	0.1618387
-1.405611	ADVPAS YPFAI	-0.1322174
-1.466797	ADVPAS YPFOR	-0.3111434
-2.899766	ADVPAS ZTRM	-0.7407502
-1.550885	AFP ADV	-0.1313094
-2.253459	AFP ADVNE	-0.3576458
-3.9347	AFP ADVPAS
-1.457579	AFP AFP	0.2763196
-3.23573	AFP AFS	-0.07571992
-3.9347	AFP AINDFS
-3.9347	AFP AINDMP
-3.33264	AFP AMP
-3.089602	AFP AMS	-0.1636019
-3.33264	AFP CHIF	0.1091374
-1.099644	AFP COCO	-0.1239064
-1.701704	AFP COSUB	0.1820877
-2.416187	AFP DETFP	-0.1587528
-2.005281	AFP DETFS	0.2173328
-2.758609	AFP DETMP	0.06984186
-2.390632	AFP DETMS	0.3062888
-3.9347	AFP DINTFP
-3.9347	AFP DINTMP
-2.788572	AFP MOTINC	-0.1807339
-0.6996772	AFP NFP	0.2127281
-2.788572	AFP NFS	-0.2049265
-3.089602	AFP NMP	-0.05809181
-2.893308	AFP NMS	-0.1511349
-3.63367	AFP PDEMFP
-3.63367	AFP PDEMFS
-3.63367	AFP PDEMMS
-3.33264	AFP PINDMS	-0.09765847
-3.457579	AFP PINTMS
-3.156549	AFP PPER1P	-0.05499023
-3.23573	AFP PPER1S	0.08035177
-3.9347	AFP PPER2P
-3.457579	AFP PPER3FP
-3.9347	AFP PPER3FS
-3.9347	AFP PPER3MP
-2.311451	AFP PPER3MS	0.2303271
-3.9347	AFP PPOBJFS
-3.089602	AFP PPOBJMP	-0.3182738
-3.457579	AFP PPOBJMS	-0.2180071
-3.9347	AFP PREFMP
-2.026215	AFP PREFMS	-0.7825155
-1.741576	AFP PRELFP	-0.00288713
-3.23573	AFP PRELFS	-0.06322785
-2.758609	AFP PRELMP	-0.8739722
-2.893308	AFP PRELMS	-0.1676215
-1.108626	AFP PREP	0.01358187
-1.175789	AFP PREPADE	0.2179779
-2.065469	AFP PREPAU	-0.1067153
-2.253459	AFP PREPAUX	0.01381499
-1.921863	AFP PREPDES	0.06761706
-1.975659	AFP PREPDU	0.2288909
-3.9347	AFP V1P
-3.63367	AFP V2P	-0.4412143
-1.677022	AFP V3P	-0.02327079
-2.271943	AFP V3S	0.09115624
-1.706814	AFP VA3P	-0.2179892
-2.472302	AFP VA3S	-0.306252
-1.893308	AFP VE3P	-0.07269818
-2.457579	AFP VE3S	-0.1954693
-3.156549	AFP VINF	-0.1913932
-1.956977	AFP VPPFP	-0.1073384
-3.23573	AFP VPPFS	0.08310759
-2.679428	AFP VPPMP	-0.09888992
-3.089602	AFP VPPMS	-0.4027414
-2.378398	AFP VPPRE	0.06773624
-3.33264	AFP XLOC	-0.524785
-2.980458	AFP XORG	-0.05058015
-2.301232	AFP XPERS	-0.5272571
-3.9347	AFP XPROD
-0.7913733	AFP YPFAI	0.3137349
-0.9244004	AFP YPFOR	-0.8872983
-2.855519	AFP ZTRM	-0.8133008
-1.573329	AFS ADV	-0.09900498
-2.256076	AFS ADVNE	-0.3774545
-4.335257	AFS ADVPAS
-3.293864	AFS AFP	-0.08736899
-1.524353	AFS AFS	0.3299394
-4.335257	AFS AINDFP
-4.335257	AFS AINDMP
-4.034227	AFS AINDMS
-3.858136	AFS AMP
-3.490159	AFS AMS	-0.1130129
-2.610981	AFS CHIF	0.306402
-1.333091	AFS COCO	-0.06845689
-1.807627	AFS COSUB	0.2212041
-3.034227	AFS DETFP	0.3597611
-2.006878	AFS DETFS	0.375894
-2.767056	AFS DETMP	0.3985409
-2.027761	AFS DETMS	0.07545567
-2.416179	AFS MOTINC	-0.0359599
-3.733197	AFS NFP
-0.6334303	AFS NFS	0.2188085
-4.034227	AFS NMP
-2.858136	AFS NMS	-0.1020299
-3.381015	AFS PDEMFS	-0.09883824
-3.557106	AFS PDEMMS
-4.034227	AFS PINDFS
-3.733197	AFS PINDMS	-0.4107685
-4.335257	AFS PINTMS
-3.490159	AFS PPER1P	0.1211011
-3.159166	AFS PPER1S	-0.1410755
-3.858136	AFS PPER2P
-4.335257	AFS PPER3FP
-3.189129	AFS PPER3FS	0.1980161
-3.733197	AFS PPER3MP	0.02555947
-2.352986	AFS PPER3MS	0.06169069
-2.903893	AFS PPOBJMP	-0.3494534
-3.034227	AFS PPOBJMS	-0.04942176
-3.293864	AFS PREFMP	-0.3268053
-2.147737	AFS PREFMS	-0.7821188
-3.381015	AFS PRELFP	-0.7729707
-1.74308	AFS PRELFS	0.2137785
-3.381015	AFS PRELMP	-0.5810357
-3.335257	AFS PRELMS	-0.3960149
-1.130324	AFS PREP	0.1093519
-1.069732	AFS PREPADE	-0.01630402
-2.010975	AFS PREPAU	-0.01297545
-2.619254	AFS PREPAUX	0.1788039
-1.694776	AFS PREPDES	-0.07851303
-1.655829	AFS PREPDU	-0.05671251
-4.034227	AFS V1P
-4.335257	AFS V1S
-4.335257	AFS V2P
-4.335257	AFS V2S
-2.645061	AFS V3P	-0.1498123
-1.708917	AFS V3S	-0.1669676
-2.654016	AFS VA3P	-0.3008169
-1.774156	AFS VA3S	-0.3595363
-2.973529	AFS VE3P	0.1202289
-1.988904	AFS VE3S	-0.3685253
-3.221314	AFS VINF	-0.1793905
-3.733197	AFS VPPFP	-0.2537143
-1.969769	AFS VPPFS	-0.003744781
-3.557106	AFS VPPMP
-3.056504	AFS VPPMS	-0.1758687
-2.602864	AFS VPPRE	0.1867261
-2.992835	AFS XLOC	-0.1982563
-2.252472	AFS XORG	-0.03357869
-2.02139	AFS XPERS	-0.1623108
-3.557106	AFS XPROD	-0.0841709
-0.7871136	AFS YPFAI	0.3443013
-0.9614261	AFS YPFOR	-1.250589
-2.672499	AFS ZTRM	-1.371455
-1.846337	AINDFP ADV	-0.1227689
-1.414973	AINDFP AFP	-0.3757562
-2.369216	AINDFP AINDFP	0.3169923
-2.846337	AINDFP AINDMP
-1.804944	AINDFP CHIF	-0.09340385
-2.846337	AINDFP COSUB
-0.8778542	AINDFP DETFP	-0.2467995
-2.846337	AINDFP DETFS
-2.846337	AINDFP DETMP
-2.545307	AINDFP MOTINC
-0.1482366	AINDFP NFP	-0.009077013
-2.545307	AINDFP NFS
-2.147367	AINDFP NMP	-0.1835531
-2.846337	AINDFP NMS
-2.846337	AINDFP PDEMFP
-2.846337	AINDFP PINDMP
-2.369216	AINDFP PREP
-2.545307	AINDFP PREPADE
-2.846337	AINDFP VE3P
-2.846337	AINDFP VINF
-2.147367	AINDFP VPPFP	0.07079679
-2.846337	AINDFP XORG
-2.147367	AINDFP YPFAI	-0.09434227
-2.846337	AINDFP YPFOR
-1.681241	AINDFS AFS	-0.1860639
-2.283301	AINDFS COSUB
-0.9822713	AINDFS DETFS	0.05740303
-2.283301	AINDFS NFP
-0.1561964	AINDFS NFS	0.2768617
-2.283301	AINDFS PDEMFS
-2.283301	AINDFS PPER1S
-1.982271	AINDFS PREP	-0.4542061
-2.283301	AINDFS V3S
-1.329059	AINDFS XLOC	0.002567269
-1.982271	AINDFS XPROD
-1.982271	AINDFS YPFAI
-2.283301	AINDFS YPFOR
-1.767515	AINDMP ADV	0.09048131
-2.144933	AINDMP ADVNE	-0.292552
-2.304634	AINDMP AINDMP	-0.3345755
-1.459536	AINDMP AMP	0.1168869
-3.258877	AINDMP AMS
-1.714809	AINDMP CHIF	0.1750954
-1.827513	AINDMP COCO	-0.2458615
-2.258877	AINDMP COSUB	-0.006842881
-2.480725	AINDMP DETFP	0.614013
-2.112749	AINDMP DETFS	0.1537611
-1.155073	AINDMP DETMP	-0.4007972
-2.304634	AINDMP DETMS	0.02092928
-2.144933	AINDMP MOTINC	-0.07692368
-2.559907	AINDMP NFP
-3.258877	AINDMP NFS
-0.269872	AINDMP NMP	0.2023191
-2.179695	AINDMP NMS	-0.007490724
-1.503002	AINDMP PDEMMP	-0.0724569
-3.258877	AINDMP PPER3MP
-2.957847	AINDMP PPOBJMP
-2.656817	AINDMP PPOBJMS	-0.4516512
-2.217484	AINDMP PREFMP	0.1289529
-3.258877	AINDMP PREFMS
-3.258877	AINDMP PRELMP
-1.796479	AINDMP PREP	-0.1199416
-2.003604	AINDMP PREPADE	-0.2422579
-3.258877	AINDMP PREPAU
-2.957847	AINDMP PREPAUX
-2.957847	AINDMP PREPDES	-0.2830215
-2.957847	AINDMP V2S
-1.679093	AINDMP V3P	-0.09740633
-2.656817	AINDMP V3S	-0.2545697
-1.936657	AINDMP VA3P	0.0267508
-2.304634	AINDMP VE3P	-0.1039814
-2.656817	AINDMP VINF
-3.258877	AINDMP VPPFS
-1.827513	AINDMP VPPMP	0.1014131
-1.897149	AINDMP VPPMS	-0.1456813
-2.957847	AINDMP XLOC
-3.258877	AINDMP XORG
-3.258877	AINDMP XPERS
-3.258877	AINDMP XPROD
-1.480725	AINDMP YPFAI	0.05481616
-1.285749	AINDMP YPFOR	0.1457019
-2.957847	AINDMP ZTRM	-0.1764788
-2.900913	AINDMS ADV
-2.201943	AINDMS AINDMS	0.2776638
-2.423792	AINDMS AMP	-0.5046213
-1.453755	AINDMS AMS	-0.07582706
-1.724822	AINDMS CHIF	0.1243456
-2.900913	AINDMS COCO
-1.754785	AINDMS DETMS	0.05176753
-2.599883	AINDMS MOTINC
-2.599883	AINDMS NFS
-0.1113324	AINDMS NMS	-0.1705585
-0.9613938	AINDMS PREPADE	-1.942071
-2.201943	AINDMS XLOC
-2.298853	AINDMS XORG
-1.545967	AMP ADV	-0.1473212
-2.146748	AMP ADVNE	-0.3314199
-3.775137	AMP ADVPAS
-3.775137	AMP AFS
-3.775137	AMP AINDFP
-4.076167	AMP AINDFS
-3.377197	AMP AINDMP	0.2254529
-1.523499	AMP AMP	0.3034782
-3.599046	AMP AMS	-0.2137077
-2.753948	AMP CHIF	0.05451873
-1.189113	AMP COCO	-0.1677954
-1.73771	AMP COSUB	-0.04852676
-2.820894	AMP DETFP	0.454929
-2.167682	AMP DETFS	-0.02612782
-2.360164	AMP DETMP	0.1904002
-2.243658	AMP DETMS	-0.09225667
-2.263254	AMP MOTINC	0.05209959
-2.962224	AMP NFP	0.07328922
-3.173077	AMP NFS	-0.02653844
-0.6968614	AMP NMP	0.2786837
-2.661194	AMP NMS	-0.06364569
-4.076167	AMP PDEMFP
-3.474107	AMP PDEMFS	0.06616408
-3.231069	AMP PDEMMP	-0.08651674
-3.231069	AMP PDEMMS	-0.1194844
-3.377197	AMP PINDMS
-3.775137	AMP PINTMS	-0.4675698
-3.377197	AMP PPER1P	-0.1516001
-3.121924	AMP PPER1S	0.01562643
-3.599046	AMP PPER3FS
-3.231069	AMP PPER3MP	-0.04145168
-2.532099	AMP PPER3MS	0.5169614
-3.775137	AMP PPOBJFS	-0.446098
-2.532099	AMP PPOBJMP	-0.3903098
-2.797413	AMP PPOBJMS	-0.3659132
-2.557653	AMP PREFMP	-1.411126
-2.237318	AMP PREFMS	-0.4399967
-3.599046	AMP PRELFS	-0.6013435
-1.604875	AMP PRELMP	0.2253155
-2.930039	AMP PRELMS	0.06904102
-1.171451	AMP PREP	0.1296886
-1.059134	AMP PREPADE	0.1991241
-2.184072	AMP PREPAU	-0.02927095
-2.775137	AMP PREPAUX	-0.215269
-2.071846	AMP PREPDES	0.1230796
-1.883042	AMP PREPDU	0.1971135
-4.076167	AMP V1P
-3.775137	AMP V2P	-0.4412143
-1.553723	AMP V3P	0.2397805
-2.305315	AMP V3S	0.229857
-1.511501	AMP VA3P	-0.4059932
-2.404069	AMP VA3S	-0.3029053
-4.076167	AMP VAINF
-4.076167	AMP VE2P
-1.749831	AMP VE3P	-0.1697802
-2.775137	AMP VE3S	-0.3472382
-4.076167	AMP VEINF
-2.900076	AMP VINF	-0.2053262
-4.076167	AMP VPPFP
-3.231069	AMP VPPFS	-0.1638695
-1.725919	AMP VPPMP	0.1673602
-3.231069	AMP VPPMS	-0.1304682
-2.184072	AMP VPPRE	0.04303539
-3.599046	AMP XLOC	-0.04766379
-3.121924	AMP XORG	-0.07749487
-2.629009	AMP XPERS	-0.1602859
-3.076167	AMP XPROD	-0.2033771
-0.8020091	AMP YPFAI	0.3984127
-0.9855562	AMP YPFOR	-0.9675376
-2.714439	AMP ZTRM	-1.079569
-1.508385	AMS ADV	-0.3802921
-2.35395	AMS ADVNE	-0.2161422
-2.886736	AMS ADVPAS	-0.2309592
-3.69965	AMS AFP
-3.632703	AMS AFS	-0.2675892
-4.00068	AMS AINDFP	-0.06321895
-4.176771	AMS AINDFS	0.042752
-4.176771	AMS AINDMP	-0.1425239
-4.477801	AMS AINDMS
-4.176771	AMS AMP
-1.474341	AMS AMS	0.2840807
-2.721926	AMS CHIF	0.05623382
-1.341081	AMS COCO	-0.06679165
-1.513541	AMS COSUB	0.1888734
-3.135378	AMS DETFP	-0.1173601
-2.040051	AMS DETFS	0.5251313
-2.805703	AMS DETMP	0.3589036
-2.003585	AMS DETMS	0.0205344
-4.477801	AMS DINTFS
-4.477801	AMS DINTMS
-2.347467	AMS MOTINC	-0.1079043
-3.436409	AMS NFP	0.07961413
-2.528411	AMS NFS	0.1051543
-2.933733	AMS NMP	0.06682003
-0.7230706	AMS NMS	0.462386
-3.436409	AMS PDEMFS	0.2422553
-2.986439	AMS PDEMMS	-0.1792997
-4.477801	AMS PINDFS
-3.30171	AMS PINDMS	-0.1482069
-4.477801	AMS PINTMS
-3.574711	AMS PPER1P	-0.1619436
-3.046437	AMS PPER1S	0.04456097
-3.39862	AMS PPER2P	-0.2851565
-4.477801	AMS PPER3FP
-3.477801	AMS PPER3FS	0.1724319
-3.523559	AMS PPER3MP	-0.1389621
-2.108585	AMS PPER3MS	-0.02160788
-4.477801	AMS PPOBJFS
-2.844333	AMS PPOBJMP	-0.465426
-2.959287	AMS PPOBJMS	-0.0420776
-3.30171	AMS PREFMP	-0.177848
-2.402254	AMS PREFMS	0.1615128
-4.477801	AMS PRELFP
-3.69965	AMS PRELMP	-0.479274
-1.809415	AMS PRELMS	0.1130259
-1.171805	AMS PREP	0.1126394
-1.001404	AMS PREPADE	0.2843535
-2.192244	AMS PREPAU	0.15833
-2.460768	AMS PREPAUX	-0.2812148
-1.677084	AMS PREPDES	-0.04850996
-1.731167	AMS PREPDU	0.09452689
-4.00068	AMS V1P	-0.2033767
-2.865017	AMS V3P	-0.09082827
-1.775371	AMS V3S	-0.08603281
-2.714373	AMS VA3P	-0.2300101
-1.831397	AMS VA3S	-0.5276726
-3.00068	AMS VE3P	-0.03550562
-2.081602	AMS VE3S	-0.3869891
-3.875741	AMS VEINF	-0.277836
-3.135378	AMS VINF	-0.07119974
-3.363858	AMS VPPFS	-0.08259264
-3.39862	AMS VPPMP	0.1000944
-2.104889	AMS VPPMS	-0.5354701
-2.68541	AMS VPPRE	0.01160699
-2.737438	AMS XLOC	0.04983583
-2.121775	AMS XORG	-0.1896298
-1.47391	AMS XPERS	-0.2553501
-2.972651	AMS XPROD	-0.09775217
-0.7659096	AMS YPFAI	0.3905214
-0.9807332	AMS YPFOR	-1.373781
-2.745407	AMS ZTRM	-1.43972
-2.188	CHIF ADV	-0.3475325
-3.423889	CHIF ADVNE	-0.07608598
-2.360502	CHIF AFP	-1.138446
-2.544711	CHIF AFS	-0.5254516
-4.570017	CHIF AINDMP
-4.268987	CHIF AINDMS
-1.880708	CHIF AMP	-0.3646479
-2.393926	CHIF AMS	-0.2084605
-0.3521913	CHIF CHIF	0.3133359
-1.570452	CHIF COCO	-0.7507674
-2.829655	CHIF COSUB	0.08606142
-3.724919	CHIF DETFP	0.2917936
-2.791866	CHIF DETFS	0.2785905
-3.268987	CHIF DETMP	0.8562284
-2.516939	CHIF DETMS	-0.1921205
-2.186202	CHIF MOTINC	-0.1786196
-0.9809617	CHIF NFP	0.265619
-3.291264	CHIF NFS	-0.2261882
-0.7506708	CHIF NMP	0.4370275
-1.250703	CHIF NMS	0.1606206
-4.092896	CHIF PDEMFS	0.05952424
-3.570017	CHIF PDEMMS	0.001729965
-4.092896	CHIF PINDMS
-3.393926	CHIF PPER1P	-0.3560202
-4.092896	CHIF PPER1S	-0.1541721
-3.967957	CHIF PPER2P
-3.967957	CHIF PPER3FS	-0.228216
-3.967957	CHIF PPER3MP	0.02555947
-2.888776	CHIF PPER3MS	-0.01067257
-4.570017	CHIF PPOBJFS
-3.666927	CHIF PPOBJMP	-0.2831514
-4.570017	CHIF PREFMP
-3.365897	CHIF PREFMS	-0.4545229
-4.268987	CHIF PRELFS
-3.365897	CHIF PRELMP	0.1438465
-2.978953	CHIF PRELMS	0.08964643
-1.906316	CHIF PREP	0.0931021
-1.511971	CHIF PREPADE	-0.3345304
-2.784688	CHIF PREPAU	-0.05763471
-4.570017	CHIF PREPAUX
-2.862447	CHIF PREPDES	0.1953124
-2.845742	CHIF PREPDU	-0.597512
-4.092896	CHIF V2P	-0.1855869
-3.314745	CHIF V3P	-0.1261464
-2.799165	CHIF V3S	-0.1192303
-3.038538	CHIF VA3P	-0.2254624
-2.888776	CHIF VA3S	-0.2970316
-3.189806	CHIF VE3P	0.02537984
-3.064867	CHIF VE3S	0.005640835
-4.570017	CHIF VINF
-3.967957	CHIF VPPFP	-0.09992592
-3.871047	CHIF VPPFS	-0.5858992
-2.967957	CHIF VPPMP	0.2753601
-3.615775	CHIF VPPMS	-0.1102649
-3.528625	CHIF VPPRE	-0.1404964
-2.814142	CHIF XLOC	0.1065337
-2.854014	CHIF XORG	-0.08827546
-3.001816	CHIF XPERS	0.05226839
-3.247798	CHIF XPROD	-0.0656614
-1.310423	CHIF YPFAI	-0.06584632
-1.534588	CHIF YPFOR	-0.9124043
-3.092896	CHIF ZTRM	-1.190719
-0.8903132	COCO ADV	0.6819144
-2.473073	COCO ADVNE	0.1201207
-2.15104	COCO ADVPAS	0.223259
-2.113562	COCO AFP	0.2776724
-1.91094	COCO AFS	0.0921247
-2.999882	COCO AINDFP	0.3809543
-4.217365	COCO AINDFS	0.042752
-2.698852	COCO AINDMP	-0.08255792
-2.865183	COCO AINDMS	-0.4386378
-1.960888	COCO AMP	0.2886335
-1.811678	COCO AMS	0.2404064
-1.487796	COCO CHIF	-0.0753901
-1.738078	COCO COCO	0.126312
-1.441755	COCO COSUB	0.1433051
-1.777244	COCO DETFP	0.4065543
-1.136559	COCO DETFS	0.4651908
-1.459211	COCO DETMP	0.5173621
-1.099101	COCO DETMS	0.1017693
-4.217365	COCO DINTFP	-0.312311
-3.564153	COCO DINTFS	-0.1544895
-3.615305	COCO DINTMP	0.1176395
-3.439214	COCO DINTMS	0.3996072
-2.421485	COCO MOTINC	0.01673383
-2.303552	COCO NFP	0.1120539
-1.990766	COCO NFS	0.1379545
-2.042724	COCO NMP	0.02847004
-1.83806	COCO NMS	0.09223789
-3.314276	COCO PDEMFP	-0.04672152
-2.360033	COCO PDEMFS	0.07827222
-2.938612	COCO PDEMMP	-0.09499103
-1.905612	COCO PDEMMS	0.09532785
-3.087032	COCO PINDFP	0.009856731
-3.439214	COCO PINDFS	-0.09134632
-4.041274	COCO PINDMP
-2.101755	COCO PINDMS	0.08861101
-3.673297	COCO PINTFS	0.05718695
-2.60991	COCO PINTMS	0.09004128
-2.15856	COCO PPER1P	-0.196429
-1.72952	COCO PPER1S	0.1044471
-2.219543	COCO PPER2P	-0.1530586
-3.477003	COCO PPER2S	-0.09068638
-2.938612	COCO PPER3FP	-0.3491595
-2.351078	COCO PPER3FS	0.02632904
-2.235094	COCO PPER3MP	0.02882767
-1.177555	COCO PPER3MS	-0.3949479
-2.819426	COCO PPOBJFS	-0.03592351
-2.477003	COCO PPOBJMP	-0.4248412
-2.514074	COCO PPOBJMS	-0.4873901
-3.087032	COCO PREFMP	-0.1234903
-2.391291	COCO PREFMS	0.2381881
-2.950194	COCO PRELFP	-0.2538291
-2.131006	COCO PRELFS	-1.143883
-2.303552	COCO PRELMP	-0.1264897
-2.241934	COCO PRELMS	-0.5826122
-1.19022	COCO PREP	0.5618681
-1.082074	COCO PREPADE	0.5800424
-2.223929	COCO PREPAU	0.2607986
-2.414592	COCO PREPAUX	0.2565374
-1.742421	COCO PREPDES	-0.1698983
-2.018708	COCO PREPDU	0.2817475
-2.999882	COCO V1P	-0.151468
-4.041274	COCO V1S
-2.819426	COCO V2P	-0.06222194
-2.333704	COCO V3P	0.0368343
-1.951369	COCO V3S	0.1793179
-2.916336	COCO VA3P	0.151354
-2.545268	COCO VA3S	-0.2806413
-3.615305	COCO VAINF	0.1874393
-3.120456	COCO VE3P	-0.2261272
-3.175973	COCO VE3S	-0.04740676
-3.196176	COCO VEINF	0.06840672
-1.841702	COCO VINF	0.1718479
-2.905612	COCO VPPFP	0.104512
-2.631905	COCO VPPFS	0.1155659
-2.620768	COCO VPPMP	0.09734261
-1.998567	COCO VPPMS	0.1263505
-2.79412	COCO VPPRE	0.05667347
-2.136379	COCO XLOC	0.1115131
-1.994649	COCO XORG	0.02809697
-1.669591	COCO XPERS	0.06953549
-2.874943	COCO XPROD	0.05817777
-1.792484	COCO YPFAI	-0.04053897
-2.637582	COCO YPFOR	0.2369348
-3.156668	COCO ZTRM	-1.079569
-1.2423	COSUB ADV	0.09410846
-2.967885	COSUB ADVNE	-0.1374608
-2.602397	COSUB ADVPAS	-0.1893697
-3.064795	COSUB AFP	-0.06596601
-2.786041	COSUB AFS	-0.2127118
-2.847311	COSUB AINDFP	-0.1492981
-3.462735	COSUB AINDFS	-0.003005445
-2.336441	COSUB AINDMP	-0.3124298
-2.520727	COSUB AINDMS	-0.2529018
-3.251881	COSUB AMP	-0.2450637
-2.361503	COSUB AMS	-0.1442499
-2.137938	COSUB CHIF	-0.194962
-2.903427	COSUB COCO	-0.107646
-1.907943	COSUB COSUB	0.3726227
-1.564421	COSUB DETFP	-0.5423002
-1.013064	COSUB DETFS	0.2663568
-1.21599	COSUB DETMP	0.09321034
-0.9168095	COSUB DETMS	0.3026724
-4.064795	COSUB DINTMS	-0.1058037
-2.847311	COSUB MOTINC	-0.01853031
-3.520727	COSUB NFP	-0.08096338
-2.514566	COSUB NFS	0.2198066
-2.496593	COSUB NMP	0.01539165
-2.122787	COSUB NMS	0.1381811
-3.324432	COSUB PDEMFP	-0.01756331
-2.436406	COSUB PDEMFS	0.05231059
-2.797623	COSUB PDEMMP	0.02785468
-1.61997	COSUB PDEMMS	0.0281595
-3.286644	COSUB PINDFS	-0.1519121
-2.675629	COSUB PINDMP	0.03703168
-1.957585	COSUB PINDMS	-0.302988
-2.732356	COSUB PINTMS	-0.0720962
-1.665121	COSUB PPER1P	-0.1425321
-1.497768	COSUB PPER1S	0.331406
-1.486156	COSUB PPER2P	-0.4607862
-2.847311	COSUB PPER2S	0.05224693
-2.204457	COSUB PPER3FP	-0.3765476
-1.637471	COSUB PPER3FS	-0.354472
-1.524465	COSUB PPER3MP	-0.406401
-0.657234	COSUB PPER3MS	-0.396819
-2.918667	COSUB PPOBJFS	-0.2430078
-2.821757	COSUB PPOBJMP	-0.2844991
-2.153637	COSUB PPOBJMS	-0.3176982
-3.888704	COSUB PREFFS	-0.597798
-4.365825	COSUB PREFMP
-2.316607	COSUB PREFMS	0.1055636
-4.064795	COSUB PRELFS
-4.064795	COSUB PRELMP
-3.763765	COSUB PRELMS	-0.4724586
-1.423321	COSUB PREP	0.3326945
-1.796451	COSUB PREPADE	0.4623194
-2.514566	COSUB PREPAU	0.3758616
-3.110552	COSUB PREPAUX	0.4451787
-3.110552	COSUB PREPDES	0.37541
-2.860675	COSUB PREPDU	-0.2626626
-3.763765	COSUB V1P	-0.290686
-3.251881	COSUB V1S	-0.5019314
-2.580495	COSUB V2P	-1.110221
-2.426306	COSUB V3P	-0.3057848
-1.878686	COSUB V3S	-0.543038
-2.967885	COSUB VA3P	0.08013007
-2.580495	COSUB VA3S	-0.3113274
-2.874463	COSUB VE3P	0.02894595
-2.502502	COSUB VE3S	-0.3421793
-3.520727	COSUB VEINF	-0.2780513
-2.186848	COSUB VINF	0.2037719
-4.064795	COSUB VPPFP	-0.29718
-3.411582	COSUB VPPFS	-0.2210101
-3.587674	COSUB VPPMP	-0.05710125
-3.043606	COSUB VPPMS	-0.1008003
-2.809522	COSUB VPPRE	-0.1824863
-2.722372	COSUB XLOC	-0.1561806
-2.120312	COSUB XORG	-0.4565072
-1.594237	COSUB XPERS	-0.169589
-3.520727	COSUB XPROD	-0.09076667
-1.918667	COSUB YPFAI	-0.0489803
-2.580495	COSUB YPFOR	0.3310338
-2.967885	COSUB ZTRM	-1.114331
-1.995449	DETFP ADV	-1.071257
-1.214242	DETFP AFP	-0.4213237
-3.465271	DETFP AINDFP	-0.6819367
-3.465271	DETFP AMP	-0.2035912
-3.59021	DETFP CHIF	0.03341672
-3.025939	DETFP COCO	-0.2727456
-3.222233	DETFP COSUB	-0.6131701
-1.530773	DETFP DETMP	0.4974076
-0.08105233	DETFP NFP	0.2244146
-2.652358	DETFP NFS	-0.2278822
-4.067331	DETFP PPER3MP
-4.067331	DETFP V1P
-3.164241	DETFP V2S	-0.3870594
-3.766301	DETFP VE3P
-4.067331	DETFP VE3S
-3.28918	DETFP VINF
-3.28918	DETFP VPPFP	-0.1086998
-3.766301	DETFP VPPMS
-2.953388	DETFP VPPRE	-0.1815702
-1.722939	DETFP XLOC	-0.07838446
-1.620173	DETFP XORG	-0.581389
-4.067331	DETFP XPERS
-3.164241	DETFP XPROD	-0.1063878
-1.834335	DETFP YPFAI	-0.5442767
-2.98815	DETFP YPFOR	1.009482
-2.075193	DETFS ADV	-0.8312009
-4.821048	DETFS ADVPAS
-4.821048	DETFS AFP
-1.180865	DETFS AFS	-0.3343626
-4.520018	DETFS AINDFS	0.042752
-4.821048	DETFS AMP
-3.406075	DETFS AMS	-0.5157925
-2.77183	DETFS CHIF	-0.9439285
-3.821048	DETFS COCO	-0.07934722
-3.97595	DETFS COSUB	-0.4327913
-3.866806	DETFS DETFP	0.5649383
-2.03006	DETFS DETFS	0.5834513
-4.218988	DETFS DETMP	-0.4588902
-3.18758	DETFS DETMS	0.08688623
-2.085449	DETFS MOTINC	-0.1234758
-3.707105	DETFS NFP	-0.1062207
-0.1141172	DETFS NFS	0.1338842
-3.616928	DETFS NMP	-0.7113044
-2.603564	DETFS NMS	0.05504757
-4.343927	DETFS PDEMMS
-3.644957	DETFS PPER1S	-0.2718307
-4.821048	DETFS PPER2P
-4.821048	DETFS PPER2S
-3.821048	DETFS PPER3MS	-0.4020054
-3.707105	DETFS PPOBJMS	-0.05423227
-4.520018	DETFS PREFMS	-0.472546
-4.821048	DETFS PRELMP
-4.343927	DETFS PRELMS
-3.15829	DETFS PREP	-0.3729697
-3.065173	DETFS PREPADE	-0.4438274
-3.779655	DETFS PREPDES	-0.4639177
-4.218988	DETFS PREPDU	0.3024138
-4.821048	DETFS V1P
-4.218988	DETFS V2P	-0.1296497
-3.229984	DETFS V3S	0.008745521
-4.821048	DETFS VA3P
-4.520018	DETFS VE2S	-0.1426675
-4.821048	DETFS VE3P
-2.834276	DETFS VINF	-0.3197039
-3.741867	DETFS VPPFS	-0.1929267
-4.343927	DETFS VPPMS
-4.042897	DETFS VPPRE	-0.07126953
-1.401919	DETFS XLOC	0.1247268
-1.104044	DETFS XORG	0.1027131
-3.644957	DETFS XPERS	0.1667125
-2.565776	DETFS XPROD	-0.07181835
-2.287022	DETFS YPFAI	-0.5775193
-3.35865	DETFS YPFOR	0.6463042
-3.45932	DETFS ZTRM	-1.079569
-1.855402	DETMP ADV	-0.6305946
-3.798236	DETMP AINDMP	-0.5867175
-3.798236	DETMP AINDMS	-0.6004201
-1.076151	DETMP AMP	0.09006727
-2.996604	DETMP AMS	-0.3303573
-1.050048	DETMP CHIF	-0.5063607
-1.879158	DETMP DETFP	0.3511961
-2.996604	DETMP DETFS	-0.3751307
-3.673297	DETMP DETMS	-0.1137693
-1.554372	DETMP MOTINC	-0.4301443
-0.1385418	DETMP NMP	0.09917927
-2.388867	DETMP NMS	-0.1797284
-3.974327	DETMP PDEMMS
-4.275357	DETMP PINDMS
-3.974327	DETMP PPER3MS
-3.576387	DETMP PPOBJMP	-0.006069683
-4.275357	DETMP PRELMS
-2.673297	DETMP PREP	-0.04487634
-3.071238	DETMP PREPADE	-0.132377
-4.275357	DETMP PREPAU
-4.275357	DETMP PREPDU
-3.798236	DETMP V3P	-0.5557252
-3.372267	DETMP V3S	-0.3874042
-3.576387	DETMP VA3S	-0.7699282
-2.662574	DETMP VPPMP	0.2174631
-2.707156	DETMP XLOC	0.1594783
-1.588721	DETMP XORG	-0.4230373
-3.430259	DETMP XPERS	0.00643196
-2.843994	DETMP XPROD	-0.1783347
-3.233965	DETMP ZTRM	-0.3361796
-1.95825	DETMS ADV	-0.2184538
-3.337167	DETMS ADVPAS	-0.6754221
-3.742932	DETMS AFS	-0.1205357
-4.784325	DETMS AINDFP
-4.085355	DETMS AINDMP	-0.3650959
-4.784325	DETMS AMP
-1.035052	DETMS AMS	-0.07501328
-1.78869	DETMS CHIF	-0.440973
-3.505571	DETMS COCO	-0.1488245
-3.505571	DETMS COSUB	0.05636499
-3.939227	DETMS DETFP	0.4534895
-2.719867	DETMS DETFS	0.6758515
-3.580205	DETMS DETMP	0.3806317
-1.986365	DETMS DETMS	0.759715
-1.868398	DETMS MOTINC	-0.09573066
-2.830082	DETMS NFS	0.2291702
-3.140872	DETMS NMP	-0.120257
-0.1307071	DETMS NMS	0.2133875
-4.483295	DETMS PDEMMS
-3.068321	DETMS PINDMS	-0.1585225
-4.784325	DETMS PINTMS
-4.784325	DETMS PPER1S
-4.483295	DETMS PPER2P
-4.784325	DETMS PPER3FP
-3.441902	DETMS PPER3MS	-0.1880785
-4.784325	DETMS PPOBJMP
-4.085355	DETMS PPOBJMS	-0.7002513
-4.784325	DETMS PREFMS
-4.483295	DETMS PRELFS	-0.2442929
-4.483295	DETMS PRELMP	-0.4703353
-4.784325	DETMS PRELMS
-2.580205	DETMS PREP	0.05212665
-2.708778	DETMS PREPADE	-0.1412337
-4.085355	DETMS PREPAU	0.2953553
-2.780004	DETMS PREPDES	-0.4989208
-4.784325	DETMS PREPDU
-3.670382	DETMS V1S	-0.1513436
-3.369351	DETMS V3P	-0.1468784
-2.69442	DETMS V3S	-0.3582283
-4.006174	DETMS VA3S	-0.4177457
-4.784325	DETMS VE3P
-4.307204	DETMS VE3S	-0.5519205
-3.784325	DETMS VEINF	-0.9891163
-1.998995	DETMS VINF	-0.192541
-4.483295	DETMS VPPFP
-4.085355	DETMS VPPMP	0.08902678
-3.171541	DETMS VPPMS	-0.3034829
-3.881235	DETMS VPPRE	-0.184939
-1.687415	DETMS XLOC	-0.1542293
-1.259669	DETMS XORG	-0.6015532
-2.903511	DETMS XPERS	0.2285358
-2.660473	DETMS XPROD	-0.1224349
-2.182265	DETMS YPFAI	-0.2722891
-2.667053	DETMS YPFOR	0.002851486
-3.608233	DETMS ZTRM	-0.9034775
-1.755875	DINTFP AFP
-1.755875	DINTFP DINTFP
-0.3579348	DINTFP NFP	0.05217567
-1.454845	DINTFP PRELFP	-0.4710713
-1.454845	DINTFP V3P	-0.469163
-0.5006024	DINTFP VE3P	-0.5393402
-1.755875	DINTFP YPFAI
-1.721536	DINTFS ADV
-1.721536	DINTFS ADVNE
-1.721536	DINTFS AFS	-0.1068827
-1.897627	DINTFS DINTFS
-0.2901721	DINTFS NFS	0.2223771
-2.198657	DINTFS NMS
-2.198657	DINTFS PREFMS
-1.897627	DINTFS PRELMS	-0.47442
-2.198657	DINTFS PREP
-1.420506	DINTFS V3S	-0.4192454
-1.897627	DINTFS VA3S
-0.6423546	DINTFS VE3S	-0.4419069
-2.198657	DINTFS XORG
-1.897627	DINTFS YPFAI
-1.469822	DINTMP COSUB
-0.4486327	DINTMP NMP	-0.1244602
-1.770852	DINTMP VA3P
-0.308454	DINTMP VE3P	-0.5191368
-1.770852	DINTMP YPFAI
-1.638489	DINTMS ADV
-1.763428	DINTMS COSUB	-0.1138465
-1.939519	DINTMS DINTMS	-0.1058037
-2.240549	DINTMS MOTINC
-0.2405493	DINTMS NMS	0.1493008
-1.939519	DINTMS V3S
-2.240549	DINTMS VA3S
-0.559308	DINTMS VE3S	-0.7202574
-1.638489	DINTMS YPFAI	-0.4621667
-1.636103	MOTINC ADV	0.1851271
-2.226155	MOTINC ADVNE	-0.08827853
-3.267547	MOTINC ADVPAS	-0.09173242
-2.134008	MOTINC AFP	-0.1016836
-1.790426	MOTINC AFS	0.2221471
-3.966517	MOTINC AINDFP
-3.966517	MOTINC AINDMP
-3.267547	MOTINC AINDMS	0.3883621
-1.970882	MOTINC AMP	0.1888416
-1.457315	MOTINC AMS	-0.4383814
-1.95368	MOTINC CHIF	-0.4348112
-1.49965	MOTINC COCO	0.1303167
-2.022034	MOTINC COSUB	0.05291587
-2.887336	MOTINC DETFP	-0.01025468
-2.042238	MOTINC DETFS	0.491092
-2.687764	MOTINC DETMP	0.2580319
-1.979745	MOTINC DETMS	0.1461477
-1.105581	MOTINC MOTINC	-0.1318927
-3.364457	MOTINC NFP
-2.195665	MOTINC NFS	0.02012706
-2.167177	MOTINC NMP	-0.08840796
-1.913439	MOTINC NMS	0.05874074
-3.966517	MOTINC PDEMFS
-3.121419	MOTINC PDEMMS	-0.02564466
-3.966517	MOTINC PINDMS
-3.966517	MOTINC PINTMS
-2.887336	MOTINC PPER1P	-0.1745466
-2.887336	MOTINC PPER1S	0.1999002
-2.925124	MOTINC PPER2P	0.01760986
-3.665487	MOTINC PPER2S
-3.665487	MOTINC PPER3FS
-3.063427	MOTINC PPER3MP	0.01093636
-2.195665	MOTINC PPER3MS	-0.1422086
-2.925124	MOTINC PPOBJMP	-0.2213638
-2.790426	MOTINC PPOBJMS	-0.1673676
-2.398315	MOTINC PREFMP	0.09268355
-2.375453	MOTINC PREFMS	-0.6000834
-2.535153	MOTINC PRELFP	-0.4192344
-3.665487	MOTINC PRELFS	-0.4158144
-2.343268	MOTINC PRELMP	-0.3223355
-1.859307	MOTINC PRELMS	-0.1136611
-1.4376	MOTINC PREP	0.2242861
-1.383318	MOTINC PREPADE	0.2374252
-2.504119	MOTINC PREPAU	0.09070718
-3.012275	MOTINC PREPAUX	0.2086067
-2.303759	MOTINC PREPDES	0.1830661
-2.012275	MOTINC PREPDU	0.6265973
-3.364457	MOTINC V2P
-2.058032	MOTINC V3P	0.1724522
-1.836183	MOTINC V3S	-0.0309301
-3.665487	MOTINC VA1S
-3.665487	MOTINC VA2S	-0.4569179
-2.140442	MOTINC VA3P	-0.2620044
-1.962196	MOTINC VA3S	-0.2669616
-3.665487	MOTINC VE2S	-0.4607309
-2.188366	MOTINC VE3P	0.1102193
-1.984246	MOTINC VE3S	-0.3658273
-2.966517	MOTINC VINF	-0.0266706
-3.188366	MOTINC VPPFP	-0.07533124
-3.188366	MOTINC VPPFS	-0.652846
-2.461367	MOTINC VPPMP	-0.003926694
-2.551544	MOTINC VPPMS	-0.1673268
-2.665487	MOTINC VPPRE	-0.2189029
-2.448003	MOTINC XLOC	0.1225919
-2.267547	MOTINC XORG	-0.1159196
-1.618212	MOTINC XPERS	0.2053458
-2.887336	MOTINC XPROD	-0.08021124
-0.4506433	MOTINC YPFAI	0.5289569
-0.9943143	MOTINC YPFOR	-0.8492401
-1.933093	MOTINC ZTRM	-1.736784
-1.319328	NFP ADV	-0.2408417
-2.234986	NFP ADVNE	-0.3474925
-3.328991	NFP ADVPAS	-0.149925
-0.7473066	NFP AFP	0.1981953
-2.83997	NFP AFS	-0.1910783
-3.806112	NFP AINDFP	0.2378111
-4.408172	NFP AINDFS
-3.505082	NFP AINDMP	-0.1882814
-2.961014	NFP AMP	-0.04333231
-2.961014	NFP AMS	0.02715304
-1.508352	NFP CHIF	-0.01993191
-1.347097	NFP COCO	-0.0789423
-1.823841	NFP COSUB	0.231904
-2.468653	NFP DETFP	-0.114692
-2.252836	NFP DETFS	0.53178
-2.903022	NFP DETMP	0.5504348
-2.129419	NFP DETMS	0.04456866
-4.408172	NFP DINTFP
-2.185456	NFP MOTINC	-0.1092218
-2.817107	NFP NFP	0.08826396
-2.828388	NFP NFS	0.09460703
-2.55084	NFP NMP	-0.1274998
-2.53894	NFP NMS	0.01732296
-3.563074	NFP PDEMFS	0.2800439
-3.204052	NFP PDEMMS	-0.1166678
-3.709202	NFP PINDFS	-0.04732079
-3.563074	NFP PINDMS	-0.1194258
-4.408172	NFP PINTMS
-3.204052	NFP PPER1P	-0.008177996
-3.262044	NFP PPER1S	-0.06339377
-3.262044	NFP PPER2P	0.1137099
-4.107142	NFP PPER3FP
-3.563074	NFP PPER3FS	-0.00218451
-3.563074	NFP PPER3MP	-0.1090723
-2.328991	NFP PPER3MS	0.3276922
-2.667809	NFP PPOBJMP	-0.9795889
-3.1529	NFP PPOBJMS	-0.2152724
-2.281067	NFP PREFMP	-0.3067756
-2.582097	NFP PREFMS	-0.6020967
-1.646996	NFP PRELFP	-0.1194388
-2.864104	NFP PRELFS	-0.3696975
-2.378788	NFP PRELMP	-1.190588
-2.726931	NFP PRELMS	-0.4106092
-1.060842	NFP PREP	0.2211689
-0.809491	NFP PREPADE	-0.01055658
-2.234986	NFP PREPAU	0.3354195
-2.510545	NFP PREPAUX	0.02402139
-1.759812	NFP PREPDES	0.256863
-1.610905	NFP PREPDU	0.09789598
-3.709202	NFP V1P	-0.09880049
-3.806112	NFP V2P	-0.1400424
-4.408172	NFP V2S
-1.785958	NFP V3P	-0.1220005
-2.489094	NFP V3S	0.1761903
-1.83997	NFP VA3P	-0.4533005
-2.630021	NFP VA3S	-0.2951262
-1.81378	NFP VE3P	-0.152629
-2.61578	NFP VE3S	-0.2067804
-3.45393	NFP VINF	-0.02992863
-1.597268	NFP VPPFP	0.1975045
-3.085953	NFP VPPFS	-0.1345024
-3.027961	NFP VPPMP	0.1183992
-2.993199	NFP VPPMS	-0.3336692
-2.311262	NFP VPPRE	0.00306052
-2.903022	NFP XLOC	-0.05177894
-2.582097	NFP XORG	-0.04868963
-2.608832	NFP XPERS	-0.1034634
-3.328991	NFP XPROD	-0.1092617
-0.9280214	NFP YPFAI	0.4691273
-1.104113	NFP YPFOR	-1.18085
-2.563074	NFP ZTRM	-1.550616
-1.431559	NFS ADV	-0.01097512
-2.278989	NFS ADVNE	-0.4582074
-3.600118	NFS ADVPAS	-0.2435613
-3.100721	NFS AFP	0.2643171
-0.83078	NFS AFS	0.2619247
-4.401751	NFS AINDFP	-0.06321895
-4.878872	NFS AINDFS
-3.447508	NFS AINDMP	-0.2163101
-3.799691	NFS AINDMS	0.08733201
-3.162869	NFS AMP	-0.0525673
-2.638323	NFS AMS	0.3573918
-2.53448	NFS CHIF	0.1139781
-1.472162	NFS COCO	-0.01654422
-1.7851	NFS COSUB	0.07353354
-2.919831	NFS DETFP	-0.180372
-1.969316	NFS DETFS	0.4900321
-2.680215	NFS DETMP	0.6040853
-1.853566	NFS DETMS	-0.03719747
-4.878872	NFS DINTFS
-2.285586	NFS MOTINC	0.08582217
-3.577842	NFS NFP	-0.367402
-2.060646	NFS NFS	0.1270934
-3.401751	NFS NMP	-0.0108054
-2.201265	NFS NMS	-0.006696105
-3.517144	NFS PDEMFS	0.2650443
-4.577842	NFS PDEMMP
-3.299088	NFS PDEMMS	-0.2320853
-4.401751	NFS PINDFP	-0.1537329
-4.179902	NFS PINDFS
-4.878872	NFS PINDMP
-3.556653	NFS PINDMS	-0.2024926
-4.878872	NFS PINTFS
-4.577842	NFS PINTMS	-0.414139
-3.255623	NFS PPER1P	-0.1484241
-3.052797	NFS PPER1S	0.3813066
-3.373722	NFS PPER2P	-0.2183147
-4.878872	NFS PPER2S
-4.401751	NFS PPER3FP
-3.206774	NFS PPER3FS	0.1051134
-3.463899	NFS PPER3MP	0.3585585
-2.208626	NFS PPER3MS	-0.02051723
-3.276812	NFS PPOBJFS	-0.5307459
-2.682972	NFS PPOBJMP	-0.8369155
-3.162869	NFS PPOBJMS	-0.4462124
-2.383328	NFS PREFFS	-1.110044
-3.100721	NFS PREFMP	-0.1582524
-3.556653	NFS PREFMS	-0.5820253
-4.878872	NFS PRELFP
-1.757641	NFS PRELFS	-0.01307523
-2.998059	NFS PRELMP	-0.008716941
-2.6117	NFS PRELMS	-0.8528427
-1.07788	NFS PREP	-0.07551086
-0.6840526	NFS PREPADE	-0.1657059
-1.987893	NFS PREPAU	0.2538091
-2.357734	NFS PREPAUX	0.05935931
-1.406847	NFS PREPDES	0.1891601
-1.380561	NFS PREPDU	0.2003845
-3.878872	NFS V1P	-0.1151931
-4.878872	NFS V1S
-3.732744	NFS V2P	-0.2071311
-2.650985	NFS V3P	0.07527256
-1.809204	NFS V3S	0.2747281
-2.677475	NFS VA3P	-0.05039698
-1.981245	NFS VA3S	-0.4614967
-4.878872	NFS VAINF
-2.845448	NFS VE3P	-0.11345
-1.843843	NFS VE3S	-0.5669737
-4.878872	NFS VEINF
-3.188676	NFS VINF	-0.05865541
-3.276812	NFS VPPFP	-0.2018643
-1.958227	NFS VPPFS	0.2269092
-3.146478	NFS VPPMP	-0.04712409
-2.711555	NFS VPPMS	-0.004627705
-2.618801	NFS VPPRE	0.2176122
-2.465572	NFS XLOC	-0.03475499
-2.403201	NFS XORG	0.1086756
-2.074733	NFS XPERS	-0.004328251
-3.08648	NFS XPROD	-0.03731877
-0.9227998	NFS YPFAI	0.5082438
-1.125212	NFS YPFOR	-1.630311
-2.702781	NFS ZTRM	-1.878335
-1.384706	NMP ADV	-0.124583
-2.18346	NMP ADVNE	-0.5776294
-3.798006	NMP ADVPAS	-0.7619049
-3.195946	NMP AFP	0.1492611
-3.576157	NMP AFS	-0.07784769
-3.877187	NMP AINDFP	0.3347211
-3.877187	NMP AINDFS	0.4024876
-3.673067	NMP AINDMP	0.05205077
-3.974097	NMP AINDMS	0.4553089
-0.8724358	NMP AMP	0.1830041
-2.530834	NMP AMS	0.07827455
-2.651878	NMP CHIF	0.01410097
-1.33486	NMP COCO	0.1165923
-1.762576	NMP COSUB	0.1662796
-3.161184	NMP DETFP	0.1524594
-2.173037	NMP DETFS	0.3718033
-2.400066	NMP DETMP	0.3663902
-2.173037	NMP DETMS	0.1683024
-4.576157	NMP DINTFS
-4.099036	NMP DINTMP	-0.2068716
-2.366642	NMP MOTINC	-0.1182622
-2.913399	NMP NFP	-0.1727355
-2.724899	NMP NFS	-0.06040913
-2.090436	NMP NMP	0.519735
-2.442618	NMP NMS	0.02392542
-3.496976	NMP PDEMFS	-0.07764897
-4.576157	NMP PDEMMP
-3.214429	NMP PDEMMS	-0.04787725
-4.576157	NMP PINDMP
-3.345708	NMP PINDMS	-0.1500208
-4.275127	NMP PINTFS	-0.4357286
-3.974097	NMP PINTMS	-0.2380477
-3.233734	NMP PPER1P	0.01730067
-3.099036	NMP PPER1S	0.1735061
-3.430029	NMP PPER2P	0.038304
-4.576157	NMP PPER3FP
-3.496976	NMP PPER3FS	-0.04121551
-3.044678	NMP PPER3MP	0.3271156
-2.301999	NMP PPER3MS	0.332785
-3.877187	NMP PPOBJFS	-0.1013676
-2.651878	NMP PPOBJMP	-0.5837687
-2.689666	NMP PPOBJMS	-0.348244
-2.093283	NMP PREFMP	-0.3965545
-2.843763	NMP PREFMS	-0.5479879
-4.099036	NMP PRELFS
-1.520396	NMP PRELMP	-0.03288591
-2.304315	NMP PRELMS	-0.008210659
-1.136509	NMP PREP	0.1097845
-0.7435842	NMP PREPADE	-0.1493585
-2.239697	NMP PREPAU	0.1799682
-2.580522	NMP PREPAUX	0.2107949
-1.74301	NMP PREPDES	0.2403066
-1.495891	NMP PREPDU	-0.2440617
-3.877187	NMP V1P	-0.03780729
-4.275127	NMP V2P
-1.570119	NMP V3P	0.1506722
-2.320884	NMP V3S	-0.1302301
-1.731059	NMP VA3P	-0.4208369
-2.458886	NMP VA3S	-0.391772
-4.576157	NMP VAINF
-1.79873	NMP VE3P	-0.4028797
-2.504275	NMP VE3S	-0.2815777
-3.253938	NMP VINF	-0.04691592
-3.462214	NMP VPPFP	-0.1434192
-3.113759	NMP VPPFS	-0.1273213
-1.67908	NMP VPPMP	0.08859885
-2.904059	NMP VPPMS	-0.1836885
-2.391466	NMP VPPRE	0.07313013
-3.400066	NMP XLOC	-0.05244988
-2.617115	NMP XORG	-0.05311882
-2.426938	NMP XPERS	-0.3529392
-2.974097	NMP XPROD	-0.05565768
-0.8456978	NMP YPFAI	0.5893767
-1.072911	NMP YPFOR	-1.379956
-2.67853	NMP ZTRM	-1.602448
-1.417315	NMS ADV	0.08078158
-2.281461	NMS ADVNE	-0.6811848
-3.946103	NMS ADVPAS	-0.1676538
-3.741983	NMS AFP	-0.02369809
-2.818999	NMS AFS	0.2215043
-4.344043	NMS AINDFP
-4.645073	NMS AINDFS	0.042752
-3.548163	NMS AINDMP	-0.1153717
-3.377902	NMS AINDMS	0.6554003
-2.946103	NMS AMP	-0.1701973
-0.8867292	NMS AMS	0.02898812
-1.934956	NMS CHIF	-0.0007740259
-1.529962	NMS COCO	0.2414126
-1.836187	NMS COSUB	0.07291055
-2.852682	NMS DETFP	-0.07868803
-1.956209	NMS DETFS	0.4312841
-2.66507	NMS DETMP	0.1897532
-1.924914	NMS DETMS	0.1129636
-4.468982	NMS DINTFP
-4.946103	NMS DINTFS
-4.468982	NMS DINTMS	-0.08167005
-2.353927	NMS MOTINC	0.07620806
-3.483705	NMS NFP	-0.0126785
-2.466096	NMS NFS	0.1790083
-3.333319	NMS NMP	-0.06817371
-1.893409	NMS NMS	0.2084672
-3.645073	NMS PDEMFS	-0.2163825
-4.344043	NMS PDEMMP	0.08957455
-3.146763	NMS PDEMMS	-0.01839849
-4.167952	NMS PINDFS	-0.08213829
-4.946103	NMS PINDMP
-3.498945	NMS PINDMS	-0.1943146
-3.991861	NMS PINTMS	-0.01733958
-3.153712	NMS PPER1P	0.07179201
-3.06529	NMS PPER1S	0.440428
-3.355039	NMS PPER2P	-0.2873499
-4.645073	NMS PPER2S
-4.645073	NMS PPER3FP
-3.603681	NMS PPER3FS	-0.1462644
-3.427589	NMS PPER3MP	0.04201633
-2.224293	NMS PPER3MS	0.09399128
-3.866922	NMS PPOBJFS	-1.08292
-2.767126	NMS PPOBJMP	-0.7142463
-2.793815	NMS PPOBJMS	-0.1858678
-3.264862	NMS PREFMP	-0.1862811
-2.306617	NMS PREFMS	0.4156119
-4.645073	NMS PRELFP
-3.946103	NMS PRELFS	-0.05945978
-3.027025	NMS PRELMP	-0.07136983
-1.734449	NMS PRELMS	0.02549446
-1.146074	NMS PREP	0.3765064
-0.6838896	NMS PREPADE	0.176759
-2.065861	NMS PREPAU	0.002770543
-2.544703	NMS PREPAUX	0.09373951
-1.508036	NMS PREPDES	0.1882484
-1.430362	NMS PREPDU	0.1508204
-3.904711	NMS V1P	0.0007561147
-3.904711	NMS V1S	-0.08504711
-3.83216	NMS V2P	-0.1511797
-2.69813	NMS V3P	0.03137052
-1.742798	NMS V3S	0.3688451
-2.83216	NMS VA3P	-0.0421176
-1.958437	NMS VA3S	-0.5448401
-4.043013	NMS VAINF	0.05960968
-4.946103	NMS VE2P
-2.946103	NMS VE3P	-0.09088653
-1.929906	NMS VE3S	-0.2329742
-4.946103	NMS VEINF
-3.160774	NMS VINF	0.07621199
-3.770012	NMS VPPFP	-0.1195005
-3.06529	NMS VPPFS	0.01863772
-3.221828	NMS VPPMP	0.06788331
-1.992344	NMS VPPMS	-0.2617482
-2.595855	NMS VPPRE	0.02790272
-2.565892	NMS XLOC	-0.0255186
-2.152313	NMS XORG	0.2104999
-1.547122	NMS XPERS	-0.02813637
-2.863318	NMS XPROD	-0.03666353
-0.8604203	NMS YPFAI	0.4555979
-1.092831	NMS YPFOR	-1.729908
-2.595855	NMS ZTRM	-2.05154
-1.653213	PDEMFP ADV	-0.4633249
-1.954242	PDEMFP COCO
-1.954242	PDEMFP COSUB
-0.69897	PDEMFP PRELFP	0.06884959
-1.477121	PDEMFP PRELMP
-1.255273	PDEMFP PREP	-0.2037562
-0.5392691	PDEMFP PREPADE	-0.1040662
-1.255273	PDEMFP PREPDES	0.1634612
-1.477121	PDEMFP PREPDU	0.2266931
-1.653213	PDEMFP V3P
-1.954242	PDEMFP VE3P
-1.255273	PDEMFP VPPFP	0.07079679
-1.477121	PDEMFP VPPRE	-0.553378
-1.954242	PDEMFP XPERS
-1.919862	PDEMFS ADV	-0.1702174
-3.220892	PDEMFS ADVNE
-3.220892	PDEMFS ADVPAS
-3.220892	PDEMFS AMS
-1.96562	PDEMFS CHIF	0.0652993
-0.625396	PDEMFS COSUB	-0.3579813
-2.442741	PDEMFS DETFS	-0.2088548
-2.141711	PDEMFS DETMS	0.2261788
-3.220892	PDEMFS DINTFS
-3.220892	PDEMFS NFS
-2.317802	PDEMFS PDEMFS	-0.2415057
-3.220892	PDEMFS PINTMS
-3.220892	PDEMFS PPER1P
-2.618832	PDEMFS PPER1S	0.1383437
-3.220892	PDEMFS PPER3MS
-3.220892	PDEMFS PREFMS
-0.3216191	PDEMFS PRELFS	-0.5905986
-2.442741	PDEMFS PRELMS	-0.8261395
-1.472704	PDEMFS PREP	0.05674988
-1.056539	PDEMFS PREPADE	-0.2880421
-2.618832	PDEMFS PREPAU	0.1034698
-3.220892	PDEMFS PREPAUX
-2.016772	PDEMFS PREPDES	-0.2215138
-1.496616	PDEMFS PREPDU	0.6266276
-2.919862	PDEMFS V2P
-2.26665	PDEMFS V3S	-0.1500213
-2.521922	PDEMFS VA3S	-0.4590806
-2.618832	PDEMFS VE3S	-0.1237548
-2.220892	PDEMFS VPPFS	-0.02959669
-3.220892	PDEMFS VPPMS
-2.074764	PDEMFS VPPRE	-0.2581775
-1.702378	PDEMFS YPFAI	-0.1820967
-2.442741	PDEMFS YPFOR	1.278327
-1.743858	PDEMMP ADV	-0.1968316
-2.09604	PDEMMP ADVNE	-0.1142513
-2.397071	PDEMMP AFP	-0.4691748
-2.698101	PDEMMP AINDMP
-2.698101	PDEMMP AMP
-1.698101	PDEMMP COCO	-0.2897187
-1.250942	PDEMMP COSUB	-0.2292097
-2.698101	PDEMMP DETMS
-2.220979	PDEMMP PDEMMP	-0.2114555
-2.698101	PDEMMP PPER3FP
-2.698101	PDEMMP PPER3MS
-0.2268088	PDEMMP PRELMP	-0.09053504
-1.99913	PDEMMP PREP
-1.085317	PDEMMP PREPADE	-0.03895506
-2.698101	PDEMMP PREPAU
-1.853003	PDEMMP PREPDES	0.3629929
-1.442828	PDEMMP PREPDU	0.5532445
-2.09604	PDEMMP V3P	-0.2189734
-1.919949	PDEMMP VA3P	-0.4178571
-1.795011	PDEMMP VE3P	-0.04518189
-2.698101	PDEMMP VPPFP
-1.795011	PDEMMP VPPMP	-0.3247074
-1.584157	PDEMMP YPFAI	-0.07090157
-2.09604	PDEMMP YPFOR	1.424455
-2.698101	PDEMMP ZTRM
-1.558573	PDEMMS ADV	-0.2349452
-0.8780149	PDEMMS ADVNE	-0.9108267
-3.106757	PDEMMS AINDMP	0.1127486
-3.106757	PDEMMS AINDMS	0.04358053
-2.805727	PDEMMS AMS	-0.3180928
-2.35343	PDEMMS COCO	-0.1254229
-1.64938	PDEMMS COSUB	-0.1521675
-3.583879	PDEMMS DETFP
-2.0524	PDEMMS DETFS	0.09417534
-2.629636	PDEMMS DETMP	0.4289359
-1.921121	PDEMMS DETMS	-0.4060254
-2.73878	PDEMMS MOTINC	-0.006333381
-3.583879	PDEMMS NFP
-3.106757	PDEMMS NFS
-2.884909	PDEMMS NMP	-0.3011299
-2.542486	PDEMMS NMS	-0.1246114
-1.764335	PDEMMS PDEMMS	-0.240475
-3.282849	PDEMMS PINDMS	-0.4426669
-3.583879	PDEMMS PPER1P
-2.282849	PDEMMS PPER1S	-0.1874102
-2.065365	PDEMMS PPER2P	-0.4363719
-1.282849	PDEMMS PPER3MS	-0.6594473
-3.583879	PDEMMS PPOBJFS
-2.106757	PDEMMS PPOBJMP	-0.8348761
-1.639396	PDEMMS PPOBJMS	-0.9242308
-1.402035	PDEMMS PREFMS	-0.8164079
-1.243434	PDEMMS PRELMS	-0.2993812
-1.960629	PDEMMS PREP	-0.09725794
-1.456774	PDEMMS PREPADE	-0.095429
-3.583879	PDEMMS PREPAU
-2.0524	PDEMMS PREPDES	0.294558
-2.203667	PDEMMS PREPDU	0.4053269
-0.6895626	PDEMMS V3S	0.09890091
-1.575278	PDEMMS VA3S	-0.1329975
-1.111122	PDEMMS VE3P	-0.792325
-1.03365	PDEMMS VE3S	-0.07822889
-2.121481	PDEMMS VPPMS	-0.2392175
-3.583879	PDEMMS VPPRE
-3.583879	PDEMMS XORG
-2.884909	PDEMMS XPERS
-1.257543	PDEMMS YPFAI	-0.155118
-1.566845	PDEMMS YPFOR	0.1022363
-2.583879	PDEMMS ZTRM	-0.7407502
-0.9472936	PINDFP ADV	-0.1915467
-1.248324	PINDFP AMP	-0.5055439
-2.093422	PINDFP COCO
-1.6163	PINDFP COSUB
-2.093422	PINDFP DETMS
-0.7923917	PINDFP NFP	-0.08173859
-0.8381492	PINDFP NMP	-0.1572045
-1.190332	PINDFP NMS	-0.5223867
-2.093422	PINDFP PDEMMS
-2.093422	PINDFP PPER3MP
-1.6163	PINDFP PPER3MS
-2.093422	PINDFP PPOBJMS
-1.792392	PINDFP PRELMP
-1.491362	PINDFP PREP	-0.1956018
-1.491362	PINDFP PREPADE	-0.6959339
-2.093422	PINDFP PREPAUX
-1.6163	PINDFP PREPDES	-0.02774897
-2.093422	PINDFP V3P
-2.093422	PINDFP YPFAI
-1.190332	PINDFP YPFOR	1.169183
-2.093422	PINDFP ZTRM
-2.489959	PINDFS ADV
-2.012837	PINDFS ADVNE
-2.188928	PINDFS AINDMS
-2.489959	PINDFS CHIF
-1.711807	PINDFS COCO	-0.3884422
-2.489959	PINDFS COSUB
-1.64486	PINDFS DETFS	0.159122
-2.188928	PINDFS DETMP	0.08651325
-2.489959	PINDFS DETMS
-0.8771746	PINDFS NFS	0.127733
-2.489959	PINDFS PINTMS
-2.489959	PINDFS PPER1S
-2.489959	PINDFS PPER3MS
-2.489959	PINDFS PREFMS
-1.34383	PINDFS PREP	-0.04830562
-0.8465058	PINDFS PREPADE	-0.5248327
-2.188928	PINDFS PREPAU
-0.3930485	PINDFS PREPDES	-0.8909855
-2.012837	PINDFS VA3S	0.09722188
-2.489959	PINDFS VE3S
-1.586869	PINDFS VINF	-0.1702039
-2.489959	PINDFS VPPFS
-2.489959	PINDFS VPPMS
-2.489959	PINDFS XORG
-1.887898	PINDFS YPFAI
-1.489959	PINDFS YPFOR	1.082033
-1.733999	PINDMP ADV	-0.3077152
-2.432969	PINDMP CHIF
-1.654818	PINDMP COCO
-2.432969	PINDMP DETFS
-2.432969	PINDMP DETMS
-1.733999	PINDMP MOTINC
-1.353788	PINDMP NFP	-0.1338562
-0.5756368	PINDMP NMP	-0.002410531
-2.432969	PINDMP PDEMFP
-2.432969	PINDMP PDEMFS
-2.432969	PINDMP PPER3MS
-1.733999	PINDMP PREFMS	-0.3561637
-1.830909	PINDMP PRELMP
-2.131939	PINDMP PREP
-1.001606	PINDMP PREPADE	-0.3157508
-1.830909	PINDMP PREPDES	-0.2856628
-1.256878	PINDMP V3P	0.02531436
-2.432969	PINDMP V3S
-1.955848	PINDMP VA3P	-0.2198558
-1.654818	PINDMP VE3P	0.02521853
-2.432969	PINDMP VINF
-2.432969	PINDMP VPPMS
-2.432969	PINDMP VPPRE
-0.8766668	PINDMP YPFAI	-0.04421899
-0.9278193	PINDMP YPFOR	0.6049116
-2.432969	PINDMP ZTRM
-1.277354	PINDMS ADV	-0.3256338
-1.117654	PINDMS ADVNE	-0.9177703
-2.386499	PINDMS ADVPAS	0.02946334
-3.231597	PINDMS AFS	-0.3621552
-3.532627	PINDMS AINDMP
-3.231597	PINDMS AINDMS
-2.055506	PINDMS AMS	-0.3705918
-2.833657	PINDMS CHIF	0.146121
-1.706552	PINDMS COCO	-0.1682506
-1.491234	PINDMS COSUB	0.1546149
-2.629537	PINDMS DETFP	0.2460362
-2.170899	PINDMS DETFS	-0.03076339
-2.754476	PINDMS DETMP	0.308362
-1.687529	PINDMS DETMS	-0.2307727
-3.532627	PINDMS DINTMS
-2.687529	PINDMS MOTINC	0.06502254
-3.532627	PINDMS NFS
-3.231597	PINDMS NMP
-1.428823	PINDMS NMS	0.03705209
-3.532627	PINDMS PDEMFS
-3.532627	PINDMS PDEMMP
-1.550356	PINDMS PDEMMS	-0.9509172
-3.532627	PINDMS PINDFS
-1.524027	PINDMS PINDMS	-0.2754582
-2.930567	PINDMS PPER1P	-0.0703385
-3.231597	PINDMS PPER1S
-2.930567	PINDMS PPER2P	-0.471418
-2.833657	PINDMS PPER3MP	0.03712919
-2.152416	PINDMS PPER3MS	-0.1068439
-2.386499	PINDMS PPOBJMP	-0.3955434
-1.573586	PINDMS PPOBJMS	-0.9051088
-3.532627	PINDMS PREFMP
-1.706552	PINDMS PREFMS	-0.739436
-1.559499	PINDMS PRELMS	-0.2502232
-1.325801	PINDMS PREP	0.3006598
-1.00371	PINDMS PREPADE	-0.4954845
-2.578384	PINDMS PREPAU	-0.3043709
-3.532627	PINDMS PREPAUX
-1.184322	PINDMS PREPDES	0.03764534
-3.532627	PINDMS PREPDU
-3.532627	PINDMS V2P
-3.231597	PINDMS V3P
-0.9763245	PINDMS V3S	-0.08585721
-3.532627	PINDMS VA3P
-1.776752	PINDMS VA3S	-0.001800418
-3.532627	PINDMS VE3P
-1.460745	PINDMS VE3S	-0.3471072
-2.833657	PINDMS VEINF	-0.3157003
-1.761775	PINDMS VINF	-0.241014
-3.231597	PINDMS VPPMP
-1.719714	PINDMS VPPMS	-0.0176537
-2.578384	PINDMS VPPRE	-0.1705669
-3.231597	PINDMS XLOC	-0.3029363
-3.055506	PINDMS XORG	-0.5152098
-3.055506	PINDMS XPERS	0.01401904
-1.058411	PINDMS YPFAI	0.12142
-1.222997	PINDMS YPFOR	-0.1883283
-2.833657	PINDMS ZTRM	-0.4775088
-0.4259687	PINTFP VE3P	-0.1407536
-0.90309	PINTFP XORG	-0.4646442
-0.50515	PINTFP YPFAI	-0.09164086
-1.409369	PINTFS COCO	-0.1858266
-1.041393	PINTFS NFP
-1.041393	PINTFS NMS	-0.1079988
-1.585461	PINTFS PINDMS
-0.8073095	PINTFS PPOBJMS	-0.09194657
-1.409369	PINTFS V3S	-0.593187
-0.845098	PINTFS VE3S	-1.03931
-1.886491	PINTFS VINF
-1.886491	PINTFS XLOC
-0.5854607	PINTFS YPFOR	0.8012062
-0.1760913	PINTMP NMP
-1.423107	PINTMS ADV	-0.2205766
-3.193959	PINTMS AINDFP
-2.591899	PINTMS AINDMS	-0.05332947
-3.193959	PINTMS AMP
-3.193959	PINTMS AMS
-3.193959	PINTMS COCO
-1.851536	PINTMS COSUB	-0.1930277
-2.348861	PINTMS DETFP	-0.1341751
-1.851536	PINTMS DETFS	0.02119088
-1.892929	PINTMS DETMP	0.629616
-1.66248	PINTMS DETMS	-0.05162138
-2.892929	PINTMS MOTINC	-0.4731628
-2.114778	PINTMS NMP	-0.2546268
-2.017868	PINTMS NMS	-0.2163818
-1.494989	PINTMS PDEMMS	-0.2803781
-2.239717	PINTMS PINDMS	-0.2776727
-2.348861	PINTMS PINTMS	-0.1223259
-1.96351	PINTMS PPER1P	-0.4480443
-1.649891	PINTMS PPER1S	-0.3871009
-1.073385	PINTMS PPER2P	0.05359578
-1.938686	PINTMS PPER2S	-0.3306044
-2.892929	PINTMS PPER3FP
-2.239717	PINTMS PPER3FS	0.02502799
-2.290869	PINTMS PPER3MP	-0.1707352
-0.8696765	PINTMS PPER3MS	-0.05135608
-1.915205	PINTMS PPOBJMP	-0.8939324
-1.796019	PINTMS PREFMS	0.3791809
-1.96351	PINTMS PREP	-0.2576622
-2.716838	PINTMS PREPADE	-0.1135389
-3.193959	PINTMS PREPAUX
-3.193959	PINTMS PREPDU
-3.193959	PINTMS V1P
-1.938686	PINTMS V3P	-0.469465
-1.296332	PINTMS V3S	-0.3021271
-2.080016	PINTMS VA3P	-0.2717291
-0.6153198	PINTMS VA3S	-1.451082
-2.591899	PINTMS VE3P	-0.6835339
-0.9764751	PINTMS VE3S	-0.9375381
-1.796019	PINTMS VINF	-0.03304452
-3.193959	PINTMS VPPMS
-3.193959	PINTMS XORG
-2.415808	PINTMS XPERS	-0.08446041
-1.581175	PINTMS YPFAI	-0.1144211
-1.989839	PINTMS YPFOR	0.8929765
-2.591899	PINTMS ZTRM	-0.3983276
-2.070279	PPER1P ADV	-0.1473667
-1.227887	PPER1P ADVNE	-1.147096
-3.432007	PPER1P ADVPAS
-2.318063	PPER1P AMP	-0.05531914
-3.432007	PPER1P COCO
-2.528917	PPER1P COSUB	-0.5882729
-3.432007	PPER1P DETFP
-2.829947	PPER1P DETFS	-0.0627268
-2.432007	PPER1P DETMP	-0.03842551
-2.829947	PPER1P DETMS	-0.1137693
-3.432007	PPER1P DINTFP
-2.653855	PPER1P MOTINC	-0.06531124
-3.130977	PPER1P NFS
-2.733037	PPER1P NMP	-0.3011299
-2.829947	PPER1P NMS	-0.08168323
-2.954885	PPER1P PDEMMS
-1.523522	PPER1P PPER1P	-0.1191871
-3.432007	PPER1P PPER2P
-1.954885	PPER1P PPER3MS	0.2289496
-3.432007	PPER1P PPOBJFS
-1.314735	PPER1P PPOBJMP	-0.8893261
-1.342102	PPER1P PPOBJMS	-1.120877
-2.285879	PPER1P PREP	-0.02922374
-2.829947	PPER1P PREPADE
-3.130977	PPER1P PREPAU	-0.4514536
-3.432007	PPER1P PREPDU
-0.4743994	PPER1P V1P	-0.07208157
-1.077898	PPER1P V3S	-0.1449301
-0.7955188	PPER1P VA1P	-0.3104342
-3.432007	PPER1P VA3P
-1.900528	PPER1P VA3S	-0.265666
-0.943456	PPER1P VE1P	-0.251633
-3.432007	PPER1P VE2S
-2.432007	PPER1P VE3S	-0.1965825
-1.840942	PPER1P VINF	0.08657542
-3.130977	PPER1P VPPMP
-2.829947	PPER1P VPPMS	-0.09773922
-3.130977	PPER1P XPERS
-1.668579	PPER1P YPFAI	-0.2724813
-2.733037	PPER1P YPFOR	1.345274
-2.402496	PPER1S ADV	-0.2039318
-1.112461	PPER1S ADVNE	-1.310442
-3.744919	PPER1S AINDMP
-3.045949	PPER1S COCO	-0.1742611
-3.443889	PPER1S COSUB
-3.744919	PPER1S DETFP
-3.443889	PPER1S DETFS	-0.4770229
-3.443889	PPER1S DETMS	0.1080795
-2.966767	PPER1S MOTINC	-0.2360075
-3.744919	PPER1S NMP
-2.665737	PPER1S NMS	-0.6045619
-3.744919	PPER1S PDEMMS
-1.492066	PPER1S PPER1S	0.8086198
-3.142859	PPER1S PPER3MS	-0.02367643
-2.744919	PPER1S PPOBJFS	-1.037522
-1.107429	PPER1S PPOBJMP	-1.752355
-1.128968	PPER1S PPOBJMS	-1.224033
-3.744919	PPER1S PREFMS
-3.267797	PPER1S PREP
-3.443889	PPER1S PREPADE	-0.474827
-0.3182447	PPER1S V1S	-0.08836615
-3.045949	PPER1S V3S	-0.1564996
-0.8407442	PPER1S VA1S	0.02274716
-3.045949	PPER1S VA3S	-0.7699282
-1.127918	PPER1S VE1S	0.02632916
-3.744919	PPER1S VE2S
-3.142859	PPER1S VINF
-3.744919	PPER1S VPPMS
-1.852824	PPER1S YPFAI	-0.420812
-2.703526	PPER1S YPFOR	1.044244
-3.045949	PPER1S ZTRM	-0.4775088
-1.980588	PPER2P ADV	-0.1764478
-1.475438	PPER2P ADVNE	-0.9793673
-2.922596	PPER2P ADVPAS	-0.1263178
-2.922596	PPER2P AMP	-0.1335946
-2.922596	PPER2P AMS
-3.223626	PPER2P COCO	-0.4677266
-2.047534	PPER2P COSUB	0.01358715
-3.524656	PPER2P DETFP
-2.320536	PPER2P DETFS	-0.04033685
-2.621566	PPER2P DETMP	0.04075581
-2.570413	PPER2P DETMS	0.3163554
-2.483263	PPER2P MOTINC	0.04863212
-3.524656	PPER2P NMP
-2.621566	PPER2P NMS	-0.8897977
-3.223626	PPER2P PDEMFS
-3.524656	PPER2P PDEMMS
-3.223626	PPER2P PPER1S
-1.424285	PPER2P PPER2P	-0.3439495
-2.922596	PPER2P PPER3MS	-0.1009754
-1.605578	PPER2P PPOBJMP	-1.224743
-1.108015	PPER2P PPOBJMS	-1.190338
-3.524656	PPER2P PREFMS
-3.524656	PPER2P PRELMP
-2.245902	PPER2P PREP	-0.1949436
-2.093292	PPER2P PREPADE	-0.05513194
-3.223626	PPER2P PREPAU	-0.07262149
-3.524656	PPER2P PREPDES
-3.047534	PPER2P PREPDU	-0.1535182
-0.3895231	PPER2P V2P	-0.08369291
-3.524656	PPER2P V3P
-1.410712	PPER2P V3S	0.06255168
-0.9906296	PPER2P VA2P	0.03843868
-3.524656	PPER2P VA3P
-0.9506245	PPER2P VE2P	-0.02659774
-3.524656	PPER2P VE3S
-2.033294	PPER2P VINF	-0.04896301
-3.524656	PPER2P VPPFS
-2.570413	PPER2P VPPMS	-0.02297984
-3.524656	PPER2P XORG
-1.667323	PPER2P XPERS	-0.3244929
-1.299346	PPER2P YPFAI	-0.06609017
-2.077498	PPER2P YPFOR	0.6610274
-3.524656	PPER2P ZTRM
-1.218944	PPER2S ADVNE	-0.2267778
-2.173186	PPER2S COCO
-2.173186	PPER2S DETMP
-1.571126	PPER2S NFP	-0.2615352
-1.395035	PPER2S NMP	-0.1165389
-1.474216	PPER2S PPER2S	-0.1991119
-2.173186	PPER2S PPOBJMP
-1.027058	PPER2S PPOBJMS	-0.3216444
-0.491945	PPER2S V1S	-0.03702062
-0.9179137	PPER2S V2S	-0.03579407
-0.9427373	PPER2S VA2S	-0.07918122
-1.270096	PPER2S VE2S	-0.1505575
-1.872156	PPER2S YPFAI	-0.4697446
-2.173186	PPER2S YPFOR
-1.686961	PPER3FP ADV	-0.09243503
-1.038158	PPER3FP ADVNE	-0.85117
-2.427324	PPER3FP ADVPAS	-0.4301403
-2.427324	PPER3FP AFP	-0.4678877
-2.029384	PPER3FP DETFP	0.5647949
-2.728354	PPER3FP DETFS
-2.728354	PPER3FP DETMP
-2.427324	PPER3FP DETMS	0.1080795
-2.427324	PPER3FP MOTINC
-2.728354	PPER3FP NMS
-2.427324	PPER3FP PPER3FP
-2.251233	PPER3FP PPER3MS	-0.1845797
-2.728354	PPER3FP PPOBJFS
-2.728354	PPER3FP PPOBJMP
-1.686961	PPER3FP PPOBJMS	-0.5252841
-1.348143	PPER3FP PREFMP	-0.0777328
-2.427324	PPER3FP PREFMS
-2.728354	PPER3FP PRELFP
-2.427324	PPER3FP PREP
-2.427324	PPER3FP PREPADE
-2.728354	PPER3FP V1S
-0.5242338	PPER3FP V3P	0.007902384
-2.728354	PPER3FP V3S
-0.99596	PPER3FP VA3P	0.1012955
-2.728354	PPER3FP VA3S
-0.6419939	PPER3FP VE3P	-0.4925004
-2.427324	PPER3FP VPPFP	-0.29718
-2.029384	PPER3FP VPPMS	-0.2033954
-1.223204	PPER3FP YPFAI	-0.08394468
-2.427324	PPER3FP YPFOR	1.646304
-1.677251	PPER3FS ADV	-0.0322302
-1.062148	PPER3FS ADVNE	-0.6418038
-2.248642	PPER3FS ADVPAS	-0.103947
-2.290035	PPER3FS AFS	-0.01307033
-3.290035	PPER3FS CHIF
-2.989005	PPER3FS COCO
-2.989005	PPER3FS COSUB	-0.4669969
-3.290035	PPER3FS DETFP
-2.386945	PPER3FS DETFS	0.1133645
-2.248642	PPER3FS DETMS	0.1380427
-2.989005	PPER3FS MOTINC
-2.812913	PPER3FS NFS
-2.687975	PPER3FS NMS	-0.2365852
-3.290035	PPER3FS PDEMFS
-3.290035	PPER3FS PINTMS
-2.248642	PPER3FS PPER3FS	0.1100522
-2.687975	PPER3FS PPOBJFS	-0.1248646
-1.947612	PPER3FS PPOBJMP	-0.5552443
-1.519183	PPER3FS PPOBJMS	-0.6183876
-1.281434	PPER3FS PREFFS	-0.2458402
-3.290035	PPER3FS PREFMP
-2.034762	PPER3FS PREP	-0.1043933
-2.176091	PPER3FS PREPADE	-0.03671196
-3.290035	PPER3FS PREPDU
-3.290035	PPER3FS V3P
-0.5266066	PPER3FS V3S	0.01502466
-2.989005	PPER3FS VA3P
-0.8114681	PPER3FS VA3S	0.1430943
-3.290035	PPER3FS VAINF
-2.989005	PPER3FS VE3P
-0.7325274	PPER3FS VE3S	-0.623717
-2.335792	PPER3FS VINF	-0.1210197
-2.248642	PPER3FS VPPFS	-0.02528039
-2.085915	PPER3FS VPPMS	-0.134499
-1.210853	PPER3FS YPFAI	-0.05365181
-2.210853	PPER3FS YPFOR	1.009482
-2.185578	PPER3MP ADV	0.002135653
-0.9900239	PPER3MP ADVNE	-1.091885
-2.486608	PPER3MP ADVPAS	-0.05010583
-2.787637	PPER3MP AMP	-0.355052
-3.088668	PPER3MP COCO
-2.787637	PPER3MP COSUB
-2.787637	PPER3MP DETFS	0.3352132
-3.088668	PPER3MP DETMP
-3.389698	PPER3MP DETMS
-3.088668	PPER3MP MOTINC
-3.389698	PPER3MP NFP
-3.088668	PPER3MP NMP	-0.4102744
-3.389698	PPER3MP PDEMMP
-3.389698	PPER3MP PDEMMS
-2.310516	PPER3MP PPER3MP	0.2103286
-3.389698	PPER3MP PPER3MS
-2.690727	PPER3MP PPOBJFS	-0.7703744
-1.821496	PPER3MP PPOBJMP	-0.5383601
-1.503207	PPER3MP PPOBJMS	-1.26005
-1.285894	PPER3MP PREFMP	-0.6203414
-3.389698	PPER3MP PRELFP
-3.088668	PPER3MP PREP	-0.474555
-2.690727	PPER3MP PREPADE
-3.389698	PPER3MP PREPDU
-0.486065	PPER3MP V3P	0.218897
-2.690727	PPER3MP V3S	-0.06152409
-0.6687118	PPER3MP VA3P	0.2698388
-0.7316862	PPER3MP VE3P	-0.1821724
-3.389698	PPER3MP VE3S
-2.690727	PPER3MP VINF	-0.07652857
-2.435455	PPER3MP VPPMP	0.07785425
-2.348305	PPER3MP VPPMS	-0.1249378
-1.958334	PPER3MP YPFAI	-0.1673064
-2.389698	PPER3MP YPFOR	1.082033
-3.389698	PPER3MP ZTRM
-1.230907	PPER3MS ADV	-1.169316
-1.254913	PPER3MS ADVNE	-1.156323
-2.88052	PPER3MS ADVPAS	-0.04251069
-4.123558	PPER3MS AINDMP
-3.220468	PPER3MS AMS	-0.3814813
-4.424588	PPER3MS CHIF
-3.424588	PPER3MS COCO	-0.07171836
-2.734392	PPER3MS COSUB	-0.1396784
-3.947466	PPER3MS DETFP	-0.2216256
-3.123558	PPER3MS DETFS	0.1925457
-4.424588	PPER3MS DETMP
-2.919438	PPER3MS DETMS	0.3301815
-3.06286	PPER3MS MOTINC	-0.1568798
-3.822528	PPER3MS NFS	-0.04540721
-3.310644	PPER3MS NMP	-0.3467864
-2.97743	PPER3MS NMS	-0.3867248
-4.424588	PPER3MS PDEMFS
-4.424588	PPER3MS PDEMMS
-2.031891	PPER3MS PINTMS	-0.6954312
-4.424588	PPER3MS PPER1P
-4.123558	PPER3MS PPER1S
-4.424588	PPER3MS PPER2P
-4.424588	PPER3MS PPER3FP
-2.13903	PPER3MS PPER3MS	0.3077186
-3.248496	PPER3MS PPOBJFS	-0.4123921
-1.785101	PPER3MS PPOBJMP	-1.120989
-1.11645	PPER3MS PPOBJMS	-2.029923
-1.442769	PPER3MS PREFMS	-0.752087
-4.424588	PPER3MS PRELMP
-4.424588	PPER3MS PRELMS
-2.868285	PPER3MS PREP	0.1084836
-2.771375	PPER3MS PREPADE	0.002417654
-3.725618	PPER3MS PREPAU	-0.07041827
-3.310644	PPER3MS PREPDES	0.1588729
-3.822528	PPER3MS PREPDU	-0.6855746
-4.123558	PPER3MS V1S
-3.646436	PPER3MS V3P	-0.2145189
-0.609608	PPER3MS V3S	0.02239525
-4.424588	PPER3MS VA3P
-1.084937	PPER3MS VA3S	0.08529544
-4.424588	PPER3MS VAINF
-3.725618	PPER3MS VE3P
-0.4328301	PPER3MS VE3S	-0.2174616
-3.947466	PPER3MS VEINF
-2.490089	PPER3MS VINF	0.1275287
-4.424588	PPER3MS VPPFP
-4.424588	PPER3MS VPPFS
-2.331166	PPER3MS VPPMS	0.1140847
-4.424588	PPER3MS VPPRE
-4.424588	PPER3MS XLOC
-4.123558	PPER3MS XORG
-4.424588	PPER3MS XPERS
-1.810746	PPER3MS YPFAI	-0.1726833
-2.543774	PPER3MS YPFOR	0.2369348
-3.822528	PPER3MS ZTRM	-0.3983276
-2.421604	PPOBJFP ADVNE
-1.006631	PPOBJFP AMS	0.167325
-0.8653014	PPOBJFP CHIF	-0.8473969
-1.643453	PPOBJFP COCO
-2.120574	PPOBJFP COSUB
-2.421604	PPOBJFP MOTINC
-2.421604	PPOBJFP PPER3MS
-2.421604	PPOBJFP PRELMP
-1.819544	PPOBJFP PREP	-0.3004977
-1.307661	PPOBJFP V3P	-0.1050512
-1.576506	PPOBJFP V3S	-0.1427519
-2.120574	PPOBJFP VA3S
-1.944483	PPOBJFP VE3S
-1.722634	PPOBJFP VINF	-0.4700233
-0.2848834	PPOBJFP VPPRE	0.06188309
-1.944483	PPOBJFP YPFOR	1.521365
-1.112759	PPOBJFS ADV	-0.1346071
-1.161516	PPOBJFS AFS	-1.096574
-3.165838	PPOBJFS AINDMP
-1.409963	PPOBJFS AMS	-0.06621647
-2.211595	PPOBJFS CHIF	-0.5964661
-1.935389	PPOBJFS COCO	-0.02931094
-1.674476	PPOBJFS COSUB	-0.001807302
-3.165838	PPOBJFS DETFP
-1.750864	PPOBJFS DETFS	-0.1271847
-2.688716	PPOBJFS DETMP	-0.03842551
-1.647324	PPOBJFS DETMS	0.07748276
-2.688716	PPOBJFS MOTINC	-0.4120988
-1.062034	PPOBJFS NFS	-0.1670901
-1.157237	PPOBJFS NMS	-0.379282
-1.843618	PPOBJFS PDEMMS	-0.3261763
-3.165838	PPOBJFS PINDFS
-3.165838	PPOBJFS PINDMS
-2.688716	PPOBJFS PINTMS
-2.563778	PPOBJFS PPER1P	-0.1235714
-3.165838	PPOBJFS PPER1S
-3.165838	PPOBJFS PPER3FS
-1.574773	PPOBJFS PPER3MS	0.05207449
-2.563778	PPOBJFS PREFMS
-1.484596	PPOBJFS PRELFS	-0.0130921
-3.165838	PPOBJFS PRELMP
-2.262748	PPOBJFS PREP	-0.3194153
-1.910565	PPOBJFS PREPADE	-0.3620189
-2.688716	PPOBJFS PREPAU	-0.1177944
-2.262748	PPOBJFS PREPDES	0.3216003
-3.165838	PPOBJFS PREPDU
-3.165838	PPOBJFS V1P
-2.051894	PPOBJFS V1S	-0.1474434
-2.387686	PPOBJFS V2P	-0.8303128
-1.750864	PPOBJFS V3P	-0.1781083
-1.32074	PPOBJFS V3S	-0.07027018
-3.165838	PPOBJFS VA3S
-1.11662	PPOBJFS VINF	0.2030887
-3.165838	PPOBJFS VPPFS
-2.124445	PPOBJFS VPPMS	-0.0611144
-2.688716	PPOBJFS VPPRE	-0.1679184
-1.989746	PPOBJFS XLOC	0.08784822
-2.864808	PPOBJFS XORG
-2.563778	PPOBJFS XPERS	0.08973975
-0.7542179	PPOBJFS YPFAI	0.01967126
-1.153	PPOBJFS YPFOR	0.1063921
-2.32074	PPOBJFS ZTRM	-0.6024475
-1.585419	PPOBJMP ADV	-0.04391912
-2.636571	PPOBJMP ADVNE	-0.2352002
-2.569625	PPOBJMP AINDMP	-0.3011629
-2.715753	PPOBJMP AMP	-0.1132111
-3.715753	PPOBJMP AMS
-3.238631	PPOBJMP CHIF	-0.1369564
-2.034512	PPOBJMP COCO	-0.01014024
-2.268595	PPOBJMP COSUB	0.04352613
-2.67436	PPOBJMP DETFP	-1.078697
-2.197239	PPOBJMP DETFS	0.5023228
-2.76151	PPOBJMP DETMP	0.4289359
-2.082284	PPOBJMP DETMS	0.2185414
-2.937602	PPOBJMP MOTINC	-0.02396967
-2.511633	PPOBJMP NFS	0.005910024
-3.414723	PPOBJMP NMP
-3.715753	PPOBJMP NMS
-3.113693	PPOBJMP PDEMFS	-0.5815394
-2.76151	PPOBJMP PDEMMS
-3.715753	PPOBJMP PINDFS
-2.601809	PPOBJMP PINDMP	0.05639234
-3.238631	PPOBJMP PINDMS	-0.1733792
-3.238631	PPOBJMP PPER1S
-3.715753	PPOBJMP PPER2S
-2.636571	PPOBJMP PPER3MP	0.05203873
-2.124688	PPOBJMP PPER3MS	0.1480477
-2.016783	PPOBJMP PPOBJMP	-0.8193966
-1.585419	PPOBJMP PPOBJMS	-0.6627969
-1.85243	PPOBJMP PREFMP	-1.13066
-3.414723	PPOBJMP PREFMS	-0.261004
-2.102969	PPOBJMP PRELMP	-0.1516036
-2.937602	PPOBJMP PRELMS	-0.03818939
-1.711431	PPOBJMP PREP	0.09728265
-1.944901	PPOBJMP PREPADE	-0.1805292
-2.937602	PPOBJMP PREPAU	0.3902566
-3.113693	PPOBJMP PREPAUX	-0.1204186
-2.601809	PPOBJMP PREPDES	0.1311076
-3.016783	PPOBJMP PREPDU	0.04536808
-1.636572	PPOBJMP V1P	-0.3162514
-1.176677	PPOBJMP V1S	0.09227377
-1.834939	PPOBJMP V2P	-0.0278199
-1.397689	PPOBJMP V3P	0.1577898
-0.8909763	PPOBJMP V3S	0.03029656
-2.870655	PPOBJMP VA1P	-0.1459162
-2.210603	PPOBJMP VA1S	0.0566659
-2.636571	PPOBJMP VA2P	-0.2066573
-1.74727	PPOBJMP VA3P	-0.1089051
-1.3694	PPOBJMP VA3S	-0.3587624
-2.601809	PPOBJMP VAINF	-0.04117662
-2.511633	PPOBJMP VE1P	-0.2145314
-3.414723	PPOBJMP VE2P	-0.4504457
-2.268595	PPOBJMP VE3P	-0.02370444
-1.756711	PPOBJMP VE3S	-0.4285159
-3.113693	PPOBJMP VEINF	-0.09903818
-0.6751504	PPOBJMP VINF	0.242925
-3.238631	PPOBJMP VPPFS	-0.409808
-3.238631	PPOBJMP VPPMS
-0.8942392	PPOBJMP VPPRE	0.009405136
-3.113693	PPOBJMP XORG	-0.6421417
-2.67436	PPOBJMP XPERS	0.05457529
-3.414723	PPOBJMP XPROD
-1.271708	PPOBJMP YPFAI	0.3033281
-1.47024	PPOBJMP YPFOR	-0.1245477
-2.937602	PPOBJMP ZTRM	-0.5444555
-2.449633	PPOBJMS ADV	-0.09804638
-3.148603	PPOBJMS ADVNE	-0.2060332
-1.908053	PPOBJMS AMS	-0.1135265
-2.485845	PPOBJMS COCO	-0.3027248
-3.546543	PPOBJMS COSUB	-0.369119
-3.069421	PPOBJMS DETFP	-0.07618314
-2.525353	PPOBJMS DETFS	0.1084405
-3.245513	PPOBJMS DETMP	-0.1353355
-2.617124	PPOBJMS DETMS	-0.01685929
-3.370451	PPOBJMS MOTINC	-0.03188749
-1.686205	PPOBJMS NFS	-0.1744232
-3.245513	PPOBJMS NMP	-0.6606069
-2.416209	PPOBJMS NMS	-0.1737841
-3.546543	PPOBJMS PDEMMS	-0.4670422
-1.386675	PPOBJMS PPER1S	0.2779366
-3.245513	PPOBJMS PPER3MS
-1.838972	PPOBJMS PPOBJMS	-0.2428734
-3.002475	PPOBJMS PRELMS	-0.1062927
-1.933759	PPOBJMS PREP	0.03165841
-2.416209	PPOBJMS PREPADE	-0.1477811
-3.370451	PPOBJMS PREPAUX	-0.06555115
-1.98425	PPOBJMS V1P	-0.316532
-1.268933	PPOBJMS V1S	0.06221443
-1.50122	PPOBJMS V2P	-0.01238781
-3.069421	PPOBJMS V2S	-0.05941983
-1.474661	PPOBJMS V3P	-0.2286929
-0.7846148	PPOBJMS V3S	0.1603522
-2.245513	PPOBJMS VA1P	-0.04652524
-1.966759	PPOBJMS VA1S	-0.1945707
-2.002475	PPOBJMS VA2P	-0.4299792
-2.80618	PPOBJMS VA2S	-0.1346986
-1.630089	PPOBJMS VA3P	0.02051622
-0.4713608	PPOBJMS VA3S	0.1862963
-2.131569	PPOBJMS VAINF	-0.3470267
-3.245513	PPOBJMS VE1P	-0.3672139
-2.021498	PPOBJMS VE1S	-0.135645
-3.370451	PPOBJMS VE2S
-2.055181	PPOBJMS VE3P	0.1672745
-1.359022	PPOBJMS VE3S	-0.05281991
-2.416209	PPOBJMS VEINF	-0.0862816
-1.449633	PPOBJMS VINF	-0.183475
-1.674386	PPOBJMS VPPRE	0.2239633
-3.148603	PPOBJMS XPERS	-0.5422835
-1.442739	PPOBJMS YPFAI	-0.2378228
-1.786875	PPOBJMS YPFOR	0.05896759
-3.847573	PPOBJMS ZTRM
-0.30103	PREFFP NMP
-3.0103	PREFFS AFS
-2.0103	PREFFS PPOBJMS	-0.5863571
-0.2605636	PREFFS V3S	-0.3171408
-0.5404779	PREFFS VE3S	-1.142361
-2.232149	PREFFS VEINF	-0.1522654
-0.8641719	PREFFS VINF	-0.07196152
-3.0103	PREFFS YPFAI
-3.0103	PREFFS YPFOR
-2.538322	PREFMP ADV
-3.237292	PREFMP COCO
-3.237292	PREFMP COSUB
-2.635232	PREFMP MOTINC	0.04383323
-3.237292	PREFMP NFS
-3.237292	PREFMP NMS
-2.091164	PREFMP PPOBJFP	-0.7050685
-1.745931	PREFMP PPOBJMS	-0.6841617
-2.760171	PREFMP PREFMP	-0.1014961
-2.635232	PREFMP PREFMS	-0.2996486
-3.237292	PREFMP PRELMP
-2.936262	PREFMP PRELMS
-0.2359914	PREFMP V3P	-0.1259259
-1.154507	PREFMP V3S	-2.062397
-0.616116	PREFMP VE3P	-0.7285876
-2.061201	PREFMP VINF	-0.6123875
-3.237292	PREFMP VPPMS
-1.328807	PREFMP VPPRE	-0.008840084
-3.237292	PREFMP YPFAI
-3.322081	PREFMS ADV	-0.2136386
-3.100233	PREFMS AMS	-0.3542925
-3.799203	PREFMS DETFP
-2.498173	PREFMS MOTINC	-0.3171878
-3.799203	PREFMS NFS
-3.498173	PREFMS NMP
-2.799203	PREFMS NMS	-0.1709897
-3.799203	PREFMS PINTMS
-3.799203	PREFMS PPER1S
-2.043328	PREFMS PPER3MP	-0.03973168
-1.382562	PREFMS PPER3MS	0.07448149
-3.021051	PREFMS PPOBJFP	-0.4176646
-1.491707	PREFMS PPOBJMS	-0.8721629
-2.84496	PREFMS PREFMS	-0.3150079
-1.571316	PREFMS V3P	-0.1341991
-0.4066816	PREFMS V3S	-0.2410462
-1.849813	PREFMS VE3P	-0.4048693
-0.8411168	PREFMS VE3S	-0.9936562
-2.498173	PREFMS VEINF	-0.3229369
-0.5213643	PREFMS VINF	0.07020652
-3.322081	PREFMS VPPMS	-0.1731835
-1.947944	PREFMS VPPRE	-0.2249708
-3.799203	PREFMS XPERS
-1.979659	PREFMS YPFAI	-0.3602228
-3.799203	PREFMS ZTRM
-2.306211	PRELFP ADV	-0.1081076
-1.392397	PRELFP ADVNE	-0.6110827
-3.005181	PRELFP AFP
-3.005181	PRELFP AINDMS
-2.403121	PRELFP CHIF	-0.09820274
-2.005181	PRELFP DETFP	0.3539415
-1.829089	PRELFP DETFS	-0.147269
-1.704151	PRELFP DETMP	0.02532798
-1.342423	PRELFP DETMS	0.08578187
-3.005181	PRELFP NMP
-2.70415	PRELFP PDEMFP	-0.462398
-3.005181	PRELFP PDEMMS
-2.306211	PRELFP PPER1P	0.06831414
-2.403121	PRELFP PPER1S	-0.4144983
-2.403121	PRELFP PPER3FP
-2.403121	PRELFP PPER3FS
-2.306211	PRELFP PPER3MP	-0.08605664
-1.801061	PRELFP PPER3MS	-0.3919718
-2.403121	PRELFP PPOBJFS	-0.6911932
-1.859052	PRELFP PPOBJMS	-0.5267577
-3.005181	PRELFP PREFMS
-3.005181	PRELFP PRELFP
-2.160083	PRELFP PRELMP	-0.1316841
-2.306211	PRELFP PRELMS	-0.0601837
-2.528059	PRELFP PREP
-2.528059	PRELFP PREPADE
-3.005181	PRELFP PREPAUX
-0.3902833	PRELFP V3P	0.259618
-2.306211	PRELFP V3S	-0.3312466
-0.8716416	PRELFP VA3P	-0.1652916
-3.005181	PRELFP VA3S
-0.7523275	PRELFP VE3P	-0.2453969
-2.306211	PRELFP VE3S	-0.7255965
-3.005181	PRELFP VPPMP
-2.160083	PRELFP XPERS	0.1109291
-3.005181	PRELFP YPFAI
-2.70415	PRELFP YPFOR	1.646304
-3.005181	PRELFP ZTRM
-2.451889	PRELFS ADV	-0.3258775
-1.415792	PRELFS ADVNE	-0.6729222
-3.32695	PRELFS AINDFP
-3.62798	PRELFS AINDFS
-2.782882	PRELFS AINDMP	0.1631843
-3.62798	PRELFS AINDMS
-3.62798	PRELFS AMP
-3.02592	PRELFS CHIF	-0.04576451
-2.180822	PRELFS DETFP	-0.02347684
-2.071677	PRELFS DETFS	-0.05067074
-1.664192	PRELFS DETMP	0.08312476
-1.380007	PRELFS DETMS	0.3711742
-3.150859	PRELFS MOTINC	-0.03188749
-2.92901	PRELFS NMS	-0.7137064
-2.782882	PRELFS PDEMFS	-0.3522696
-3.62798	PRELFS PDEMMP
-3.32695	PRELFS PDEMMS
-3.62798	PRELFS PINDFS
-3.32695	PRELFS PINDMS	-0.4286517
-2.673738	PRELFS PINTMS	-0.126395
-1.895586	PRELFS PPER1P	-0.2558076
-2.266252	PRELFS PPER1S	0.3034853
-3.150859	PRELFS PPER2P	0.0057033
-2.782882	PRELFS PPER3FS	-0.2110246
-2.514037	PRELFS PPER3MP	0.1380594
-1.8218	PRELFS PPER3MS	-0.09144992
-2.285557	PRELFS PPOBJFS	-1.024942
-2.451889	PRELFS PPOBJMP	-1.14437
-1.693482	PRELFS PPOBJMS	-0.5436014
-0.9985704	PRELFS PREFFS	-1.54283
-3.32695	PRELFS PREFMP	-0.3567686
-2.673738	PRELFS PRELFS	0.1005112
-2.849829	PRELFS PRELMP	-0.8425006
-2.372707	PRELFS PREP	0.02721104
-3.02592	PRELFS PREPADE	-0.03781815
-3.32695	PRELFS PREPAU	-0.07262149
-2.548799	PRELFS V3P	-0.2739491
-0.3819741	PRELFS V3S	0.506546
-3.32695	PRELFS VA1S
-2.92901	PRELFS VA3P	-0.3509103
-0.9690151	PRELFS VA3S	0.1753916
-3.150859	PRELFS VE1S
-2.782882	PRELFS VE3P	-0.2222407
-0.8805682	PRELFS VE3S	-0.1982448
-3.62798	PRELFS VPPFP
-3.150859	PRELFS VPPFS	-0.5902252
-3.62798	PRELFS VPPMS
-3.32695	PRELFS XLOC	-0.4699773
-2.849829	PRELFS XORG	-0.4134917
-2.109466	PRELFS XPERS	-0.2022823
-2.180822	PRELFS YPFAI	-0.1020306
-3.62798	PRELFS YPFOR
-3.62798	PRELFS ZTRM
-1.453681	PRELMP ADV	-0.4889587
-1.205417	PRELMP ADVNE	-1.108376
-3.525563	PRELMP AINDMP
-2.41162	PRELMP CHIF	-0.3800116
-3.224533	PRELMP COCO
-3.525563	PRELMP COSUB
-2.923503	PRELMP DETFP	0.6227868
-2.48417	PRELMP DETFS	0.7042506
-2.41162	PRELMP DETMP	0.4923029
-2.203344	PRELMP DETMS	0.2637136
-3.525563	PRELMP MOTINC
-3.224533	PRELMP NFS
-3.224533	PRELMP NMP
-3.224533	PRELMP NMS	-0.4126765
-3.224533	PRELMP PDEMMP
-2.923503	PRELMP PDEMMS	-0.2855878
-2.923503	PRELMP PINDMS	-0.4022248
-3.224533	PRELMP PINTMS
-2.48417	PRELMP PPER1P	-0.1535346
-2.826593	PRELMP PPER1S	-0.04146779
-3.525563	PRELMP PPER2P
-3.224533	PRELMP PPER3FP	-0.4354038
-3.525563	PRELMP PPER3FS
-2.622473	PRELMP PPER3MP	0.2941297
-1.817993	PRELMP PPER3MS	0.5027209
-2.923503	PRELMP PPOBJFS	-0.6911932
-1.41162	PRELMP PPOBJMP	-1.121287
-1.80956	PRELMP PPOBJMS	-1.019673
-1.090994	PRELMP PREFMP	-0.5620483
-2.224533	PRELMP PRELFS	-0.7204806
-1.844322	PRELMP PRELMP	-0.01359671
-2.224533	PRELMP PREP	0.08352709
-2.680465	PRELMP PREPADE
-3.525563	PRELMP PREPDU
-2.622473	PRELMP V1P	-0.1317245
-2.680465	PRELMP V2P	-0.1721143
-0.4909346	PRELMP V3P	0.2564667
-2.007049	PRELMP V3S	-0.1214857
-2.923503	PRELMP VA2P	-0.09007058
-0.7820533	PRELMP VA3P	-0.278547
-2.525563	PRELMP VA3S	0.1563433
-3.048442	PRELMP VE1P
-2.826593	PRELMP VE2P	-0.03254284
-0.8479561	PRELMP VE3P	-0.06235981
-2.446382	PRELMP VE3S	-0.1216808
-3.224533	PRELMP VPPRE
-3.224533	PRELMP XORG
-3.525563	PRELMP XPERS
-1.7852	PRELMP YPFAI	-0.3058392
-3.525563	PRELMP YPFOR
-3.224533	PRELMP ZTRM	-0.1764788
-1.369425	PRELMS ADV	-0.06297731
-1.376487	PRELMS ADVNE	-0.6694176
-2.918779	PRELMS AINDFP	-0.3642489
-3.161817	PRELMS AINDMP	0.1884693
-3.462847	PRELMS AINDMS	0.1685193
-1.790749	PRELMS CHIF	0.01781851
-2.533428	PRELMS COCO	-0.130382
-2.130409	PRELMS COSUB	-0.235425
-2.023514	PRELMS DETFP	-0.1568391
-1.385479	PRELMS DETFS	0.6144675
-1.829379	PRELMS DETMP	0.3191091
-1.485123	PRELMS DETMS	0.06678236
-2.860787	PRELMS MOTINC	-0.1524614
-2.763877	PRELMS NFS	-0.2172903
-2.809634	PRELMS NMP	-0.4018225
-2.617749	PRELMS NMS	-0.001618624
-2.722484	PRELMS PDEMMS	-0.210315
-3.064907	PRELMS PINDFS	0.02102068
-2.485123	PRELMS PINDMS	-0.281847
-3.161817	PRELMS PINTMS	-0.357613
-1.714659	PRELMS PPER1P	-0.3144796
-2.161817	PRELMS PPER1S	0.1111359
-2.130409	PRELMS PPER2P	0.05159569
-3.462847	PRELMS PPER2S
-2.809634	PRELMS PPER3FP	-0.01055884
-2.207575	PRELMS PPER3FS	-0.128598
-2.008002	PRELMS PPER3MP	-0.3601418
-1.114542	PRELMS PPER3MS	-0.4334533
-3.286756	PRELMS PPOBJFP	-0.1768218
-1.809635	PRELMS PPOBJMP	-0.9371766
-1.513457	PRELMS PPOBJMS	-0.7204212
-2.421454	PRELMS PREFMP	-0.04430914
-1.278156	PRELMS PREFMS	-1.321776
-2.421454	PRELMS PRELFS	-0.2137391
-3.161817	PRELMS PRELMP	-0.1389473
-2.559757	PRELMS PRELMS	-0.1925869
-1.824358	PRELMS PREP	0.1373487
-2.172812	PRELMS PREPADE	-0.1054965
-2.985726	PRELMS PREPAU	-0.1284102
-3.763877	PRELMS PREPDU
-3.763877	PRELMS V2P
-2.258727	PRELMS V3P	-0.1740348
-0.6218005	PRELMS V3S	0.455026
-2.763877	PRELMS VA3P	-0.6141517
-1.036336	PRELMS VA3S	-0.7358817
-2.462847	PRELMS VE3P	-0.298265
-0.9721864	PRELMS VE3S	-0.02180541
-3.462847	PRELMS VEINF	-0.4248448
-2.533428	PRELMS VINF	-0.1828215
-3.161817	PRELMS VPPMS	-0.09746276
-2.985726	PRELMS XORG	-0.0002999306
-2.172812	PRELMS XPERS	-0.1645905
-1.839598	PRELMS YPFAI	-0.09506992
-1.543769	PRELMS YPFOR	-0.09929109
-3.462847	PRELMS ZTRM	-0.1764788
-1.581409	PREP ADV	-0.3220855
-3.663425	PREP ADVNE	-0.2588499
-3.046125	PREP ADVPAS	-0.5805646
-3.038701	PREP AFP	-0.7419671
-2.880134	PREP AFS	-0.8956767
-2.688979	PREP AINDFP	-0.4043269
-3.128312	PREP AINDFS	-0.004155993
-2.30035	PREP AINDMP	-0.2698628
-2.85531	PREP AINDMS	-0.7945687
-2.622032	PREP AMP	-0.08280736
-2.37339	PREP AMS	-0.1135158
-1.377225	PREP CHIF	-0.1364269
-2.870034	PREP COCO	-0.07189536
-2.85531	PREP COSUB	0.02092189
-1.266728	PREP DETFP	-0.1358981
-0.7018344	PREP DETFS	-0.1658864
-1.112411	PREP DETMP	-0.2260618
-0.6664757	PREP DETMS	-0.1816196
-3.85531	PREP DINTFP	-0.7492751
-3.46713	PREP DINTFS	-0.05094892
-4.207493	PREP DINTMP	0.04494037
-3.69561	PREP DINTMS	-0.7748106
-2.589445	PREP MOTINC	-0.04006934
-2.132859	PREP NFP	0.07831669
-1.226014	PREP NFS	0.473375
-1.986079	PREP NMP	-0.2189177
-1.289069	PREP NMS	0.3607025
-4.031402	PREP PDEMFP	-0.10721
-2.627709	PREP PDEMFS	-0.354474
-3.053678	PREP PDEMMP	0.08744037
-2.822781	PREP PDEMMS	-0.3873972
-3.347155	PREP PINDFP	-0.3894519
-3.39458	PREP PINDFS	-0.1519403
-2.911926	PREP PINDMP	-0.1998253
-2.274259	PREP PINDMS	-0.4293425
-4.809553	PREP PINTFS
-3.487334	PREP PINTMS	-0.6606507
-3.964455	PREP PPER1P	-0.08054431
-4.207493	PREP PPER1S	-0.01655823
-2.84107	PREP PPER2P	-0.6749997
-3.362395	PREP PPER3FP	-0.0809682
-3.378189	PREP PPER3FS	-0.3651587
-4.809553	PREP PPER3MP
-2.99664	PREP PPER3MS	0.7077687
-3.46713	PREP PPOBJFP	-0.3296751
-2.203172	PREP PPOBJFS	-0.1737047
-1.842005	PREP PPOBJMP	-0.3038055
-2.605433	PREP PPOBJMS	-0.4697974
-2.427536	PREP PREFMS	-1.602062
-3.077159	PREP PRELFP	-0.496923
-2.745095	PREP PRELFS	-0.01746184
-3.128312	PREP PRELMP	-0.3785391
-2.56404	PREP PRELMS	-0.123898
-2.229769	PREP PREP	0.2599468
-2.304403	PREP PREPADE	-0.1594617
-3.809553	PREP PREPAU	-0.3045015
-4.031402	PREP PREPAUX	0.3225501
-2.698963	PREP PREPDES	-0.2701523
-3.347155	PREP PREPDU	0.00562501
-4.508523	PREP V3P
-3.633462	PREP V3S	-0.2624182
-4.332432	PREP VA3P
-4.508523	PREP VA3S
-2.526252	PREP VAINF	-0.4806708
-4.809553	PREP VE3S
-2.688979	PREP VEINF	0.2028702
-1.28737	PREP VINF	0.2764592
-4.809553	PREP VPPFP
-4.809553	PREP VPPFS
-4.332432	PREP VPPMP
-4.110583	PREP VPPMS	-0.178759
-4.809553	PREP VPPRE
-1.253492	PREP XLOC	0.3768229
-1.657265	PREP XORG	-0.0417527
-1.630576	PREP XPERS	-0.08641398
-3.085277	PREP XPROD	0.02664962
-2.176085	PREP YPFAI	0.008450806
-2.657265	PREP YPFOR	-0.03191066
-3.447825	PREP ZTRM	-1.079569
-1.887748	PREPADE ADV	-0.1403528
-3.298035	PREPADE ADVNE	-0.7212057
-2.708787	PREPADE ADVPAS	-0.8995756
-2.146174	PREPADE AFP	-1.340973
-2.461682	PREPADE AFS	-0.6284759
-2.8277	PREPADE AINDFP	-0.1133004
-3.81756	PREPADE AINDFS	-0.008954823
-2.327278	PREPADE AINDMP	-0.4032488
-3.056442	PREPADE AINDMS	-0.6321597
-1.954695	PREPADE AMP	-0.2347569
-2.414308	PREPADE AMS	-0.1243294
-1.322764	PREPADE CHIF	-0.4968631
-3.701055	PREPADE COCO	-0.133788
-3.676231	PREPADE COSUB	0.007820129
-2.156987	PREPADE DETFP	-0.340699
-0.6561462	PREPADE DETFS	-0.2309897
-1.872319	PREPADE DETMP	-0.6259241
-1.059814	PREPADE DETMS	-0.04606175
-3.755412	PREPADE DINTFS	-0.4411613
-4.232533	PREPADE DINTMP	-0.5870829
-3.454382	PREPADE DINTMS	-0.6567112
-2.165091	PREPADE MOTINC	0.04828691
-1.574331	PREPADE NFP	-0.1349883
-0.9820648	PREPADE NFS	0.3625572
-1.433883	PREPADE NMP	0.4814073
-1.122011	PREPADE NMS	0.5680491
-4.086406	PREPADE PDEMFP	0.007299244
-2.874599	PREPADE PDEMFS	0.04434133
-3.039409	PREPADE PDEMMP	-0.06196988
-3.05069	PREPADE PDEMMS	-0.6289996
-4.630474	PREPADE PINDFP	-0.4628808
-3.701055	PREPADE PINDFS	-0.1534942
-4.153352	PREPADE PINDMP	-0.2455491
-2.256643	PREPADE PINDMS	-0.09591705
-3.207228	PREPADE PINTMS	-0.5169047
-4.931504	PREPADE PPER1P
-4.630474	PREPADE PPER1S
-3.387436	PREPADE PPER2P	-0.5804694
-3.589081	PREPADE PPER3FS	-0.3296205
-3.630474	PREPADE PPER3MS	-0.1312477
-4.329443	PREPADE PPOBJFP
-2.820914	PREPADE PPOBJFS	-0.3379531
-2.171081	PREPADE PPOBJMP	-0.8147442
-2.595044	PREPADE PPOBJMS	-1.213247
-4.931504	PREPADE PREFMP
-2.039409	PREPADE PREFMS	-1.667973
-4.454382	PREPADE PRELFS
-2.706194	PREPADE PRELMS	-0.0765655
-2.982114	PREPADE PREP	0.162849
-1.818899	PREPADE PREPADE	0.8240894
-3.701055	PREPADE PREPAU	0.3512464
-4.232533	PREPADE PREPAUX	0.1216683
-2.617636	PREPADE PREPDES	-1.042032
-3.153352	PREPADE PREPDU	0.3095325
-4.329443	PREPADE V1P	-0.1066445
-4.454382	PREPADE V2S	-0.2082049
-4.931504	PREPADE V3P
-3.785376	PREPADE V3S	-0.1164954
-3.81756	PREPADE VA3S	-1.137905
-2.585151	PREPADE VAINF	-0.2758768
-3.931504	PREPADE VE3S	-0.487958
-2.322978	PREPADE VEINF	0.2083858
-1.015524	PREPADE VINF	0.2534673
-4.232533	PREPADE VPPFP
-4.153352	PREPADE VPPFS	-0.3459489
-3.440142	PREPADE VPPMP	0.272249
-3.308254	PREPADE VPPMS	0.1174768
-4.931504	PREPADE VPPRE
-0.9872678	PREPADE XLOC	0.135587
-1.686979	PREPADE XORG	0.3324305
-1.455542	PREPADE XPERS	0.1531852
-2.727384	PREPADE XPROD	0.1214544
-2.278291	PREPADE YPFAI	-0.2507928
-3.241307	PREPADE YPFOR	0.4244554
-3.551292	PREPADE ZTRM	-1.097298
-2.564535	PREPAU ADV	-0.1323207
-3.819807	PREPAU ADVPAS
-3.819807	PREPAU AFS
-2.916717	PREPAU AINDMS	0.2797368
-1.236608	PREPAU AMS	-0.4357126
-1.559736	PREPAU CHIF	-0.4612838
-3.342686	PREPAU DETFS	0.4143945
-3.518777	PREPAU DETMS
-2.196558	PREPAU MOTINC	-0.04921305
-3.518777	PREPAU NFP
-2.819807	PREPAU NFS	-0.1488596
-2.865565	PREPAU NMP	-0.02743839
-0.21753	PREPAU NMS	0.1554778
-3.819807	PREPAU PPOBJMS
-2.916717	PREPAU PREP	-0.008538492
-3.217747	PREPAU PREPADE	-0.09893254
-2.157049	PREPAU PREPAU	0.4346426
-3.819807	PREPAU V1S
-3.819807	PREPAU V3S
-3.819807	PREPAU VINF
-3.342686	PREPAU VPPFS
-3.819807	PREPAU VPPMP
-3.342686	PREPAU VPPMS	-0.1731835
-3.819807	PREPAU VPPRE
-0.671513	PREPAU XLOC	0.159164
-1.241168	PREPAU XORG	-0.3392671
-3.518777	PREPAU XPERS
-3.041656	PREPAU XPROD	-0.1173832
-2.176354	PREPAU YPFAI	-0.5326117
-3.819807	PREPAU YPFOR
-3.819807	PREPAU ZTRM
-2.273332	PREPAUX ADV	-0.3067974
-1.479941	PREPAUX AFP	-0.6401254
-1.240483	PREPAUX AMP	-0.118403
-1.627068	PREPAUX CHIF	-0.0347724
-3.41946	PREPAUX DETMP
-1.776007	PREPAUX MOTINC	-0.1050007
-0.5196396	PREPAUX NFP	-0.2676422
-3.11843	PREPAUX NFS	-0.3764004
-0.3848316	PREPAUX NMP	-0.2718865
-2.641309	PREPAUX NMS	-0.2718108
-3.41946	PREPAUX PREP
-2.942339	PREPAUX PREPADE	-0.221452
-3.41946	PREPAUX PREPAU
-1.887981	PREPAUX PREPAUX	-0.006844163
-3.11843	PREPAUX PREPDES
-2.942339	PREPAUX VPPMP
-3.41946	PREPAUX VPPRE
-1.073107	PREPAUX XLOC	0.2493227
-1.532969	PREPAUX XORG	-0.07917169
-2.942339	PREPAUX XPERS
-2.465218	PREPAUX YPFAI	-0.03955545
-3.11843	PREPAUX YPFOR	1.646304
-3.11843	PREPAUX ZTRM	-0.1764788
-2.262238	PREPDES ADV	-0.4351759
-4.154333	PREPDES ADVNE
-1.978241	PREPDES AFP	-0.58215
-3.853303	PREPDES AINDFP	0.06171981
-3.455363	PREPDES AINDMP	-0.3526343
-4.154333	PREPDES AINDMS
-1.458851	PREPDES AMP	-0.1474946
-3.376181	PREPDES AMS	-0.05687918
-1.465913	PREPDES CHIF	0.07966709
-2.224914	PREPDES DETFP	0.535165
-4.154333	PREPDES DETFS
-2.053962	PREPDES DETMP	0.1493886
-4.154333	PREPDES DETMS
-1.815876	PREPDES MOTINC	-0.09259498
-0.4432006	PREPDES NFP	0.3492464
-2.978241	PREPDES NFS	-0.2192488
-0.3314457	PREPDES NMP	0.1875343
-3.154333	PREPDES NMS	-0.0653863
-4.154333	PREPDES PDEMMS
-4.154333	PREPDES PPER1S
-3.376181	PREPDES PPER3MS	-0.2289722
-3.552273	PREPDES PREP	-0.2965223
-3.251243	PREPDES PREPADE	-0.0302752
-4.154333	PREPDES PREPAUX
-4.154333	PREPDES PREPDU
-3.677212	PREPDES V1P	-0.1815032
-4.154333	PREPDES V2P
-4.154333	PREPDES V3S
-2.531083	PREPDES VPPMP	0.01324871
-1.81191	PREPDES XLOC	0.1404346
-1.572269	PREPDES XORG	0.0800851
-2.875579	PREPDES XPERS	0.3147623
-3.075151	PREPDES XPROD	-0.1293315
-2.574549	PREPDES YPFAI	-0.3877259
-3.251243	PREPDES YPFOR	1.169183
-3.309235	PREPDES ZTRM	-0.6024475
-2.128809	PREPDU ADV	-0.01946878
-3.620171	PREPDU ADVPAS	-0.5390612
-3.620171	PREPDU AFS
-3.495232	PREPDU AINDMS	-0.6834182
-1.346784	PREPDU AMS	-0.2246521
-1.517508	PREPDU CHIF	-0.6201287
-4.097292	PREPDU COCO
-3.495232	PREPDU DETMS	-0.1402078
-2.106066	PREPDU MOTINC	0.02999562
-3.398322	PREPDU NFS	-0.1064036
-3.194202	PREPDU NMP	-0.01829784
-0.1911187	PREPDU NMS	0.3023434
-2.775073	PREPDU PINDMS	-0.5736047
-4.097292	PREPDU PPER3MS
-3.097292	PREPDU PREP	-0.2219893
-2.84202	PREPDU PREPADE	-0.6767902
-3.495232	PREPDU PREPDES	0.2838117
-2.147902	PREPDU PREPDU	0.6765239
-3.796262	PREPDU V1S	-0.4413782
-4.097292	PREPDU V3P
-3.398322	PREPDU VINF
-3.495232	PREPDU VPPMS
-4.097292	PREPDU VPPRE
-1.005977	PREPDU XLOC	0.3531657
-0.8557456	PREPDU XORG	0.1116961
-2.52909	PREPDU XPERS	0.1633418
-2.341417	PREPDU XPROD	-0.08865911
-2.735564	PREPDU YPFAI	-0.2944366
-3.398322	PREPDU YPFOR	1.345274
-3.319141	PREPDU ZTRM	-0.5444555
-0.8196488	V1P ADV	-0.371653
-3.219322	V1P ADVNE
-1.27484	V1P ADVPAS	-0.1560255
-2.918293	V1P AFP
-2.520353	V1P AFS	-0.1770001
-2.742201	V1P AINDFP	-0.06321895
-3.219322	V1P AINDFS
-1.897103	V1P AINDMP	0.03416434
-2.742201	V1P AMP	-0.1744563
-2.742201	V1P AMS
-2.520353	V1P CHIF	-0.06121917
-1.821383	V1P COCO	-0.09470142
-1.001839	V1P COSUB	-0.02807194
-1.787959	V1P DETFP	0.09838182
-1.406409	V1P DETFS	0.1647139
-1.700809	V1P DETMP	-0.07959557
-1.350091	V1P DETMS	-0.1926858
-3.219322	V1P DINTMP
-2.742201	V1P MOTINC
-2.316232	V1P NFS	-0.08936973
-3.219322	V1P NMP
-2.140141	V1P NMS	-0.135604
-2.742201	V1P PDEMFS	-0.1044181
-2.918293	V1P PDEMMS
-3.219322	V1P PINDMP
-2.918293	V1P PINDMS
-2.918293	V1P PINTMS	-0.4655769
-1.628258	V1P PPER1P	-0.3496051
-3.219322	V1P PPER1S
-3.219322	V1P PPER3FS
-2.26508	V1P PPER3MS	0.00816907
-2.219322	V1P PPOBJMP	-0.4989852
-1.821383	V1P PPOBJMS	-0.4089286
-2.617263	V1P PRELMS
-1.052005	V1P PREP	-0.1108282
-1.06096	V1P PREPADE	0.1784986
-1.772164	V1P PREPAU	-0.1468625
-2.374224	V1P PREPAUX	-0.09971139
-2.105379	V1P PREPDES	-0.1141283
-2.520353	V1P PREPDU	0.08056504
-3.219322	V1P V1P
-3.219322	V1P V2P
-2.918293	V1P V3S
-3.219322	V1P VE1S
-2.918293	V1P VE3P
-2.617263	V1P VE3S
-2.316232	V1P VEINF	-0.5498858
-1.136537	V1P VINF	0.3297679
-3.219322	V1P VPPMS
-2.742201	V1P XLOC	-0.1396821
-2.742201	V1P XORG
-1.66302	V1P XPERS	-0.2981984
-3.219322	V1P XPROD
-1.202289	V1P YPFAI	0.1609733
-1.380473	V1P YPFOR	0.2783275
-2.617263	V1P ZTRM	-0.3983276
-0.9248997	V1S ADV	-0.2325863
-1.011152	V1S ADVPAS	-0.4000729
-2.830696	V1S AFP	-0.3959839
-3.608847	V1S AFS
-3.131726	V1S AINDFP	-0.1601289
-3.307817	V1S AINDFS	0.042752
-2.909877	V1S AINDMP	-0.03337944
-3.307817	V1S AINDMS	0.1685193
-3.608847	V1S AMP
-2.286628	V1S AMS	-0.1297933
-2.654604	V1S CHIF	0.1737598
-1.946089	V1S COCO	-0.004826427
-0.5814972	V1S COSUB	-0.1608467
-2.193873	V1S DETFP	0.3202304
-1.484995	V1S DETFS	0.04284441
-2.228636	V1S DETMP	0.1750411
-1.438585	V1S DETMS	0.3139373
-3.608847	V1S DINTMS
-3.131726	V1S MOTINC	-0.03188749
-3.608847	V1S NFP
-2.330093	V1S NFS	-0.1963111
-2.210907	V1S NMS	-0.459202
-1.996063	V1S PDEMMS	-0.3830956
-2.378398	V1S PINDMS	-0.05125158
-3.608847	V1S PINTMS
-3.608847	V1S PPER1P
-2.131726	V1S PPER1S	0.1815957
-3.006787	V1S PPER2S
-1.996063	V1S PPER3MS	-0.2723306
-2.608847	V1S PPOBJFS	-0.2037261
-1.722356	V1S PPOBJMP	-0.564647
-2.103697	V1S PPOBJMS	-0.8339508
-3.608847	V1S PREFFS
-3.307817	V1S PREFMP
-3.608847	V1S PREFMS
-3.608847	V1S PRELFP
-3.131726	V1S PRELMP
-2.705757	V1S PRELMS	-0.08336392
-1.478513	V1S PREP	0.194197
-1.284564	V1S PREPADE	0.01912618
-2.494904	V1S PREPAU	-0.1006502
-2.763749	V1S PREPAUX	0.06439188
-2.763749	V1S PREPDES	-0.2045155
-2.763749	V1S PREPDU	-0.02857944
-3.608847	V1S V2P
-3.307817	V1S V3P
-3.608847	V1S V3S
-3.307817	V1S VA3S
-3.307817	V1S VE1S	-0.4012296
-3.307817	V1S VE3P
-2.909877	V1S VE3S	-0.1664614
-2.494904	V1S VEINF	-0.0302453
-1.113302	V1S VINF	0.5174519
-3.006787	V1S VPPMS
-3.608847	V1S XLOC
-2.146449	V1S XORG	-1.033
-1.649805	V1S XPERS	-0.2612225
-3.307817	V1S XPROD
-1.102342	V1S YPFAI	0.02202964
-1.494903	V1S YPFOR	0.006154299
-2.494904	V1S ZTRM	-0.8454856
-0.9009719	V2P ADV	-0.3518021
-3.123688	V2P ADVNE	-0.4121532
-1.475328	V2P ADVPAS	-0.1360041
-3.424718	V2P AFP
-2.822658	V2P AINDFP	0.392713
-2.947597	V2P AINDFS	-0.5542873
-2.725748	V2P AINDMP	0.1047571
-3.123688	V2P AINDMS	0.1685193
-2.947597	V2P AMP	-0.1915522
-2.822658	V2P AMS
-2.646567	V2P CHIF	-0.2073472
-1.856517	V2P COCO	-0.02946654
-1.096339	V2P COSUB	-0.04266429
-2.169446	V2P DETFP	0.2715902
-1.367813	V2P DETFS	0.2235806
-1.993355	V2P DETMP	-0.01565605
-1.215203	V2P DETMS	0.7796065
-3.424718	V2P DINTMS
-3.424718	V2P MOTINC
-3.424718	V2P NFP
-2.470476	V2P NFS	-0.08845697
-3.424718	V2P NMP
-2.521628	V2P NMS	-0.178792
-3.424718	V2P PDEMFS
-3.424718	V2P PDEMMP
-2.145965	V2P PDEMMS	-0.222666
-3.424718	V2P PINDMP
-2.725748	V2P PINDMS
-3.123688	V2P PINTMS
-1.88065	V2P PPER1P	-0.406016
-2.145965	V2P PPER1S	0.257246
-1.100436	V2P PPER2P	-0.4759194
-3.123688	V2P PPER3FP	-0.3227988
-3.424718	V2P PPER3MP
-1.717148	V2P PPER3MS	0.2426921
-1.856517	V2P PPOBJFS	-0.0993734
-1.919568	V2P PPOBJMP	-0.347468
-2.06299	V2P PPOBJMS	-0.5631684
-2.310775	V2P PRELMS	-0.09836277
-1.26335	V2P PREP	0.2033325
-1.266356	V2P PREPADE	0.1668346
-2.310775	V2P PREPAU	0.2827187
-2.521628	V2P PREPAUX	-0.1116099
-2.27859	V2P PREPDES	-0.142157
-2.310775	V2P PREPDU	0.3106825
-3.424718	V2P V1S
-3.123688	V2P V2P
-3.424718	V2P V3P
-3.424718	V2P V3S
-3.123688	V2P VA3S
-3.424718	V2P VE2P
-2.947597	V2P VE3S
-2.57962	V2P VEINF	-0.08346099
-1.231594	V2P VINF	0.2594303
-3.424718	V2P VPPFS
-3.123688	V2P VPPMP
-3.424718	V2P VPPMS
-2.947597	V2P XLOC	-0.04766379
-1.324348	V2P XORG	-0.781817
-1.868416	V2P XPERS	0.1430135
-3.424718	V2P XPROD
-0.9389969	V2P YPFAI	0.02034718
-1.429083	V2P YPFOR	0.1234255
-2.383326	V2P ZTRM	-0.7785387
-1.685742	V2S ADV	-0.4168597
-1.20862	V2S ADVPAS
-1.50965	V2S AFP
-1.986772	V2S AINDFP
-1.986772	V2S AMS
-1.685742	V2S COCO
-1.384712	V2S COSUB	-0.1455103
-1.986772	V2S DETFP
-1.986772	V2S DETFS
-1.986772	V2S DETMP
-1.986772	V2S PINDMS
-1.986772	V2S PPOBJFP
-1.50965	V2S PPOBJMP
-1.986772	V2S PRELMS
-1.083682	V2S PREPADE	-0.1248137
-1.986772	V2S PREPAU
-1.986772	V2S PREPAUX
-1.685742	V2S VINF
-1.986772	V2S VPPMP
-0.5243737	V2S YPFAI	-0.4261545
-1.384712	V2S YPFOR	1.424455
-1.986772	V2S ZTRM
-0.7640535	V3P ADV	-0.5369058
-3.353724	V3P ADVNE	-0.1253361
-1.270042	V3P ADVPAS	-0.5557465
-2.633565	V3P AFP	-0.2129253
-3.177633	V3P AFS	-0.459983
-3.001541	V3P AINDFP	0.2699957
-3.256814	V3P AINDFS	-0.258278
-2.322315	V3P AINDMP	0.08408391
-2.613361	V3P AINDMS	0.3719963
-2.256814	V3P AMP	-0.1637829
-2.508626	V3P AMS	0.01257554
-2.063689	V3P CHIF	-0.05740231
-1.707811	V3P COCO	-0.2503731
-1.377145	V3P COSUB	-0.1134231
-1.679322	V3P DETFP	0.09584928
-1.184196	V3P DETFS	0.3842273
-1.478663	V3P DETMP	0.4208697
-1.22339	V3P DETMS	-0.003754735
-3.177633	V3P MOTINC	-0.05168384
-3.955784	V3P NFP
-2.063689	V3P NFS	0.1115677
-2.809656	V3P NMP	0.01688692
-2.149604	V3P NMS	-0.06408179
-3.353724	V3P PDEMFS	-0.5815394
-3.654754	V3P PDEMMP	-0.4683296
-3.001541	V3P PDEMMS	-0.2198516
-3.955784	V3P PINDFP
-3.353724	V3P PINDFS	-0.07588932
-2.594056	V3P PINDMS	-0.1690472
-3.955784	V3P PINTMS
-3.353724	V3P PPER1P	-0.2591632
-3.478663	V3P PPER1S
-3.052694	V3P PPER3FP	-0.05806999
-2.274543	V3P PPER3MP	-0.1537745
-2.751664	V3P PPER3MS	0.301128
-2.841841	V3P PPOBJFP	-0.4577786
-3.478663	V3P PPOBJFS	-0.5710368
-2.248214	V3P PPOBJMP	-0.5242698
-3.478663	V3P PPOBJMS	-0.2061459
-2.955784	V3P PREFMP	-0.3915052
-1.730475	V3P PREFMS	-1.189021
-3.955784	V3P PRELFS
-3.654754	V3P PRELMP
-3.353724	V3P PRELMS
-1.014272	V3P PREP	0.03640854
-0.9948378	V3P PREPADE	-0.03213632
-1.982656	V3P PREPAU	0.3166099
-2.343	V3P PREPAUX	0.1205734
-1.700511	V3P PREPDES	-0.457603
-2.265588	V3P PREPDU	0.1825787
-3.955784	V3P V1S
-2.876603	V3P V3P	-0.03530575
-3.955784	V3P V3S
-3.478663	V3P VA3P
-3.654754	V3P VA3S	-0.4767496
-2.322315	V3P VAINF	0.3587114
-3.256814	V3P VE3P
-3.353724	V3P VE3S
-1.74094	V3P VEINF	-0.2787811
-1.047835	V3P VINF	0.1872516
-2.914391	V3P VPPFP	0.0214702
-2.575573	V3P VPPMP	-0.09486353
-3.654754	V3P VPPMS
-3.955784	V3P VPPRE
-3.110686	V3P XLOC	-0.03228953
-2.876603	V3P XORG	-0.02669246
-2.464422	V3P XPERS	-0.04167321
-1.344061	V3P YPFAI	-0.02740109
-1.582872	V3P YPFOR	-0.2513227
-2.955784	V3P ZTRM	-0.7407502
-0.7655357	V3S ADV	-0.3377975
-3.295479	V3S ADVNE	-0.2736812
-1.270173	V3S ADVPAS	-0.2221054
-3.86951	V3S AFP	-0.04939466
-2.731208	V3S AFS	-0.164613
-3.295479	V3S AINDFP	0.1517318
-3.693419	V3S AINDFS	-0.3252248
-2.764	V3S AINDMP	0.02899009
-2.848321	V3S AINDMS	0.04782349
-3.626472	V3S AMP	-0.1713767
-2.027526	V3S AMS	-0.3403704
-2.030661	V3S CHIF	-0.2531126
-1.791235	V3S COCO	-0.07920474
-1.266095	V3S COSUB	0.1287435
-1.897539	V3S DETFP	-0.328313
-1.140751	V3S DETFS	0.3053013
-1.7726	V3S DETMP	0.1765068
-1.090997	V3S DETMS	0.1358343
-4.47157	V3S DINTFP
-4.17054	V3S DINTFS	-0.1649549
-4.47157	V3S DINTMS
-2.686241	V3S MOTINC	0.001008272
-4.47157	V3S NFP
-2.166219	V3S NFS	-0.04574156
-3.86951	V3S NMP	-0.1255612
-2.22115	V3S NMS	0.1630781
-2.86951	V3S PDEMFS	0.1894031
-3.86951	V3S PDEMMP	-0.3083655
-2.891787	V3S PDEMMS	-0.06878081
-4.17054	V3S PINDFP
-2.927502	V3S PINDFS	0.3373644
-4.47157	V3S PINDMP
-2.278446	V3S PINDMS	-0.4391029
-4.17054	V3S PINTFS
-3.7726	V3S PINTMS	-0.1411377
-4.47157	V3S PPER1P
-3.26745	V3S PPER1S	-0.06479266
-4.17054	V3S PPER2P
-4.17054	V3S PPER3FP	-0.3227988
-2.563085	V3S PPER3FS	-0.3744428
-3.994449	V3S PPER3MP	-0.1170329
-1.694144	V3S PPER3MS	0.6910287
-3.056597	V3S PPOBJFP	-0.6522366
-2.645496	V3S PPOBJFS	-0.3358701
-2.233524	V3S PPOBJMP	-1.025228
-2.307218	V3S PPOBJMS	-0.9982817
-3.109843	V3S PREFFS	-0.5864071
-1.830096	V3S PREFMS	-0.8502102
-4.47157	V3S PRELFS
-4.17054	V3S PRELMP
-2.828118	V3S PRELMS	-0.007394582
-1.150594	V3S PREP	0.05359244
-0.9937259	V3S PREPADE	0.4022878
-1.963714	V3S PREPAU	0.4069846
-2.33485	V3S PREPAUX	0.2462738
-1.910469	V3S PREPDES	-0.3864748
-2.223597	V3S PREPDU	0.4761158
-3.994449	V3S V2P
-4.47157	V3S V2S
-4.47157	V3S V3P
-2.679179	V3S V3S	0.06902394
-3.295479	V3S VA3S	0.1207941
-2.454537	V3S VAINF	0.1199226
-3.626472	V3S VE3S	0.01754108
-1.813559	V3S VEINF	-0.2007033
-0.983584	V3S VINF	0.1420132
-3.091359	V3S VPPFS	-0.002328634
-2.747294	V3S VPPMS	-0.2250767
-3.07363	V3S XLOC	-0.003206313
-2.442187	V3S XORG	-0.08114767
-1.957023	V3S XPERS	-0.3792593
-3.430178	V3S XPROD	0.02014306
-1.37675	V3S YPFAI	0.120077
-1.684819	V3S YPFOR	-0.6640351
-2.903369	V3S ZTRM	-1.279141
-0.8384787	VA1P ADV	-0.2121813
-1.124445	VA1P ADVPAS	-0.25053
-1.864808	VA1P AINDMP	0.1358012
-2.767898	VA1P AMS
-1.813655	VA1P CHIF	0.148022
-1.864808	VA1P COCO	-0.1553215
-1.726505	VA1P DETFP	0.3217569
-1.32074	VA1P DETFS	-0.1561485
-1.864808	VA1P DETMP	0.04075581
-1.445678	VA1P DETMS	-0.002554357
-2.165838	VA1P MOTINC	-0.1277792
-2.165838	VA1P NFS	-0.04540721
-1.653954	VA1P NMS	-0.04976311
-2.767898	VA1P PPER3MS
-2.767898	VA1P PRELMP
-1.688716	VA1P PREP	0.02154202
-1.767898	VA1P PREPADE	-0.06930015
-2.767898	VA1P V3S
-1.9228	VA1P VPPFP	-0.1210887
-1.989746	VA1P VPPFS	0.03426234
-1.989746	VA1P VPPMP
-0.3664971	VA1P VPPMS	0.0525499
-2.767898	VA1P XORG
-2.165838	VA1P XPERS	-0.292364
-1.62177	VA1P YPFAI	-0.32162
-2.767898	VA1P ZTRM
-0.9805216	VA1S ADV	-0.3117411
-0.8882074	VA1S ADVPAS	-0.4686861
-3.037426	VA1S AFS
-2.736397	VA1S AINDMS	0.1685193
-3.037426	VA1S AMS
-1.996034	VA1S CHIF	0.0245555
-2.560305	VA1S COCO
-2.083184	VA1S COSUB	-0.2099402
-2.736397	VA1S DETFP	0.2917936
-1.329856	VA1S DETFS	-0.3481838
-1.606063	VA1S DETMS	-0.0994643
-1.715207	VA1S NFS	-0.2294569
-2.736397	VA1S NMP	-0.4102744
-1.833307	VA1S NMS	-0.2353894
-3.037426	VA1S PINDFS
-1.575029	VA1S PPER1S	-0.1635963
-3.037426	VA1S PPER2P
-2.736397	VA1S PPER3MS	-0.2770667
-2.134336	VA1S PREP
-2.134336	VA1S PREPADE	-0.09861498
-2.083184	VA1S PREPDES	0.02057028
-2.259275	VA1S PREPDU	-0.3965562
-2.560305	VA1S V1S
-2.560305	VA1S V3S
-2.560305	VA1S VPPFP
-1.891298	VA1S VPPFS	-0.07471605
-2.083184	VA1S VPPMP	-0.1234798
-0.3050327	VA1S VPPMS	0.1130058
-1.833307	VA1S YPFAI	-0.3242654
-2.560305	VA1S YPFOR	1.521365
-2.560305	VA1S ZTRM	-0.3014176
-0.9099294	VA2P ADV	-0.318963
-1.190756	VA2P ADVPAS	-0.2904054
-2.70927	VA2P AINDMP
-2.70927	VA2P AINDMS
-1.864172	VA2P CHIF	0.05897082
-2.40824	VA2P COCO
-1.864172	VA2P COSUB	-0.1179431
-2.40824	VA2P DETFP	0.2917936
-1.277906	VA2P DETFS	0.08533573
-2.232149	VA2P DETMP	0.3417858
-1.075801	VA2P DETMS	-0.04317737
-1.40824	VA2P NFS	-0.2433477
-1.755027	VA2P NMS	-0.1940259
-2.70927	VA2P PINDFS
-2.232149	VA2P PINDMS
-2.70927	VA2P PPER1S
-2.232149	VA2P PPER2P
-2.70927	VA2P PREFMS
-1.931119	VA2P PREP
-1.80618	VA2P PREPADE	-0.2561242
-1.387051	VA2P PREPDES	-0.01721829
-2.40824	VA2P PREPDU	-0.02857944
-2.70927	VA2P V2P
-2.70927	VA2P VPPFP
-1.864172	VA2P VPPFS	-0.1052952
-1.931119	VA2P VPPMP	0.04326931
-0.4148037	VA2P VPPMS	0.09789413
-2.70927	VA2P XLOC
-2.70927	VA2P YPFAI
-2.70927	VA2P YPFOR
-2.40824	VA2P ZTRM	-0.1764788
-1.643453	VA2S ADV
-1.041393	VA2S ADVPAS	-0.2380312
-1.643453	VA2S COSUB
-1.041393	VA2S DETFS	0.3352132
-1.643453	VA2S DETMP
-1.041393	VA2S DETMS	-0.1137693
-1.342423	VA2S MOTINC
-1.041393	VA2S NFS	-0.09088016
-0.6434527	VA2S VPPMS	-0.1255423
-1.643453	VA2S YPFAI
-1.643453	VA2S YPFOR
-0.9643847	VA3P ADV	-0.774659
-3.719497	VA3P ADVNE
-1.194452	VA3P ADVPAS	-0.7525246
-3.020527	VA3P AINDFP	0.3347211
-2.464225	VA3P AINDMP	-0.3332799
-3.719497	VA3P AMS
-3.117437	VA3P CHIF	-0.0612357
-2.128433	VA3P COCO	-0.3082395
-2.678104	VA3P COSUB	-0.07096638
-3.117437	VA3P DETFP	0.4678849
-1.784999	VA3P DETFS	-0.3939413
-2.489048	VA3P DETMP	0.1789863
-1.710897	VA3P DETMS	-0.2027356
-2.719497	VA3P MOTINC	-0.1110687
-2.106713	VA3P NFS	-0.2840531
-1.913317	VA3P NMS	-0.2774471
-3.719497	VA3P PDEMFS
-3.719497	VA3P PDEMMS
-3.418467	VA3P PINDFS
-2.272339	VA3P PINDMS	-0.4077989
-2.874399	VA3P PPER3FP	-0.2969521
-2.418467	VA3P PPER3MP	-0.5070123
-3.418467	VA3P PPER3MS
-3.117437	VA3P PPOBJMP	-0.6875395
-3.719497	VA3P PREFMP
-3.719497	VA3P PRELFP
-2.941346	VA3P PRELMP	-0.1768675
-3.719497	VA3P PRELMS
-2.272339	VA3P PREP	0.10427
-2.339286	VA3P PREPADE	-0.1544217
-3.719497	VA3P PREPAU
-2.056739	VA3P PREPDES	-0.004365802
-2.543406	VA3P PREPDU	-0.7555782
-3.719497	VA3P V1S
-2.573369	VA3P V3S	-0.08354019
-2.257099	VA3P VA3P	-0.02733171
-3.719497	VA3P VA3S
-3.418467	VA3P VE3P
-3.719497	VA3P VINF
-1.288133	VA3P VPPFP	-1.020403
-2.719497	VA3P VPPFS	0.05199112
-2.117437	VA3P VPPMP	0.4118803
-0.2033584	VA3P VPPMS	-0.02553844
-2.076044	VA3P YPFAI	-0.2829957
-3.020527	VA3P YPFOR	1.345274
-3.418467	VA3P ZTRM	-0.1764788
-0.8627793	VA3S ADV	-0.573786
-3.515026	VA3S ADVNE	-0.7131832
-1.185018	VA3S ADVPAS	-0.8121733
-4.213995	VA3S AFP
-3.736874	VA3S AFS
-3.213996	VA3S AINDFP	-0.06321895
-3.912966	VA3S AINDFS	-0.4725736
-2.816056	VA3S AINDMP	0.1363331
-2.601212	VA3S AINDMS	0.1727622
-3.067868	VA3S AMS	-0.3397595
-1.621819	VA3S CHIF	-0.3379246
-2.113625	VA3S COCO	-0.3961593
-2.205395	VA3S COSUB	-0.1819693
-2.245513	VA3S DETFP	-0.2467995
-1.439479	VA3S DETFS	-0.2877429
-2.164778	VA3S DETMP	0.3597592
-1.446098	VA3S DETMS	-0.09228563
-4.213995	VA3S DINTMP
-2.695482	VA3S MOTINC	-0.1782616
-4.213995	VA3S NFP
-2.245513	VA3S NFS	-0.2493644
-3.736874	VA3S NMP	-0.5352131
-1.895932	VA3S NMS	-0.1355079
-3.310906	VA3S PDEMMP	-0.02903384
-4.213995	VA3S PDEMMS
-4.213995	VA3S PINDFP
-2.983547	VA3S PINDMP	-0.3431089
-2.05866	VA3S PINDMS	-0.5312992
-3.515026	VA3S PPER1S	-0.08350503
-4.213995	VA3S PPER2P
-2.852268	VA3S PPER3FS	-0.288146
-3.912966	VA3S PPER3MP
-1.912966	VA3S PPER3MS	-0.5528899
-3.912966	VA3S PPOBJFS	-0.4422603
-3.736874	VA3S PPOBJMP	-0.2028891
-3.912966	VA3S PPOBJMS	-0.2981209
-3.912966	VA3S PRELFS	-0.2442929
-3.310906	VA3S PRELMP	-0.05152644
-3.213996	VA3S PRELMS	-0.1799471
-1.935242	VA3S PREP	0.0739004
-2.080457	VA3S PREPADE	-0.3894072
-3.435844	VA3S PREPAU	0.214143
-3.912966	VA3S PREPAUX
-1.62071	VA3S PREPDES	-0.2604225
-2.551238	VA3S PREPDU	-0.4053301
-3.736874	VA3S V1P
-4.213995	VA3S V2P
-4.213995	VA3S V3P
-2.891776	VA3S V3S	-0.02149177
-2.611936	VA3S VA3S	0.1016832
-3.611936	VA3S VAINF	0.1010024
-4.213995	VA3S VE3P
-3.912966	VA3S VE3S
-4.213995	VA3S VEINF
-3.067868	VA3S VINF	-0.05174546
-2.799022	VA3S VPPFP	-0.0755474
-1.735429	VA3S VPPFS	-0.1982881
-2.481602	VA3S VPPMP	0.326347
-0.283709	VA3S VPPMS	-0.6440958
-3.310906	VA3S XLOC	-0.04300894
-3.310906	VA3S XORG	-0.05352169
-3.172603	VA3S XPERS	0.08128229
-3.912966	VA3S XPROD
-1.726857	VA3S YPFAI	-0.3153116
-3.009876	VA3S YPFOR	0.8929765
-3.515026	VA3S ZTRM	-0.4775088
-1.152798	VAINF ADV	-0.5079805
-1.817006	VAINF ADVPAS	-0.7143137
-2.453828	VAINF CHIF	0.03341672
-1.439587	VAINF DETFS	0.08474272
-1.145619	VAINF DETMS	-0.1814802
-1.675677	VAINF NFS	-0.1572465
-1.362747	VAINF NMS	-0.2123846
-1.754858	VAINF PREPADE	0.08333847
-1.09844	VAINF PREPDES	-0.3641288
-2.930949	VAINF VPPFP
-1.889556	VAINF VPPFS	-0.1577605
-2.085851	VAINF VPPMP	0.07323253
-0.2191418	VAINF VPPMS	0.2503856
-0.6853151	VE1P ADV	-0.3664306
-1.09108	VE1P ADVPAS	-0.2066461
-1.764496	VE1P AINDMP	-0.3124594
-1.147196	VE1P AMP	-0.2002227
-2.609594	VE1P AMS
-2.308564	VE1P CHIF
-2.007535	VE1P COCO	-0.1450868
-2.609594	VE1P COSUB
-1.463466	VE1P DETFS	0.4064864
-2.007535	VE1P DETMP	-0.6609049
-1.330841	VE1P DETMS	0.02969497
-2.609594	VE1P NFS
-1.764496	VE1P NMP	-0.09200519
-1.764496	VE1P NMS	-0.1318498
-2.609594	VE1P PINDMP
-1.764496	VE1P PPER1P	-0.1702704
-2.007535	VE1P PPER2P	-0.471418
-2.308564	VE1P PPOBJMP
-0.7345331	VE1P PREP	-0.271312
-1.530413	VE1P PREPADE	-0.05217756
-2.308564	VE1P PREPAU
-2.609594	VE1P PREPAUX
-2.007535	VE1P PREPDES	-0.4263643
-2.609594	VE1P V1S
-2.609594	VE1P VPPFP
-0.9968106	VE1P VPPMP	0.05665457
-2.308564	VE1P VPPMS
-1.764496	VE1P YPFAI	-0.1371085
-2.132473	VE1P YPFOR	1.521365
